0.08975969,0.06533488,-0.01343723,0.024642527,-0.055613533,-0.49152067,-0.13363731,-0.15609172,0.09345374,0.0001942524,0.081813686,-0.14515194,-0.021052506,0.11587947,-0.0121018635,0.021249386,-0.007082848,-0.40224078,-0.071538344,0.07136216,-0.12318466,0.03277801,0.02000144,-0.12401995,-0.16264091,0.09267138,-0.0005833347,0.121117145,-0.3677937,0.056731038,-0.15072027,-0.02244604
0.19267915,0.14029497,-0.44227985,-0.367885,-0.08241719,0.23482832,0.35676372,-0.10484934,0.070975244,0.12619172,-0.16203178,0.3376771,0.61390275,-0.08454148,0.41550902,-0.17813845,-0.009508331,-0.34731117,-0.49276957,0.016047018,-0.2648308,0.049348615,-0.10135574,-0.18262935,0.170666,0.087102376,0.826777,-0.050609898,-0.4323714,-0.06621842,0.4171214,0.02649716
0.1635717,0.29655346,0.20053302,-0.15512785,0.34932324,0.18466888,-0.16557649,-0.056662537,-0.043713473,0.68899167,-0.1517652,-0.24631666,0.17475867,-0.27404928,-0.011422152,0.46573836,0.16188473,0.30444884,0.2692276,0.0999833,-0.18808852,0.06464166,0.3515399,-0.14291997,-0.03361158,-0.50774956,0.0037065763,-0.43190998,-0.57852215,0.099328995,0.028886272,-0.595894
-0.43740758,-0.14452209,-0.1378176,-0.17451525,-0.33494225,-0.3718709,-0.06782591,-0.06268414,-0.027136412,0.003581683,-0.08992794,-0.035307594,-0.5814625,0.19452445,0.015537909,0.0034308406,-0.0071490603,-0.32144344,0.21529303,0.032183047,0.30036154,0.04494925,0.122807056,0.37367344,-0.87960297,-0.075290516,-0.80225796,-0.15728405,-0.36983716,0.16852096,-0.3365506,-0.063314095
0.04824909,-0.34378752,-0.36371934,0.26497912,-0.2517699,0.120828405,-0.026655914,0.21373278,0.17370763,-0.66673267,0.46433884,0.3305918,-0.09415979,0.0680569,0.34564805,-0.112064354,-0.8687557,-0.21273242,-0.07340057,0.027579768,-0.043320574,0.008571702,-0.3867991,0.112570055,0.19893768,0.2733253,0.0028752473,0.2995769,0.43331137,0.058022864,-0.004822038,-0.3294647
0.107912995,0.018931888,0.2613374,-0.12512974,-0.49118814,0.09411535,0.18660308,-0.14654317,-0.07194569,-0.02934673,-0.5895664,-0.066530794,0.0008789797,0.33918276,-0.29069856,0.19307171,0.7182131,-0.27601233,-0.24747288,0.027318979,0.2666282,-2.6526291,-1.0289567,0.05014682,-0.09903783,0.27984667,0.0016095939,-0.037445363,0.07369568,-0.10798309,-0.10227335,-0.17568237
0.37308073,-0.057433628,-0.62429005,0.1877833,0.089442484,-0.07662929,-0.18794604,0.2859692,0.021758402,0.01829196,-0.34311378,-0.5053637,0.05383869,0.16829194,0.2863146,0.4201218,0.052732725,0.07543151,0.017379602,-2.3033483,0.3747911,0.07428121,-0.002920365,0.22546428,0.38763013,-0.44715396,0.012968139,0.0007414244,-0.17678057,0.00541309,0.12813464,0.21940893
0.057700004,0.083153665,0.5072597,0.43090048,0.3474166,0.018025521,-0.26030284,0.11798681,-2.3136415,-0.115483515,-0.026468027,-0.04363348,0.104943134,-0.26596296,-0.32643998,-0.18394478,0.01182548,0.02886546,0.54206437,0.004205004,-0.16460522,0.04933776,0.16299231,0.07232625,-0.5111054,0.11022222,-0.02323404,0.12517177,0.029821228,-0.0418061,0.066758625,0.41590294
-0.5326856,0.14154032,0.24171996,0.13124041,0.29693496,-0.0006217201,0.39596787,-0.8710866,0.041216806,0.0035413376,-0.115685344,-0.17587642,-0.09409661,-0.050220292,0.042330414,-0.295728,-0.00776682,-0.25944018,0.10449825,0.04555806,-0.36538756,0.05437337,-0.00018521745,0.07775163,0.064618684,0.13380828,0.048882805,-0.3136454,0.33414704,-2.807475,-0.010210803,-0.20781755
