0.17513178,0.035641316,0.1953044,-0.29171538,0.009652583,-0.09255704,-0.14835149,-0.11438513,-0.66636384,0.18502216,-0.070309736,-0.7335422,0.103347644,-0.7189316,0.019116877,-0.59792554,-0.324541,-0.056726385,-0.14000005,0.11564695,-0.4415354,-0.035919353,0.25521,0.06500774,0.18617566,0.16434167,-0.12461035,0.10582966,-0.15234585,-0.22409678,0.097093,0.10360111,0.09842984,-0.37358195,-0.34336844,-0.54709625,-0.55123943,0.0021750259,0.29172894,-0.121774174,-0.061072014,-0.45297238,-0.18122749,0.11387193,-0.45354426,0.3420577,0.018959178,0.0476395,0.15682788,0.22973767,-0.24625209,-0.23183262,0.060401294,-0.77396363,0.46833727,-0.025081515,-0.12254229,-0.111855365,-0.19336063,-0.1686245,-0.078372754,-0.06839765,-0.09352111,0.027537022
-0.29307234,0.016671777,0.3342764,0.1599622,0.05005247,-0.12606606,0.20888828,-0.41561028,-0.25495988,-0.16535307,-0.15168771,-0.7458645,0.12554505,-0.34557718,-0.23253375,-0.3892926,0.063765705,0.2124676,0.047483362,-0.28757113,-0.18494877,0.19407521,0.00956197,0.18583311,0.05322576,-0.02871147,-0.7261054,0.17440242,0.11310151,0.22748461,0.23804031,-0.36387008,-0.12982379,-0.2502472,0.051224157,-0.63191944,-0.23249248,0.21437298,-0.11147345,0.21613924,0.09075906,-0.2972213,-0.3031324,-0.28794855,0.073684804,-0.085575484,-0.14919613,0.018150117,-0.36064336,-0.08059432,-0.34419534,0.0010787878,-0.10928428,-0.14394403,-0.49408975,-0.2422864,-0.58570766,0.023163747,0.12996235,-0.045886103,0.1776463,-0.16794257,-0.3479249,0.19946627
0.26555938,-0.42800912,0.26729426,-0.20425007,0.032442436,0.0033252074,-0.19778956,-0.41092226,0.1780575,-0.1887892,0.19451638,-0.19658585,0.27910566,0.10563929,-0.13370241,-1.2886404,0.10049347,-0.35281906,-0.15983233,-0.0844452,0.011021268,-0.35009235,-0.027098885,0.033298034,0.28789398,-0.18446171,-0.3728764,0.12576948,0.16316879,0.08782204,-0.16041717,-0.37478644,0.6145979,-0.08367241,0.22898082,-0.8439675,0.08799034,-0.26657724,0.040671237,0.11419684,-0.18039116,-0.31055856,-0.04728621,-0.10004525,-0.0039211414,0.080226354,-0.22378848,-0.2302062,0.12241383,-0.1375419,-0.9205295,-0.23035029,-0.018335963,-0.087504186,-0.12670937,0.03723837,0.07622548,0.19874942,-0.20277879,-0.06608989,0.2321941,-0.107632935,-0.30698997,0.14075278
-0.063484594,0.2575535,0.49548784,0.12538286,-0.4377892,-0.0436919,-0.10708387,-0.62251806,0.11675696,0.03651121,0.073379256,0.7084307,0.25342485,0.044626806,-0.020994788,0.31206402,0.2210007,-0.006575232,-0.0030315882,0.06750048,-0.022386879,-0.5881419,-0.3118279,-0.013699354,0.4822366,-0.07986727,-0.23539355,0.123992756,0.10348527,0.21689826,0.16864036,-0.06453934,0.18210115,-0.5853986,0.069982484,-0.22752751,-0.31697333,0.097709894,0.31438434,0.028585892,-0.12325293,-0.20557018,-0.03045307,-0.1402898,-0.8382712,0.11721233,0.25188252,0.19209823,0.0014281905,-0.08316504,-0.25380176,-0.24423999,0.085934326,0.24379003,-0.2079976,0.2508336,-0.16517025,0.021585248,0.11043291,-0.4362345,0.1297282,-0.22923633,0.11061205,0.26739666
-0.13308746,0.035786938,-0.11628593,-0.23694316,-0.45117384,-0.36231905,-0.553707,-0.23202759,0.1920365,0.041807894,0.6186791,-0.25530368,-0.165017,0.05263926,-0.09389877,-0.7864628,-0.07029763,0.32241312,0.2182429,-0.08759678,0.0019422665,0.5170952,0.607728,-0.7314106,0.5024937,0.05991311,-0.44857755,-0.27078703,0.3349647,-0.2584397,0.09482098,-0.015678246,-0.45637602,-0.15968229,0.48206037,-0.24294603,-0.44753566,0.10218108,0.26232055,0.6088879,-0.0068309605,-0.5620548,-0.13192914,0.053317826,-0.103803635,0.06939681,0.045058496,0.2554953,-0.30302882,0.42090148,0.39951676,0.091098264,-0.258612,0.457944,-0.13280196,0.18210992,0.1932648,-0.11336461,-1.1332787,0.08594562,0.18419154,-0.36616576,-0.06762763,0.04427657
-0.2525756,0.04038383,-0.18693325,0.007896233,0.2519224,0.16326222,-0.14023216,0.21945783,-0.2812555,0.16243926,-0.20745885,-0.2919909,0.14042442,-0.23608422,0.17270848,-0.0015340263,0.18833353,0.42069358,0.23611301,-0.018841965,-0.06739924,0.28160593,0.19246857,-0.049401302,0.119843096,0.013369034,0.011717068,-0.014035462,0.10828113,0.16053744,-0.168783,-0.0969364,0.18956047,-0.038137883,0.108090706,0.072983675,0.21838684,-0.068531595,0.31302118,-0.0063290545,0.08289297,0.119174674,0.20220517,0.35025084,0.039684966,-0.08576959,0.18324444,-0.10843254,0.23663135,0.05640415,0.034783468,0.12516332,0.021849647,0.06116074,0.053994704,-0.11700312,0.03728909,0.14014524,0.347005,-0.1336582,-0.030781971,0.14619744,-0.028399555,-0.22087021
-0.002827933,0.6565909,-0.24374914,-0.35087186,-0.2836188,-0.2334235,-0.34298795,0.13354945,-0.21214744,-0.0036659653,-0.21659985,-0.011968281,-0.13193397,0.096577086,0.8296233,0.28541523,-0.35892412,0.112128206,0.22660263,0.39252496,0.3087912,-0.38407454,0.002306004,-0.31635645,-0.0858584,-0.093694665,-0.2319795,0.5127764,0.27975824,0.25781137,-0.33870617,0.4057768,0.4186219,0.848727,-0.061299372,-0.06787972,-0.06952756,-0.04094659,-0.01402241,-0.10636893,-0.14702182,-0.47237155,0.14976345,0.04117212,-0.39511454,-0.3472501,0.34871426,0.56690246,0.09452436,-0.4047974,-0.04090905,-0.030434607,0.22009276,-0.62224865,0.22506922,0.36084825,0.3059209,0.4587983,-0.42299318,0.1749177,-0.27651265,0.9287261,-0.26479852,-0.42250794
-0.3074991,0.19988878,0.31406686,0.57842356,-0.2299689,-0.8196576,0.07388225,-0.7276872,0.21631446,-0.16390146,-0.24809131,0.10553982,0.03893714,0.348281,-0.16601996,-0.08965209,0.08255352,0.020266756,-0.06507167,-0.41379058,-0.09258923,-0.24863411,-0.34776297,0.17197534,-0.19908945,-0.45590827,0.26894912,0.15447572,-0.24063314,-0.3217025,0.09437245,-0.40405908,-0.054412756,-0.025090221,-0.1328723,-1.0946641,0.29827046,-0.13977289,-0.4418334,-0.19975169,-0.2188964,-0.085971415,-0.34882495,0.08947362,-0.8609911,-0.06095102,0.14470898,0.009940898,-0.03680861,-0.2882299,0.36734596,0.26589462,0.07955397,0.11151347,0.13881993,-0.14257081,-0.2137305,-1.1289208,0.31496415,-0.47849208,-0.33792245,-0.40705276,0.16167784,0.48529568
0.1165335,-0.11071029,0.16001038,0.06395289,0.25639182,0.03821014,0.06583216,-0.0843207,0.25347206,0.14390399,-0.5143899,0.11861037,-0.15040009,0.039734714,-0.10444525,-0.052321285,0.102889836,-0.20168799,-0.07224292,0.23764448,-0.413902,-0.30178106,-0.2073194,-0.43240428,0.37415794,-0.009319195,-0.25328708,0.15367989,-0.36349535,0.23398966,0.4934998,-0.48951238,-0.4579537,0.07206436,-0.36892954,-0.10738434,0.20771739,0.09166851,0.13885656,-0.039679736,0.5100735,0.008243333,-0.17533393,0.08918738,0.09578714,0.26406345,0.12275113,-0.10694062,-0.024460502,-0.39898083,0.41242814,0.39910018,0.098252825,0.2684241,-0.54858446,-0.41919878,-0.24020782,-0.11351681,-0.062108863,-0.415481,0.16476984,-0.25867644,-0.34061366,0.13865262
0.25884736,-0.39343715,-0.44398493,0.24410582,-0.27439567,0.20575519,-0.3004141,0.23588493,-0.2903544,0.54265726,-0.2946053,-0.5324185,-0.2018225,0.10685823,0.45629424,-0.26554143,0.43561512,0.16393167,0.01640562,0.23066773,-0.1360222,0.2517241,0.038397633,-0.28171036,-0.2337877,0.21317083,-0.7862946,-0.21691409,0.013294761,-0.23498257,0.075823866,0.1988804,0.05299254,0.28139815,0.1618994,0.041719273,0.25504985,0.5600688,0.2768771,0.0877503,-0.086813726,-0.09308281,-0.22810607,-0.069643974,0.06851582,0.07476258,-0.22704169,0.3069699,0.12736098,0.19810553,-0.15033928,-0.4748496,0.014390257,0.33718073,0.025030116,-0.09165877,0.06229114,0.034755144,0.12428015,0.061012182,-0.24234758,-0.0024501493,-0.01421552,-0.41474068
0.27275646,-0.2872586,-0.19216387,0.101913,-0.6208772,0.17985065,-0.3232468,-0.10639529,-0.26502717,-0.2974103,-0.046900745,-0.5889733,-0.42080265,-0.76586,-0.21068354,-0.2614212,0.33790654,-0.044655662,-0.15492018,-0.5090688,-0.030426342,-0.39581394,0.12965523,0.13619861,-0.07293315,-0.23785819,0.0807434,0.37224248,0.04105805,-0.88468575,0.039203953,0.037283417,0.38215396,-0.93712413,-0.45682973,-0.07797992,-0.35683712,-0.24669376,-0.09290398,0.22267169,-0.10674162,-0.44035256,0.038514473,-0.16255563,-0.15630952,-0.25888616,-0.9947599,-0.22121155,0.18223606,-0.0048170146,-0.40919435,-0.32047316,-0.15300578,0.12542924,0.07843641,-0.17394201,-0.07857198,-0.27014044,-0.005687992,0.094562516,-0.4249916,0.14244226,0.70074785,-0.15099733
0.21039815,-0.13373886,0.086665705,0.36087722,-0.2410345,0.045327593,-0.10839043,0.08662981,-0.06972563,0.046862885,0.21758726,0.09985053,-0.045513175,-0.1592345,-0.12823768,-0.17418289,0.1061281,-0.19232528,-0.16909887,-0.4434602,0.09276162,-0.4418727,0.2074503,-0.290364,-0.02847954,0.22324812,-0.7524994,0.05897569,0.033751264,-0.069644645,-0.11676118,-0.7760716,0.12686142,-0.14675012,-0.042008832,-0.1627015,0.7947006,-0.5912104,0.0766966,0.027456691,0.036027502,-0.47459778,-0.1598934,-0.05577452,-0.14078519,-0.7688311,0.50720423,0.13560933,0.01906964,-0.012912761,0.1885598,-0.6428847,0.19575927,-0.042890344,0.28277102,-0.00021586817,-0.13355032,-0.36572564,-0.12168004,0.112050906,-0.12590818,-0.43164647,0.13136145,-0.07386132
0.12282632,-0.084356785,-0.31552404,-0.27625906,-0.34278265,0.08775531,-0.22570302,0.07689422,-0.04849744,0.2967746,0.12733106,-0.9290156,0.09736072,-0.5896902,-0.22898418,0.1359421,0.19979353,0.12828237,-0.09018068,0.018115772,0.070059404,0.31392696,-0.16293474,-0.42380717,0.14620365,0.008963148,-0.4546004,0.1400547,0.11830226,0.0421375,-0.010557755,-0.23651221,0.074155025,0.20681757,0.095930465,0.44417155,-0.63693464,-0.02159324,0.0611514,0.26852483,-0.12622549,-0.050275818,0.03456276,0.055432044,-0.59185314,0.2718286,-0.32202813,0.025320834,0.2650688,0.2102724,-0.41881964,-0.6013616,0.094207205,-0.2894515,-0.21030803,0.11229208,0.20613386,0.46029672,0.27769706,-0.12723348,-0.047300525,0.35325995,-0.15432377,-0.33283174
-0.87237626,0.6052816,0.38024357,-0.08657529,0.060785588,-0.38216856,-0.2921412,-0.40765533,0.54472256,-0.045669224,0.16969794,-0.690535,0.13227962,0.18067509,0.94927037,-0.48677802,0.0036101383,-0.43687174,-0.014147213,-1.0794779,0.6394955,-0.12852159,-0.24728455,0.16765103,0.61134815,0.24227035,0.08789616,-0.23893164,0.045363616,-0.3190912,-0.21194008,0.36751187,0.2365163,-0.43365765,-0.2965523,0.4011061,0.53036606,0.30102608,-0.85576344,0.29722396,0.4651044,0.36828962,-0.019702122,-0.65847564,0.10540311,0.42614636,-0.5688316,-0.2231919,-0.29318136,0.19538923,-0.30356666,-0.39396495,0.08608878,0.30669123,0.6585242,0.27138555,-0.2125474,-0.06046976,-0.21734019,0.3401525,-0.10833308,0.22033145,0.11554876,0.14175458
0.048096012,-0.021625094,0.15264264,-0.14104708,-0.09751022,0.1818605,0.23288009,0.21367846,0.26614648,0.24620906,0.27370337,-0.37239337,-0.63853824,-0.13806199,-0.11523303,-0.68283695,-0.06445769,-0.18778354,0.05145548,0.0145227555,-0.065440655,-0.18126726,-0.0528469,-0.04117988,-0.03913647,-0.13710746,-0.29015213,0.35452968,-1.1233398,0.40640533,-0.33898428,0.24715102,0.26238182,0.35406375,-0.673678,-0.7205441,-0.73599964,-0.09676905,0.17303382,-0.16317636,0.1941717,-0.23969309,-0.12622093,-0.72337043,0.101121135,0.29868215,-0.4015876,0.18089747,0.026485022,0.21064776,0.0040564816,0.31705675,-0.5299697,0.34318563,0.0446511,-0.0053288764,0.45949513,0.29224727,0.14412872,0.28161833,-0.010891961,0.0906784,0.26983836,0.19545649
0.08495261,-0.06917635,0.19199255,-0.030110588,-0.025367344,-0.03500048,0.16340312,0.29505968,0.109232634,-0.004369709,-0.006071921,0.101387575,0.06453629,-0.2567776,-0.01982071,-0.0054586115,-0.08734823,-0.002881908,0.017053587,-0.29754815,0.28089467,-0.07818243,-0.1200174,-0.3944212,0.11791652,-0.3309463,0.07809982,0.13179131,0.19709724,-0.074544735,-0.43993,-0.51134056,0.047276363,-0.20990434,0.05353665,-0.557752,0.12359737,0.34303752,-0.36369833,0.16361123,0.024462262,-0.25672942,-0.15368898,-0.11440879,-0.0126233045,0.3968203,-0.26782754,-0.27745387,0.26594132,0.30869004,0.21973358,-0.51010215,0.11128803,-0.2538383,-1.1699353,0.09909921,0.25857282,0.45510963,-0.18891802,-0.6499894,-0.051949028,0.21758592,-0.5968025,0.10611918
-0.202027,-0.089571476,-0.053080447,0.0704497,0.21879022,0.26100534,-0.014547142,0.17979175,-0.033034436,-0.2477032,0.115448736,-0.35689223,-0.36502555,-0.9247336,-0.32749507,-0.1541448,0.16022293,0.20451608,-0.102633364,0.17863286,-0.40730172,0.013260221,0.30060008,-0.45305446,0.065650925,-0.016282288,-0.8640359,-0.073500805,-0.35411978,0.177727,-0.3778549,-0.27865592,-0.10934386,-0.17518833,-0.4386012,0.268344,-0.09574746,-0.019462882,0.1614472,0.08743629,-0.023551812,-0.36240035,-0.06076956,-0.07349037,-0.46248814,-0.10025388,-0.39905646,-0.29256478,-0.0751734,-0.7645118,-0.36757037,0.06338322,-0.09799227,0.15889347,-0.46484128,0.027727922,-0.88395697,0.007484858,0.22110817,-0.33027896,-0.32026538,0.35771176,0.013026733,0.23279941
-0.12801975,-0.2008312,-0.012361631,0.27835733,0.009409214,-0.03179422,0.034472864,-0.12209518,-0.29809493,-0.08104895,0.2438931,0.06691299,0.018283945,0.114189535,0.007642458,-0.14673154,-0.34184927,-0.06593293,-0.09287048,-0.44017538,-0.022946116,-0.33426362,0.03419997,-0.05783259,0.13928321,0.11411274,-0.25065145,0.08203817,0.14712839,-0.38749492,0.10090396,-0.14624733,0.37930682,0.0991258,0.23303199,-0.12169586,0.0932803,0.035776608,-0.044550013,0.08878854,0.27538309,-0.085197024,0.19693185,0.5283256,-0.20077182,0.19726665,-0.118998334,-0.15469319,-0.49198428,0.36190858,-0.5933137,-0.19058384,0.012907139,-0.48889175,0.029998638,0.030187845,0.411759,0.17463188,-0.017316388,0.14663237,-0.028734872,-0.12929471,0.03783255,-0.18157668
0.12125144,-0.2113455,0.14129025,-0.123720214,-0.25348657,0.24721885,-0.04926998,-0.21917461,-0.54428005,-0.25167307,0.08234153,0.081889264,-0.058535732,0.12205774,0.22367628,0.30260003,0.06308539,-0.23032996,-0.20476155,-0.49190465,-0.19950628,0.106125146,-0.09120786,-0.5955936,0.15526961,0.06920903,-0.09486222,0.10603722,0.015367762,-0.6613921,-0.40376517,0.23815237,0.049513273,-0.48278597,0.1789516,0.09886164,-0.614249,-0.020266682,-0.043621693,0.11418249,-0.077566154,-0.32010975,-0.22336608,-0.29663655,0.15835685,0.33885205,0.100366004,-0.12470653,0.20289984,0.1485331,-0.21100417,-0.25144985,0.097473696,-0.35355976,-0.48439118,0.32182696,-0.087012626,0.004684167,-0.29783642,0.030365072,0.30683726,-0.17187212,-0.078962944,-0.41016868
-0.34750873,-0.62700033,0.34034106,0.0035267854,0.38963357,-0.09950483,0.15124598,-0.6506692,-0.3921238,-0.31144428,0.70038784,0.01506399,0.17877634,-0.7864027,-0.120763786,-0.8282235,0.08734905,-0.13568652,-0.075382985,0.15559676,0.6317004,0.37281442,0.15324858,-0.08909884,0.19081941,0.11955524,-0.45504996,0.047976457,0.022180151,0.014982366,-0.019742271,-0.058292456,-0.12995204,0.22201432,-0.27181706,0.49340597,-0.043450683,-0.6678323,0.17783436,0.13095179,0.07353115,0.24748984,0.09629238,0.056301013,0.41225317,0.36335096,-0.1223873,0.14120218,-0.007259477,0.07146482,-0.08843592,0.18245654,0.3932883,0.24120013,-0.075230636,-0.48969948,-0.19060913,-0.008271763,-0.45399302,-0.5958116,0.0068781497,0.08289239,0.062806204,0.0736855
0.3470329,0.13813825,-0.2023532,-0.78448576,-1.1449134,-1.6817735,-0.18146244,-0.83936465,0.14034764,0.09564424,-0.22263758,-0.052888606,-1.0977986,0.18948811,-0.070611805,0.011571287,0.0053596734,0.14349179,-0.05046493,0.16335115,0.038600694,-0.7325012,-0.11965007,0.2118835,0.02247454,0.046982087,-0.022591414,0.030471932,0.2888733,-0.38107228,0.050550573,0.16556978,-0.10424587,-0.15790181,-0.5780974,-0.26351178,-0.34689584,0.16240461,0.021874705,0.21823908,0.026810523,0.12781626,-0.021596508,-0.086693436,-1.0036454,0.06517831,0.10673938,-0.07991251,0.120417766,0.13357879,0.014986547,0.09533822,0.007366925,0.06514421,-0.89721096,-0.019582395,-0.095579214,-1.502644,-0.019430159,-0.1397189,0.023108251,0.06458935,-0.16507159,-0.21246123
-0.10113188,0.4104004,0.2006863,-0.35041982,0.3576659,0.4221015,0.036817256,0.2809097,-0.13469741,0.33859536,-0.36245826,-0.08974607,0.055479083,-0.13484977,-0.12289942,-0.002480033,0.05518792,0.10206106,-0.25625676,-0.0487254,0.21782984,-0.043639477,0.0865133,-0.49617556,0.07787316,0.16833565,-0.39322618,0.5135624,-0.22861032,0.51895994,-0.19589742,-0.2568305,-0.19682291,-0.4595281,0.12712665,-0.27073622,-0.39223498,0.51889676,-0.049630996,-0.19679154,0.21496251,0.13765767,-0.12166202,-0.03881383,-0.030405791,0.43894896,0.2935275,0.26339442,-0.18273284,-0.19936366,-0.5996373,0.0992356,0.18341744,-0.025906371,0.16630009,0.5397855,-0.26221102,0.03763323,-0.20396927,-0.10913284,0.16363448,0.20927817,-0.5857053,-0.11428225
-0.25747952,-0.17175321,-0.33649477,-0.12061815,0.32063726,-0.15836443,0.39132953,0.11741192,-0.112384,-0.5172231,-0.58831906,-0.22238158,-0.10071046,0.19682463,0.33997142,-0.35982978,-0.3081598,-0.118530735,-0.06372361,-0.044888146,-0.23328562,-0.4542585,-0.35452092,0.47573495,0.6255391,-0.18915567,0.11806545,0.111892715,0.10919196,-0.025314055,-0.2210161,-0.15599301,-0.23949206,-0.22051872,-0.0038599074,-0.3277409,-0.09300777,0.028936666,-0.004286653,-0.10943961,0.21196464,-0.5358608,-0.15306254,-0.028623018,0.0756248,0.18116075,-0.54249793,0.08536101,0.11359538,-0.054022476,-0.510525,0.13605744,0.27720845,-0.7513621,-0.09242008,0.052733243,-0.24071825,-0.16814663,-0.03049628,-0.27051902,0.09279732,-0.063352354,-0.035280902,-0.18723205
0.22931403,-0.08563533,-0.03490935,-0.18653458,-0.34281355,-0.44869623,-0.2338152,-0.067870244,0.13854788,0.50070375,0.12945084,0.22096935,-0.29007304,-0.14044726,0.118821636,-0.5251487,-0.22737244,0.10027177,0.0850163,0.13537766,-0.38208532,0.10169511,0.23696193,-0.014461812,0.15539114,0.1039004,0.047408864,-0.4126867,-0.07396445,-0.46559972,0.2783692,0.12636556,-0.1788321,-0.11561751,-0.18276106,-0.6792453,-0.35765934,-0.02768468,-0.031002572,-0.14868252,-0.3718507,0.030190732,-0.25852746,0.102882095,-0.6045816,-0.032224294,-0.03731444,0.015024687,-0.017319515,-0.096087374,0.21369132,0.20077635,0.15408191,-0.41161072,-0.5655182,-0.42543885,-0.1543322,-0.36494097,-0.17172113,-0.39444098,0.11611552,0.019223843,-0.14667977,0.28814766
-0.20155239,0.2851343,-0.03923786,0.20115586,-0.364179,-0.06105561,-0.41196144,-0.27812076,-0.090097755,0.19538303,-0.3037825,0.0019603346,-0.2042458,0.07802599,-0.021254152,-0.041229684,-0.57281905,-0.23888537,-0.16972685,-0.6082045,-0.32961345,0.48416498,0.295586,0.26318514,0.9063766,0.0039417082,-0.04661532,-0.35851493,-0.99246067,0.18150526,0.030767217,0.1154799,-0.39931887,-0.14385161,-0.17923158,-0.0035973259,-0.060906805,0.514176,-0.0096268,-0.36214754,0.22187212,-0.21909103,0.0060624387,-0.60216725,0.098100126,-0.72019,-0.15351735,-0.22694208,0.19132209,-0.07293241,-0.15611483,0.16408971,-0.44104165,0.050532013,-0.03874082,0.6342952,-0.15720533,-0.21239798,-0.18049806,-0.09700421,-0.293163,0.09229829,0.0058885636,0.058602072
0.24687627,-0.26620403,-0.40109056,-0.18635213,0.28665802,0.31117508,-0.07715681,-0.20303385,-0.29017556,-0.22490737,-0.06272618,-0.4015005,-0.2853856,-0.009967827,0.26442355,-0.0016862154,-0.039685342,0.24007791,-0.1476479,0.3077145,-0.04984862,-0.10644308,-0.17538323,-0.48394313,-0.1820501,-0.14309615,-0.58725554,-0.20831972,-0.04056738,-0.38945654,-0.17387316,0.12982664,0.24733819,-0.61578804,0.20785251,-0.31274512,-0.14586978,0.002652853,0.23348717,0.12985665,-0.22894178,-0.67013824,0.12222491,0.19572204,0.22951692,0.1275262,-0.26279312,-0.29121044,0.34629187,-0.24496534,-0.28650162,0.031106032,0.4584957,-0.26165867,-0.55110854,0.10442538,-0.3607771,-0.013771547,-0.14739802,-0.16476777,0.1936603,-0.33656245,-0.40930834,0.015869545
-0.6039136,0.37260914,-0.17597406,-0.20897037,0.057131924,-0.739762,-0.5443312,-0.65401036,0.009372906,0.27106974,-0.27406815,0.11035325,-0.1915288,-0.043227203,-0.45344293,-0.03729873,-0.22647119,-0.3361893,-0.19940215,0.10713073,0.3010999,0.31967357,0.39631504,-0.48579308,0.0005301245,-0.5987797,-0.33618784,-0.08254208,-0.3690456,-0.06961358,-0.3516786,-0.38949293,0.14254868,0.06491257,0.09491995,-0.8400102,-0.7791182,-0.056035046,-0.37370935,-0.3290315,0.082830824,-0.14470766,-0.20606267,0.16281515,-0.04591648,0.0268216,0.012726348,0.05089138,-0.59479535,-0.63359785,-0.030693129,-0.23563367,0.015176987,-0.007836471,-0.019385012,0.3054817,0.05664765,-0.6971717,-0.6010705,-0.36074796,0.433858,-0.19682111,0.3462106,-0.2354483
-0.11401269,-0.14118956,-0.4096599,0.3002831,0.14472741,0.6221621,-0.5270347,-0.027466817,0.258346,0.09192226,-0.11684638,-0.62132317,0.056532517,0.02607226,-0.28843367,0.048610963,-0.06341193,-0.62367225,-0.10430461,0.024606192,-0.056281023,0.44264436,0.35772464,0.02798701,-0.09763363,0.048541762,0.019821586,-0.22999087,0.29641303,0.5155361,-0.11696644,-0.07251504,0.088243425,-0.20500715,0.0671204,0.3509887,0.7090415,-0.53139263,0.47224545,-0.5447681,-0.27317438,0.10283375,-0.045386657,-0.14524049,0.31147677,0.25023636,-0.1313836,-0.058529817,0.08927132,-0.3115578,-0.3751012,-0.54281664,-0.15278287,-0.32299116,-0.13008016,-0.09254315,0.63719225,0.30461037,0.5695668,-0.015483917,0.20728612,-0.48247603,0.076172724,-0.004770555
-0.18478544,-0.4635571,0.124511346,0.47111246,-0.17055607,-0.20933692,0.10103631,0.5502175,0.113632366,0.039530415,-0.055306457,-0.037178945,0.12802155,0.100552306,-0.65626556,0.06138881,-0.14476198,-0.3999353,-0.11628747,0.073779665,0.25365266,0.09794783,-0.62090915,0.08983565,0.7001362,-0.81571174,0.71517897,0.10624912,0.24512663,-0.048610773,-0.19630623,-0.9810666,0.11248567,0.26398423,0.035595533,-0.28585318,-0.37868738,0.41640347,0.15590313,0.13647844,-0.21829414,-0.5215246,-0.09716492,0.09515616,0.12033625,0.17357512,0.047710586,-0.5382863,0.419055,0.042276196,-0.11475661,0.27368462,0.21113561,0.14895381,-0.13764034,0.31764534,0.33346802,0.3218317,-0.15305237,-0.38674644,0.2131141,0.26833528,0.04765512,0.17055114
0.13673799,0.17287356,-0.5343306,-0.065737754,0.55597126,0.1942239,-0.43140578,-0.048319366,0.4089666,-0.10650238,0.04979095,-0.5180667,-0.48837113,0.0057231896,0.014211738,0.015205703,0.19331825,-0.25429735,0.026193652,-0.1465677,-0.4758989,-0.25886893,-0.10155081,-0.6063383,-0.62163913,0.17079976,0.31908637,-0.23376009,-0.40458754,-0.015286151,0.048390508,0.14791162,0.17323716,0.10009406,-0.4638664,-0.2456945,0.015270728,0.09350584,0.017194912,0.203849,-0.2707371,-0.3225332,0.025140043,0.09431402,-0.20990388,-0.42462754,-0.08635844,0.027218273,-0.13035883,0.18115287,0.02958135,0.07570455,0.015696788,-0.014098949,-1.2171232,0.14472908,0.16342224,0.049103837,0.16328168,0.09457216,-0.009764336,0.040213488,0.16146424,-0.2502897
-0.30601504,-0.3774149,0.5826934,0.2098629,-0.4529971,-0.08212568,0.33392465,-0.012564118,0.07847379,0.44295797,-0.59526384,-0.13677172,-0.08926206,0.10383405,0.279556,-0.7808742,0.25496814,0.009034383,0.009306924,0.11667817,0.14202556,-0.04441588,0.48564112,-0.2037159,0.16776657,0.14131221,0.08657206,0.23744434,-0.19924992,0.057369266,0.14998098,0.2147232,-0.38515607,-0.73377925,-0.3555243,-0.5596253,-0.24588172,-0.12832247,-0.23987028,0.13317683,0.09043275,-0.20524387,-0.045146413,0.11087572,-0.48496133,0.061002895,-0.30117851,0.21164633,-0.15322858,-0.21714012,-0.12733582,0.5732335,-0.026080968,-0.15799835,0.10810818,0.19053905,-0.5480267,-0.14319322,-0.10107544,-0.019089937,0.18081923,-0.2136855,0.16616288,0.63427925
0.10786809,0.118054606,-0.014030458,0.104901366,-0.22196166,-0.05897834,0.04665653,-0.3223563,0.046824068,0.09918693,0.067900576,-0.30752215,0.0023280098,0.07760096,-0.037568502,-0.33179542,-0.011896829,0.07334956,-0.17680259,0.04845471,-0.21743515,0.02911944,0.15528654,-0.46281734,0.29747427,0.0033596775,-0.681339,0.09962412,-0.090087615,-0.2760026,0.26058447,-0.1940515,-0.26259568,-0.47861546,-0.17556119,-0.2699,0.08098486,0.061108705,-0.054575708,0.16681734,-0.023952136,-0.1641651,-0.30191213,-0.019245736,0.03362114,0.05927139,0.0007978576,0.15941033,0.10127268,0.13934363,-0.19501926,-0.16729122,-0.014522732,-0.6370695,-0.12594183,-0.032489102,-0.1700251,-0.06331968,-0.15476991,0.22119522,0.055140547,-0.6164778,-0.27837545,0.2246821
-0.001832151,0.10422964,-0.06514003,-0.3312091,-0.4023536,-0.25866812,-0.11417181,0.27828503,0.07917784,0.19431521,0.0850693,-0.1481322,-0.1830172,-0.6120917,0.304815,0.29243594,-0.3960306,-0.13846503,-0.07862736,-0.005196887,0.08018772,-0.16790447,0.13528915,0.2628562,0.641438,-0.17104064,0.34497795,0.17014033,-0.026905524,-0.6161764,0.030600484,0.328317,0.3229425,-0.16836102,0.2531924,-0.64446056,-0.19992639,0.1529681,0.42069086,0.019233419,0.35999572,-0.14832091,0.055846877,0.0998178,-0.58202,0.3428091,0.37138,0.10650668,0.40585214,-0.34309614,-0.3602465,-0.41451585,-0.026932199,-0.29434013,-0.57928556,-0.19877946,0.23514466,0.29195827,0.42379028,0.160384,0.17446393,0.17121436,-0.52172387,0.17878303
-0.02063473,0.030745393,0.11733646,0.2559282,0.042920213,0.377864,0.051768225,0.031828195,0.09386536,-0.46317,0.36877185,0.06970729,0.028873093,-0.03484987,-0.21679266,-0.32402533,0.1382222,-0.11318458,-0.24857768,-0.52131104,-0.032150563,-0.1997131,0.07818909,-0.035477012,0.04869275,-0.10195401,-0.14083403,0.08221021,-0.0540176,-0.10585874,-0.24362376,-0.4056022,0.00569504,0.042827055,0.26083618,0.2246889,0.0157881,-0.002476826,-0.21525666,0.11749023,-0.4036402,0.15439273,-0.022060513,0.1670256,-0.89305025,0.18848477,0.20986281,-0.1536226,-0.2639243,-0.09023938,0.5450468,0.28369293,0.102985606,0.041459743,-0.2802962,-0.10605161,0.30927008,0.13144952,-0.51619,-0.27669108,-0.046720438,0.24110714,-0.015081786,0.22768678
-0.34389895,0.10984186,0.4315568,0.024012463,0.07508004,-0.23333909,0.5634138,0.23080732,0.058149196,0.11727158,-0.10317251,-0.13334996,-1.5843773e-06,0.14378223,0.06153163,-0.07293303,-0.003282401,-0.17626844,0.033034664,-0.19928473,0.1458305,-0.22197866,-0.10309833,-0.057823963,0.27680317,0.21581616,-0.2363976,0.15706542,0.04579183,0.0146307135,-0.25296777,-0.16394147,0.32593483,-0.042706393,-0.14744462,-0.30034053,-0.023713307,0.17711937,-0.2643023,-0.29680473,0.2649931,0.26341933,-0.18015575,0.2838542,-0.016508458,0.64854395,-0.17193745,0.07214302,-0.03626431,-0.092153445,-0.4045093,0.12636802,0.12981829,0.4040519,-0.08799204,-0.3016264,0.54847586,-0.09127226,-0.03513856,0.017806787,0.06695293,-0.23102072,0.0535738,0.19599497
0.1895655,0.8760906,-0.39848897,0.013356494,-0.24499021,0.43539768,-0.4824907,-0.05394137,0.33699504,0.047332168,-0.5798869,-0.14637835,-0.3751037,-0.15564561,-0.21943435,0.36347002,-0.033245087,0.33687633,0.12449069,-0.35785854,-0.19357166,-0.0143318605,0.13975143,-0.7097967,-0.18069936,-0.02266867,-0.35611773,0.15843952,0.04332546,-0.16961816,-0.043271434,0.27062717,0.09572193,0.043182798,-0.04427783,-0.70345795,0.059437837,0.035500854,-0.168822,-0.20526513,-0.0073898286,-0.12337714,0.05979956,-0.051451173,0.17909618,-0.15549496,-0.04940222,0.11063281,0.3037722,0.1625849,0.08197363,0.03219419,-0.13677263,-0.24819736,0.21099061,0.5263592,-0.083852045,-0.6135006,0.14617102,0.14461918,0.23667829,-0.08942734,-0.34440312,-0.17572385
0.025915079,-0.13267528,-0.053271282,-0.08144597,-0.52649194,0.48728028,0.09572817,0.14014114,0.22852172,0.04310049,-0.18270092,-0.44143495,-0.4237951,-0.09296987,-0.13229191,-0.26838288,0.018501854,-0.52992594,0.07217552,-0.19877283,0.16483638,-0.080947146,-0.06902661,0.27607915,0.5697152,0.30571204,-0.67710584,-0.5071003,-0.22233151,0.16496104,-0.20093504,0.13681926,0.16499083,-0.12978758,-0.3997441,-0.24139027,-0.57116854,0.17554082,-0.03367408,-0.11569743,-0.16057344,0.34039024,-0.094522364,-0.3487851,-0.30749792,0.027302736,-0.34791762,-0.5157385,0.03662359,-0.38155496,-0.36564925,-0.17950012,-0.6100855,0.18180677,0.17672552,-0.224493,-0.19590001,0.12324142,-0.43308434,0.12856124,0.15799262,0.618889,-0.2590755,0.3349464
-0.19898431,-0.046463232,-0.10657597,0.25623393,-0.08156294,-0.040456202,0.07431909,0.1823237,0.104145445,-0.061900605,0.052466325,-0.12949431,-0.031336468,0.21100007,0.11836355,-0.0588867,-0.16609702,-0.12571664,0.07769561,0.03450954,0.1166106,0.11553019,-0.15362479,0.10321571,0.18939678,0.13324966,-0.007980608,-0.06325815,-0.044824686,-0.091399,0.10227103,0.19014202,0.026616981,-0.07839063,0.06463536,0.20194732,-0.028638035,0.10426016,0.13050826,0.011966848,0.06257127,-0.0014835894,0.13086583,0.056602154,-0.04895957,-0.16588375,-0.17199312,0.076034255,0.1667321,-0.18160819,0.009530395,0.03307838,0.12765329,0.1816887,-0.17970598,0.0846994,0.14749375,0.18501696,0.15593033,-0.042448938,-0.14067844,0.2337167,0.106785886,0.050697234
0.3021453,0.06673376,0.24693248,0.20198156,-8.787328e-05,0.16282332,0.1014711,0.039636694,-0.82535493,0.2974294,-0.30136234,0.3041362,0.04246768,-0.1068257,-0.10702837,-0.03393438,-0.5237823,-0.020321785,0.039612506,-0.25550732,0.0047031245,0.19932657,0.08353546,-0.1875973,0.027533187,-0.6722861,0.051708795,-0.10845926,-0.7981055,-0.510734,-0.21532974,0.06789497,-0.014708156,0.1042851,-0.33190966,-0.20468184,-0.0118398685,-0.25816312,-0.11344058,-0.72695744,-0.24603845,-0.25263706,-0.20565578,-0.12263586,0.15447941,-1.0771326,-0.023296805,-0.035444617,-0.028277416,-0.3725721,-0.2886595,0.026550269,0.16681573,-0.36825097,-0.26708525,-0.028992185,-0.35012394,0.17021735,0.04047407,-0.104792185,-0.70821565,0.21066704,-0.39361992,-0.083018795
-0.074712805,-0.13033782,0.10114802,-0.023099234,0.07788714,-0.0048777484,-0.11032319,-0.083945245,-0.9460474,-0.09979406,-0.059444726,0.20233808,-0.101575874,-0.29397556,-0.08079746,0.3752703,-1.1040174,-0.08384046,-0.31384566,-0.12689237,0.47717947,0.24419698,-0.27340388,-0.33397675,0.24346268,-0.10177543,-0.2214698,0.526941,-0.5564388,-0.031388506,-0.3110472,0.08881519,-0.80107296,-0.067167245,-0.14185248,0.2623554,0.22969094,-0.90075856,-0.08637517,-0.69534916,-0.031808373,0.12891425,-0.13245735,0.030355088,-0.20794766,-0.50525403,0.20416188,-0.033587154,0.21939744,-0.20249578,-0.057059966,-0.04572321,0.46173853,-0.52653974,0.1603577,0.20436224,0.09319377,-0.09774785,-0.6754158,-0.34434962,-0.05868491,-1.162169,0.1872393,0.16474207
0.073690206,-0.2904825,0.14288737,0.29707178,0.10378327,0.240031,-7.738337e-06,-0.0992298,0.15966478,0.30222046,0.47994095,0.2129085,0.23192668,-0.41160074,0.18412502,-0.53802,-0.2608227,0.045934882,-0.071586736,0.23544806,0.26055685,0.01727823,0.19306816,-0.0062881783,-0.10334552,-0.022523258,-0.1401831,-0.3318605,0.12050152,0.2763562,0.35510075,-0.078388065,0.10129037,-0.364399,-0.3135868,-0.42853376,0.2796464,-0.25163782,0.15881325,-0.01791642,0.07597759,-0.3011699,-0.2568736,0.42647567,-0.3634368,-0.18114296,0.36877453,0.11567284,0.0882574,-0.37525085,-0.043369364,0.32260072,0.4452804,-0.1542027,-0.50993586,0.20081894,0.2778527,0.17465048,-0.13836473,-0.20730756,0.078818336,-0.18599968,-0.029408745,0.42226854
0.12998883,-0.2779384,0.012340223,0.11680238,-0.010587016,0.1641866,0.25912055,-0.083376035,0.0020576224,-0.3512702,-0.085571155,-0.16187818,-0.12367564,-0.1644944,-0.076121226,-0.043869495,0.08119961,-0.015577652,0.048524655,0.2658797,0.35335612,-0.21758603,0.060580447,-0.027553163,-0.045992445,0.08374279,0.10543139,0.41341454,-0.652915,0.38977087,0.22270055,-0.49163607,-0.10482142,-0.09410667,-0.25183758,-0.5241236,-0.1489956,-0.8898895,0.27053428,-0.14259827,-0.16496505,-0.58682126,-0.029549455,0.077345215,-0.6029829,0.14427769,0.061293393,-0.084265776,-0.30111447,0.019695507,0.06753743,0.25016266,-0.2712774,0.20369281,0.11271462,-0.46156642,-0.18834244,0.17932501,0.12617093,-0.7200319,-0.09323936,-0.63289714,0.26053944,0.59947723
0.10976684,0.021898124,-0.28553876,-0.07600251,0.0055079726,-0.27241102,0.24740385,-0.046959665,-0.86463046,-0.29502243,-0.48009393,-0.107625,-0.13459182,0.21207538,-0.040375527,0.24507529,0.29139316,-0.22540069,-0.084967196,-0.7190207,-0.31093803,0.37752318,0.25230858,-0.42909664,-0.030415576,-0.26639837,-0.0017903093,-0.18548642,0.056206446,0.027829874,-0.23898971,-0.08656262,0.010508701,0.0717257,-0.55845433,-0.13684826,-0.26276812,0.04089421,-0.455397,-0.086521976,-0.21431386,0.053321917,-0.16605239,0.2057621,0.10276071,0.016617004,0.02971616,-0.028455678,-0.040752,-0.11509553,-0.37012753,-0.31768003,0.057560585,-0.27046782,-0.017604277,-0.2588907,-0.035782084,0.17046385,-0.22381382,0.034362406,-0.41084406,-0.03808517,0.12863316,-0.32132754
-0.19610605,0.530632,0.33679685,-0.32809016,0.33812374,0.033167582,-0.09773991,-0.30702588,-0.39719018,0.12533475,0.23300555,-0.27014592,0.27020597,-0.19650523,0.2422746,0.108532384,-0.18597792,0.23802447,-0.12628655,-0.18702732,-0.031876985,-0.14395691,0.17946716,0.14042905,-0.15072188,-0.07272908,0.17392841,0.054867312,-0.08120774,-0.035707,-0.24438426,0.30600092,0.08645117,-0.10835374,-0.20295608,0.21361059,-0.28727633,-0.58500344,0.035470657,-0.15942807,-0.26293907,-0.23256534,-0.30106747,0.31268987,-0.32083306,0.17518431,-0.1232826,0.3782383,0.07813142,-0.096404195,-0.12690228,0.049002327,0.2979413,-0.14478745,-0.13896276,0.15124565,-0.041853067,-0.4014826,-0.27342427,-0.23492354,-0.2994475,0.12928808,0.28503782,0.12241899
0.1469279,-0.52054787,-0.16632067,0.14788198,0.07979165,0.11236542,0.13072,0.18901841,-0.057831097,-0.14971507,-0.19934206,0.23933314,0.2504062,-0.14667006,-0.673021,0.102173805,-0.8123785,-0.34045023,-0.21302266,0.21519287,-0.45475763,-0.083541974,0.018387472,0.0943033,0.09672623,0.28167018,0.0115385,-0.4133731,0.04279594,0.10064327,0.56715584,-0.45411083,0.26357543,0.17055954,-0.302835,-0.6161294,-0.15596874,-0.14950365,0.18338874,-0.15512863,-0.29287592,0.3427924,-0.18442051,0.040551398,-0.10292775,0.1533581,0.24342483,-0.24313955,-0.34891015,0.31430826,-0.15740481,0.3727922,0.007966384,-0.44867498,-0.7822823,-0.3617454,-0.16445863,0.24680322,0.3296776,-0.34400296,0.26437333,-0.5427841,0.073925845,0.4873098
-0.040798,-0.2748344,0.25095606,-0.2580868,0.09554396,0.027564911,0.0067444737,0.24147189,0.2928517,-0.28516468,0.4975271,0.45489016,-0.3977744,-0.22762859,-0.026452444,-0.41943407,0.07341997,0.24667871,-0.093913965,-0.059170853,0.22227564,-0.31834525,0.15450507,0.3426387,-0.12490634,-0.19625552,0.26576936,0.044781353,-0.08388508,-0.2551863,-0.091706485,-0.053752422,0.014893602,0.3417696,0.29341295,-0.12918195,-0.5295614,-0.20290528,-0.06781367,0.030663881,-0.46305224,-0.02772482,-0.039789777,0.02097018,-0.91776735,0.004409029,0.109577976,0.061258823,0.10809076,-0.04695147,-0.23053531,0.02522628,0.34159413,-0.20987518,-0.10720361,0.12670636,0.21574044,0.24917467,-0.11726926,0.09935343,0.29366037,0.4111725,-0.007828053,0.048353113
-0.36943755,0.16253366,0.15112618,0.049978554,0.04426034,0.086566076,-0.015860537,-0.18635693,-0.39574286,0.26165715,0.10230026,-0.20271574,0.28826115,0.012865692,0.122545116,-0.26848277,-0.16347557,-0.17652169,-0.0486072,0.11309082,-0.02792297,-0.39429402,-0.17026897,0.13204329,0.009650524,0.055960476,0.32214633,-0.37411124,-0.19344772,0.3123206,0.23048885,0.009764579,-0.463517,0.35848245,-0.48853433,-1.0611207,-0.032428775,-0.31537473,0.06325059,-0.38510132,-0.3289506,-0.011994765,0.16341181,-0.3282928,-0.07518994,-0.19472103,-0.013552516,0.14093798,-0.33341867,-0.1817653,0.09871879,0.12252347,-0.09353865,-0.2589221,-0.17147538,-0.28135073,0.16307135,0.022480447,-0.1265798,-0.269648,-0.21123384,-0.06897128,-0.060283653,0.2975105
0.3147843,-0.048687667,0.15660162,0.4638628,0.06344898,-0.024864085,0.13483267,0.15083499,-0.15359227,-0.06372736,0.26023036,0.29569185,0.31463027,-0.11377546,-0.15777579,-0.34000272,-0.15207864,-0.43407872,-0.19411643,0.31795296,0.31113362,0.037604704,0.17171073,0.041673224,0.8797101,0.090404145,-0.15431444,-0.261833,0.15797333,0.04195058,-0.32760486,0.25481156,0.2854057,0.22086555,-0.09097232,-0.33436307,-0.017379679,0.029745836,0.4078136,-0.060377892,-0.07084224,-0.021462344,-0.24772286,-0.09850603,0.31234187,0.048539024,-0.033367634,-0.29169995,0.105530724,0.0020491607,-0.5440677,-0.40282527,-0.18839248,0.28974104,-0.608093,0.06523876,-0.15686634,0.23244208,-0.26799986,-0.17902623,-0.033247743,0.0642996,-0.34572896,0.10206947
-0.006286591,-0.44690922,0.086085916,0.11518857,0.109706774,0.033374835,0.015058528,0.06635007,-0.22577262,0.18484092,0.3982142,-0.2792187,0.1040875,0.06476318,-0.15672265,0.15232424,-0.21457343,-0.34684432,0.044634316,0.008650284,0.26346657,0.14717804,0.3711364,0.20083033,0.41052663,-0.27790064,-0.053915936,0.050180625,0.2238812,-0.036712762,0.111338876,0.10105554,0.06817979,0.4359178,0.10994322,-0.14435698,-0.17526089,0.39933914,0.24140914,0.20350471,-0.07990037,0.052042976,0.06027592,0.06592155,-0.115589954,0.5899054,0.234208,-0.15960601,-0.39115575,0.26304227,-0.53515357,-0.021355836,0.05727587,-0.63105136,-0.19215672,-0.07769212,0.02087956,-0.39596117,0.014933774,-0.30266976,0.5583614,0.30785462,0.29339686,-0.27218232
-0.0066119907,0.72526604,-0.3505927,-0.14301093,-0.27523556,0.088897504,-0.64945894,0.0036140624,0.35206842,0.2594923,-0.10837994,-0.27499872,0.018760597,0.22996937,0.0676164,-0.20255023,-0.6432499,0.49827343,0.11507842,0.26610896,-0.29325902,-0.60798573,0.19072498,-0.19035909,0.20395032,0.64035976,-0.1687828,0.36688966,0.08119921,-0.8353793,-0.41753766,0.056209818,-0.18382925,0.046579883,0.07192917,-0.025383756,-0.054682024,0.022232864,-0.16025364,-0.6677379,0.07549687,0.14025964,0.10594841,0.35108635,-0.039872833,0.47632524,0.037612595,0.01439001,0.09165873,-0.3015138,0.20898011,0.18784158,-0.042021096,-0.13325232,-0.5801805,1.0984809,0.006144225,-0.25767547,-0.04851274,0.4369454,0.21873477,0.2771107,-0.033874128,-0.58509827
0.058540646,0.61388224,-0.06460459,-0.011986379,0.46548325,-0.4080247,0.31882888,0.06851335,0.13450806,-0.0818092,-0.16533193,-0.22288567,0.12965852,-0.18815535,-0.3048621,0.49141723,-0.05394298,-0.039746504,0.039583303,-0.0057583037,0.15906698,0.07737499,0.27774614,-0.80711144,0.0613834,-0.7306659,-0.099725686,0.038131546,0.014713392,0.49198562,-0.12574655,-0.2615229,-0.59226924,-0.8940181,0.49155608,-0.1468899,-0.37764803,0.24024889,-0.37939492,-0.20388623,-0.33752847,0.14803617,-0.022510862,-0.2715766,-0.06582363,0.078934714,0.1300796,0.33955187,-0.3543922,0.04819303,0.41641635,0.22238393,0.138825,-0.031875785,-0.7578039,-0.37572494,0.39055407,0.1884276,-0.07884283,-0.32015842,0.07828182,-0.25666898,0.53816175,-0.13440368
0.08848512,0.17653741,-0.3623385,-0.13501859,0.063870296,0.2846553,0.25900522,-0.20299104,0.6530417,-0.20595916,0.15197259,-0.84789926,-0.22530706,0.25691387,0.054829046,-1.5398632,0.108045615,0.37927872,-0.1681284,0.10922581,0.32941324,-0.24003473,-0.007683562,0.18690895,-0.03291244,0.23625499,0.55093604,0.16241714,-0.12272466,0.24857607,-0.012561263,0.12840605,0.24059778,0.05785334,0.1848872,0.4755552,-0.36560565,-0.06323418,-0.04675355,0.31145635,-0.054730985,0.33572125,-0.025556367,0.04513026,-0.22021669,-0.21972276,-0.23617972,-0.18107238,-0.37440714,-0.05514747,-0.60835034,-0.3511366,0.14283116,-0.24401617,0.4663203,-0.34169257,-0.08297041,0.28098977,-0.13306193,0.14839402,-0.18188645,-0.08379675,0.18233462,0.45216128
-0.002641316,0.05980624,-0.24173774,0.10248104,-0.2816036,-0.084424496,0.13810073,-0.011858527,-0.20384182,-0.421095,-0.12995888,-0.0703444,-0.018578427,-0.36575624,0.08951385,0.25169072,0.29185086,0.17316589,-0.019638322,-0.5296473,0.027148187,-0.04462836,-0.1689063,0.06855247,-0.2894225,-0.05751133,-0.2218121,0.22028777,-1.2714117,0.055217505,0.12877053,-0.054206226,0.21266364,-0.00028713365,-1.177053,-0.14359117,-0.17639494,-0.09939628,0.24501313,0.22676988,-0.25061697,-0.15090126,-0.14169136,-0.07548415,0.21872061,-0.6644379,-0.2846216,-0.1282464,0.02747426,-0.018796405,0.1431425,-0.013374632,0.13719139,0.1937504,-1.0183586,-0.37996787,-0.18400729,-0.18032289,0.19428858,-0.03870996,-1.2384114,0.19577894,-0.18846364,0.06302918
-0.08569424,-0.26990294,0.020763924,-0.2813434,0.06922159,-0.5182771,-0.117104635,-0.067637436,0.020559775,-0.5555276,-0.3665259,0.04071642,-0.18295583,-0.13583227,0.20120049,-0.15443105,-0.20704682,-0.094789036,-0.09372451,0.0052094623,0.06905045,-0.059747767,-0.33239317,0.10620618,0.686265,0.33050945,-0.12128396,-0.05120558,0.08459406,-0.041706216,-0.06776834,-0.0007636015,-0.32333586,0.17229919,0.11760318,-0.35276473,-0.11136402,0.08910533,-0.3356151,-0.100627966,0.257636,-0.5630322,0.04020064,0.03772874,0.012134603,-0.019167623,-0.18794677,-0.3257183,0.16493566,-0.13070996,-0.9545544,-0.34487167,0.06485282,-0.42607227,-0.6374288,-0.18889208,-0.018585837,0.030054241,-0.12212942,0.28890657,-0.12276847,0.17415953,0.1803127,-0.00015664067
-0.08015667,0.138339,-0.062298357,-0.059003692,0.5854131,0.2887345,0.06308367,-0.05586247,-0.17726208,-0.20030986,-0.059900567,-0.5381891,0.07698594,-0.19805658,-0.29275554,-0.12932412,0.25165597,-0.035742518,-0.12809433,0.0020048243,0.0729878,-0.012644627,0.1339033,-0.07182309,-0.35345128,-0.17408119,-0.06009955,-0.2903951,0.12559232,-0.1467662,-0.6558238,-0.3746448,0.15078424,0.33804667,0.09697477,-0.034916718,0.029127967,-0.09298794,-0.092496015,0.11191714,-0.35926935,-0.14200386,-0.051753808,0.08215228,0.83229536,0.22383587,0.072234474,-0.037999265,-0.3324687,0.27093178,-0.16831551,-0.24801123,-0.09027021,-0.08637888,-0.4883562,0.20506653,-0.046829905,0.24182151,-0.22157805,-0.34015435,0.017685683,-0.1304871,-0.3066234,0.3309774
-0.011671339,0.7671422,-0.53870076,-0.1867211,-0.12493415,-0.437421,-0.29416203,-0.15561722,-0.052675728,0.26199108,-0.69051695,-0.21962935,-0.24932232,0.28506044,0.37174496,0.23414995,-0.17865376,-0.016820325,-0.04703482,-0.6664617,-0.46707845,0.2082524,0.48717076,0.14361201,-0.10107176,-0.15360802,-0.005271638,0.10747975,0.042756923,-0.13262591,0.15064453,-0.014301179,0.01892774,-0.17153193,-0.12509277,-0.8679854,-0.4164144,0.07660476,-0.64667875,0.06379503,0.04360731,-0.3323615,0.034739923,-0.029725427,0.08742485,-0.095266625,0.048289917,0.29404524,0.0013880205,0.144562,-0.12231942,-0.012527434,-0.09759076,-0.42593452,0.08134694,0.32029343,0.4234095,-0.39657933,0.2202321,0.23459595,-0.15376219,-0.17025389,0.058737118,-0.28078112
0.029044518,-0.05897613,0.12337211,0.17109978,-0.50873053,-0.22249901,0.10933757,0.16709656,-0.68233126,-0.13323414,-0.069567926,0.4217953,0.32413092,0.06437643,-0.19577831,-0.09771368,0.3832097,0.16885492,-0.17238425,0.012346038,-0.008502248,0.32748768,-0.012209337,-0.32333866,0.6628809,0.3008091,-0.37099153,-0.18281367,0.059824727,0.020006744,-0.06438866,-0.015598228,-0.0028470675,0.118824445,0.0052001798,-0.6906523,-0.22271809,0.091651045,-0.54593843,-0.36043194,0.22636999,-0.38203415,-0.16298118,-0.0886574,-0.03778156,-0.0057080435,0.3962201,-0.11963025,-0.06936449,0.048220176,-1.1738254,-0.35386914,-0.087871574,-0.20186839,0.5555213,-0.13696636,0.2053716,-0.020027554,-1.086158,-0.20411816,0.22448279,0.08326714,0.10552399,-0.018605864
-1.6638016,0.015345157,-0.03259033,0.18904199,0.15371983,0.009481414,0.10321926,0.15272568,0.2224915,0.032920912,-0.38950506,-0.055478293,0.058604497,0.029224081,-0.92478776,-0.056978382,0.021603765,-0.12748578,-0.3122102,-1.1849341,-0.14134006,-0.19395049,-0.4760164,-0.04056443,0.13986331,-1.2751989,-0.14878277,0.060486436,0.06820777,0.114575,-0.62281096,-1.324945,0.05607082,0.02430654,0.11514972,-0.049253438,0.01821848,0.03085808,-1.2319766,0.057249002,-0.24185398,-0.22889364,-0.26047212,0.03942071,-0.5765113,0.14186868,-0.14821818,-0.30774182,-1.7811682,-0.19009475,-0.04477552,0.23253779,0.26536202,0.119714975,0.12001423,0.07502283,-0.6067,0.14800656,-1.0046774,-0.42588067,-0.26119733,0.17264266,0.10129897,0.14019938
-0.0049821595,0.08823591,0.09414509,0.108616665,-0.355142,-0.42348832,-0.19176787,-0.7061391,0.1164112,0.2358627,-0.18195152,0.2870677,0.26789412,-0.20913224,0.0034847583,-0.1618803,-0.05904864,-0.007041696,0.103769556,-0.03645583,-0.33584413,0.13078225,0.030005261,-0.34344828,0.13237979,0.190843,0.110846005,-0.1740381,-0.11981993,-0.05647246,-0.022831,0.11220468,-0.02365488,-1.3938526,0.20078214,-1.2419392,-0.22703144,0.23663737,-0.19853994,-0.55245894,-0.022116223,-0.18001944,-0.07491091,-0.15847996,0.30225012,0.0058061415,-0.06384839,-0.048585214,-0.023905309,-0.3146027,0.20833346,-0.031459007,-0.16755116,-0.60732347,-0.17510165,0.0319369,0.16380443,-0.124048255,-0.8056591,-0.044765603,0.0071939128,-0.5824088,-0.12597649,-0.2812203
0.3471558,0.12386884,-0.008185916,0.7463377,-0.009479841,0.05104475,-0.2851438,0.18046737,-0.08475562,-0.25518286,0.012500097,-0.6689063,0.2604452,-0.05461211,0.097611144,0.6049394,0.24657774,-0.0727701,-0.052824013,0.004590503,0.07425881,0.8195668,0.27874893,0.56986266,-0.12087489,0.11378484,-0.29175907,-0.41711086,-0.42393237,0.4973226,0.18482956,0.1372415,-0.066503614,-0.7419265,-0.22141318,0.14497565,0.5841503,-0.06569741,-0.16470306,-0.25466523,-0.12522434,0.051578168,0.063534416,-0.23550734,0.3272306,-0.36226138,0.26462296,0.042543065,0.27877986,-0.04903582,0.19097383,-0.11898339,-0.48559946,-0.36488125,0.2685865,0.03168912,-0.13123804,0.17492531,0.25010613,0.017044064,-0.5102413,-0.92484725,0.1394457,1.0450599
0.083177224,0.13070378,-0.13066652,0.09227573,-0.14114667,-0.013731813,0.18293343,-0.49438053,0.027069604,0.07452352,-0.116026975,0.41202244,-0.51719236,-0.053477846,0.06259862,0.09312957,-0.2901164,0.024306344,-0.09230495,-0.15717815,0.41289163,-0.32361242,0.1973789,-1.382893,0.0039261244,-0.09882418,-0.898273,0.26014555,-0.5243342,-0.07076263,0.029826239,-0.13106777,-0.09705499,-0.9030901,-0.07393698,0.052487228,0.1193561,-0.1385572,-0.19444291,-0.7102455,-0.009736805,-0.03921392,-0.24789678,0.22444107,-0.21828206,-0.19211283,0.10760879,0.16317448,0.08285866,-0.898304,0.28626093,0.19992688,0.09018709,-0.42417598,0.20930567,-0.001382465,0.014114294,-0.14348276,-0.0025284092,0.090317786,-0.06812237,-0.5976905,0.20097996,0.072032474
0.23327626,-0.044917826,0.061329547,0.2802469,-0.07421269,0.38952032,-0.102473855,-0.19036414,-0.4481844,-0.47199434,-0.4190748,0.24781285,0.22953115,0.25638372,0.23081447,0.024808925,-0.006150367,0.31297973,-0.25323004,-0.7817412,-0.64243877,0.07820042,-0.46056312,-0.2868929,0.03930775,0.07230297,-0.18336529,-0.112900116,-0.19785671,-0.57402956,-0.3544046,0.19608629,0.34602517,0.25961813,-0.029792722,-0.52395946,-0.15186487,0.005085123,-0.4663172,0.26065528,0.055939868,0.008869517,-0.011223637,0.068967775,-0.15751448,0.24895108,-0.031432632,-0.30962792,0.25057018,-0.2961964,0.20678891,-0.22906813,0.19072466,-0.18783383,0.461964,0.19832636,-0.041811015,-0.18108022,0.029786842,0.30735552,0.0677488,0.20467338,0.1441364,-0.49248734
0.30689746,0.025714656,0.2577514,0.14697213,0.13483506,0.14560477,-0.09115556,-0.24096899,-0.43379968,-0.16327721,0.15043738,0.123548664,0.087478876,-0.7289207,-0.07017851,0.010108966,-0.38748112,0.4349441,0.02647642,0.26410073,-0.103415415,0.28065652,0.27925214,0.3041607,-0.08268726,0.17432538,0.28439176,0.2610239,0.001917036,0.051750988,0.35818672,0.13724789,-0.062576495,-0.27717635,0.0026930291,0.26772848,-0.05441824,0.073700726,-0.012581844,-0.13934991,-0.10325143,0.23518206,0.021721382,0.006387436,-0.20209801,-0.054205414,0.0063215336,-0.0040079844,0.033376396,-0.5684967,0.20336045,-0.18871637,0.0642562,-0.508859,0.114501245,0.14442943,-0.25685543,0.24968724,-0.34386194,-0.08228742,0.340318,0.08662946,-0.32245588,-0.32332093
-0.24211365,0.012749924,0.17837517,0.23497556,-0.12327713,0.24224588,-0.5108652,-0.7871724,0.059769914,-0.28116727,0.050556645,-0.43797898,0.06381085,-0.5611893,0.12463515,-0.09395419,-1.4139266,-0.98633564,0.11069987,0.024405828,-0.9636915,0.105540626,-0.090827346,0.291285,0.18867491,0.298251,-0.43274778,-0.80971634,0.12453049,0.14000165,-0.87696064,0.060931835,-1.1472527,-0.4625015,0.25324956,0.019306084,0.24628557,0.24614231,0.27839157,0.3297531,-0.026892642,0.11504757,-0.26910535,-0.80775833,-0.54967105,0.20899975,-0.0063006408,-0.5400255,0.3143355,0.11169142,-0.25507012,0.220699,-1.1653336,-1.0077186,-0.27158773,0.031038616,0.062236868,0.1794263,-0.61384153,0.047073696,0.14390954,-1.1038809,-0.07678551,-0.10717206
