0.2526405,-0.09819379,-0.00811502,-0.026954394,-0.20913917,0.23872463,-0.22017275,0.034931928,-0.3166358,-0.2868943,-0.4317533,-0.2913915,-0.1451897,-0.1902638,0.3076108,-0.1248551,-0.7590629,-0.23037757,-0.032480203,-0.8944761,-0.030511089,0.0014953201,-0.7997676,0.009688644,0.09644091,0.64580417,0.11686987,0.6598356,-0.1830748,0.53762007,-0.29474565,0.06663526,-0.1363789,-0.21482463,0.060284298,-1.3017817,0.13577329,0.18068849,0.022454794,0.5464387,-0.1639084,-0.42261383,-0.078324094,-0.20491129,0.7731575,0.14718534,0.035129182,0.66942704,-0.06938121,-0.021889076,-0.18708946,-0.042639196,0.10462761,-0.37428674,0.2972717,-0.08199335,0.11464902,-0.23083884,-0.83070517,0.1372124,-0.21399525,-0.5415652,-0.14531715,-0.25216144
0.17232086,-0.78225654,-0.09614011,0.32522705,0.22077002,0.5586505,0.027606726,0.121881865,0.0073808692,-0.0486403,-0.08172127,0.40448913,-0.5619716,-0.21754178,0.25137123,-0.03765325,-0.074712574,0.32402286,-0.1433835,0.7456293,0.12864247,0.21747868,-0.5971008,0.15938556,0.060918927,0.1977122,0.23309715,0.17689802,0.1360147,-0.3310143,0.051088706,-0.30267438,0.21382678,0.16563202,0.25142795,0.18662177,0.020528832,-0.5378399,-0.044391632,0.6886777,-0.11456858,0.44640276,-0.062370382,-0.14963132,-0.2394649,0.16277868,0.41606492,0.34784663,0.25687593,-0.21461701,0.13270201,0.009083916,-0.13103198,0.43809003,0.17278758,0.06279541,-0.56270486,0.053584587,0.5888112,0.14589272,-0.014151149,-0.42362943,-0.06591489,0.057112224
-0.1752081,0.09630914,-0.07612493,-0.06814249,-0.101700835,-0.22337474,0.114567414,0.08054573,-0.30662274,-0.17710929,0.47438854,0.16230091,-0.04524753,0.0929614,-0.024140283,-0.3633119,0.18475728,0.114653006,-0.1546995,0.040356427,0.047744825,-0.036818177,-0.7028709,0.045034375,-0.24233902,-1.7355748,-1.1493897,-0.29821962,0.10099198,0.04928374,-0.22917956,0.020326307,-0.09839155,-0.039620362,-0.4738747,-0.121296994,0.26162577,-0.70972073,0.18771197,-1.2112811,-0.13968402,-0.021862192,0.06965433,-0.28568512,-0.24191736,0.1343089,-0.18693118,-0.3550131,-0.0376581,0.17224494,-0.08697746,0.03752367,-0.09763126,-0.019216795,0.048952207,-0.5903964,-0.37083924,-0.18777573,0.07746417,0.106095664,0.51252896,0.052564606,-0.12086096,0.116052486
0.26668033,0.032697458,0.24225357,-0.46680906,0.5176184,0.1564142,0.027149837,-0.14465587,0.07408412,-0.17825152,0.40481845,0.45351842,0.40769365,-0.26665938,-0.10597862,-0.37433472,-0.16942695,-0.19782457,-0.17210712,0.46706086,0.14375965,-0.59380853,0.6405228,0.025622627,0.13007054,-0.2778497,0.30845654,-0.16171858,-0.11486761,0.54282904,-0.17174855,0.1596409,-0.20288599,0.056596268,-0.06783539,-0.08535306,0.44239622,-0.2242262,-0.015783155,0.2625508,0.08427318,-1.2311382,-0.12960897,-0.19220908,-0.3050935,-0.046506047,-0.6472296,0.25632504,-0.39748925,0.10442771,0.064779356,-0.008031488,-0.206581,-0.13636386,-0.65832865,-0.037506387,-0.10553517,-0.058304735,-0.08970591,0.18902773,-0.14895289,0.07751526,-0.16333263,-0.18669012
-0.18210915,0.093483895,-0.30246025,-0.2847536,-0.17536022,0.5398506,-0.087641135,-0.018460019,-0.2545207,0.1387933,0.3792662,0.14485879,-0.03829642,-0.21434687,0.004177496,0.08370343,-0.6657844,0.008120321,-0.23105545,-0.19536035,-0.12767258,-0.15356015,-0.24916987,-0.045738105,0.11850866,-0.05219626,-0.1415974,-0.36994696,-0.25643927,-0.6190369,-0.2778111,-0.29336154,-0.22850604,-0.04573873,0.30140817,0.14358388,-0.10070533,-0.44735417,-0.19706252,0.039661683,-1.368898e-06,0.3179041,-0.3800319,-0.02162645,0.45974326,-0.25736544,-0.26525065,-0.3079891,-0.060960747,-0.16458653,-0.2733129,-0.47743982,-0.21724054,-0.16264139,0.17426127,0.010264355,0.34008297,-0.18531835,-0.36367533,-0.05301311,0.0025494492,0.035352115,0.05431511,0.040299367
-0.09954322,0.10061664,-0.10175,-0.047731385,-0.09150653,-0.14270851,-0.004282221,0.167486,0.009526891,-0.031785414,-0.0674576,0.28907678,0.15955947,-0.09952275,0.04170473,0.19519864,-0.22675294,0.02100424,0.005668333,0.070916854,-0.013368122,0.09951208,-0.07091714,0.07547233,0.16263585,0.11045742,0.0856753,0.14652847,0.04822834,0.0122394655,0.04934707,0.14246394,-0.12850992,0.132457,-0.108982414,0.24934258,0.0061487947,-0.15807295,0.0918815,0.17951171,0.17602535,-0.14538531,0.16669704,-0.10136935,0.15534854,-0.20724669,-0.17808431,-0.09934859,-0.022575768,0.12923656,0.13289933,-0.008047603,0.18938088,-0.21085142,-0.047484912,-0.15273412,0.13377747,-0.08206287,-0.09240209,-0.07272181,-0.1820755,0.09748316,0.17189598,-0.14316577
-0.0005285737,-0.17567633,0.16168056,-0.18063745,-0.2220453,-0.4010617,-0.266286,-0.11907327,-0.105907336,-0.22846213,-0.16309042,0.094573505,-0.13431388,-0.27644053,0.048942454,-0.012013728,0.16227156,-0.3575979,0.06049569,-0.028457578,0.1004121,-0.31330118,0.03966832,-0.05640212,-0.24994847,-0.04728817,0.08884773,-0.2605743,-0.101603195,-0.43564302,-0.069606625,0.01177058,-0.14666358,-0.1588604,0.10015528,0.18429822,-0.31429353,-0.26647592,-0.21637276,-0.23752384,-0.43719146,0.015858795,-0.3164906,-0.07414673,-0.10138803,0.2582087,-1.0103624,-0.18580332,0.17736855,-0.115736604,-0.59127825,-0.2304994,-0.18046914,-0.24546191,-0.061438058,-0.2280868,-0.2297374,-0.1623237,0.07496435,-0.27183902,-0.20681086,0.15903725,-0.07616307,-0.06764162
-0.0031787795,0.15685013,0.06634432,0.2697734,0.47309002,-0.6107999,-0.111162685,-0.039788693,0.032609712,-0.16889864,0.6338905,0.12800448,-0.0933993,0.011181806,-0.54674464,-0.015458628,-0.08544133,-0.10884904,-0.07204878,0.29260412,-0.7183067,0.44563216,0.5786209,-0.75514364,-0.30476004,0.13063908,-0.02669782,0.3240634,0.09537642,0.09851078,0.07684059,-0.16937652,0.48405665,0.17158757,-0.13050939,-0.084889404,0.095048316,0.14955974,-0.15715982,-0.023222247,-0.2958992,0.18349013,0.073895,0.1153696,-0.5376587,-0.62014455,0.27153203,0.15818042,-0.23207344,-0.20423405,0.31894377,0.3958045,-0.07149817,0.28165808,-0.052554563,0.14443427,0.45014933,-0.05475761,-0.21489246,0.19451442,0.10847975,0.045474004,0.017955765,-0.15218043
0.08451785,0.073466785,0.14196835,0.15393089,0.12578523,-0.05308114,-0.10231398,-0.08497044,-0.032832436,-0.13122596,-0.0944742,-0.028635,0.12550016,-0.0878477,0.22803769,0.16097878,-0.18892072,-0.1488154,-0.1301273,0.048624706,-0.120650955,0.11264596,-0.052701205,0.08951945,0.09361073,-0.033771884,0.09409399,-0.15028909,0.12374939,-0.040931344,-0.010966897,0.08936902,-0.009540244,-0.078471005,-0.018778656,-0.07284384,-0.17056,-0.15075915,0.013969526,0.06657678,0.2287335,0.14325324,0.073749356,-0.12474579,-0.0648107,0.12231296,0.21708155,0.107822284,-0.0067919753,-0.008886384,-0.07118032,0.18015637,0.09075187,-0.19693722,0.047856517,0.10038817,0.24193864,-0.09317306,-0.12886122,0.07532103,0.09731744,-0.16943364,0.10500045,0.12322262
0.6857372,0.20259008,0.35516837,-0.07223034,0.9462172,-0.31076363,-0.19427912,0.1293739,-0.09611711,0.032046724,-0.30747828,0.59075433,0.15367627,0.037237164,-0.96792907,0.23000948,-0.64449906,0.049390923,-0.019337945,0.47292474,0.030781684,-0.5617833,-0.043744687,0.59447545,-0.7542642,0.08445141,-0.018379794,-1.2036643,0.063785784,0.53367496,-0.11600702,-1.2564116,-0.55506116,0.013885675,-0.26879033,-0.18531959,0.30497715,-0.04251778,0.11969538,-0.002634409,0.16998431,-0.63981164,-0.215092,-0.12874112,-0.38295656,0.29840374,-0.38587907,-0.154604,-0.774972,-0.18195236,-0.028695013,-0.4403522,-0.046985526,-0.5049228,-0.08561381,0.18451297,0.38138995,-0.17614187,0.04634992,-0.16955823,0.17911467,0.4463521,-0.059952546,0.11665263
-0.09664669,-0.07979565,-0.2069386,-0.0108204875,-0.1102302,0.22879614,-0.17362809,-0.11372151,0.002618656,0.10825803,-0.48666415,-0.057352487,-0.2517591,-0.07093311,0.22576056,-0.24543735,-0.37654865,0.11950945,0.07628989,-0.42300278,0.09626334,0.22419453,-0.13219215,-0.30317914,0.37012002,0.65491086,-0.0052785855,0.28453073,0.031334072,0.32920817,0.11088231,0.15216275,-0.26171902,0.04400291,-0.64429057,-0.45190734,-0.59642553,0.14803886,0.015449771,0.78512484,-0.019004375,-0.34705168,0.10350574,0.12936142,0.13081305,0.08390678,-0.062439177,0.3783937,-0.08626921,-0.19210677,-0.355172,-0.18047887,-0.10318505,-0.60639435,0.30810153,-0.19127204,-0.1655704,0.07425275,-0.6879268,-0.31551215,0.03084655,-0.13386534,0.019498412,0.034585457
-0.055989597,-0.90859485,0.43105924,0.48530182,-0.2790744,0.34480554,-0.1837673,0.035963945,0.11310285,-0.008150566,0.041795272,0.104385264,-0.030487223,-0.08099575,-0.4488092,0.20699221,-0.12846892,0.25937453,-0.21091096,-0.16982073,0.32786095,0.09970542,-0.35586083,0.3553158,0.007505402,0.0186291,-0.119045004,0.17680657,-0.22541933,-0.33486152,0.047476374,0.006669988,0.27170235,-0.005084358,0.029995065,0.016883912,0.43974736,0.35228813,-0.066711165,0.47597522,-0.21789162,0.089227475,0.7414325,-0.12746857,-0.2807941,0.062032577,0.1205651,-0.068289034,0.26709762,-0.02983609,0.215221,-0.030905968,-0.19814156,0.2581043,0.21698365,-0.13552421,-0.17148003,-0.023253696,0.03448054,0.4790824,0.49248078,0.33881333,-0.07552451,-0.0910662
0.022037515,-0.5367829,-0.205224,0.162004,-0.0486884,-0.27739772,0.13696626,-0.03607376,-0.14068629,0.05459095,-0.538,-0.24270953,0.37547016,-0.12735245,0.080500804,0.30521944,0.16928704,-0.015004989,0.01579424,-0.21633151,-0.01260903,-0.32131222,0.18214735,-0.19582455,-0.2793645,-0.20825557,-0.11605246,-0.04944915,0.012647927,-0.90612143,-0.012072372,-1.227386,0.57523024,-0.01921153,-0.3567775,0.43363646,-0.31756666,-0.13653222,-0.0966017,-0.7523964,-0.22476183,0.19483823,0.22013941,-0.10614221,-0.054213073,-0.30950218,-0.13960883,-0.19070794,-0.3465016,-0.39683214,-0.0012103391,-0.10622881,-0.030978575,0.58393836,-0.44490236,-0.25411895,-0.4531742,0.16501509,0.31093377,0.101210974,-0.45303816,0.10981177,-0.3474606,-0.13312596
0.18290812,0.51617116,0.012661792,0.2519511,-0.42221653,-0.035835925,0.029120749,0.053773627,0.08225822,-0.06615293,0.22386225,-0.3433745,-0.009277327,0.0237096,-0.48854107,0.07242829,0.5408936,0.13898772,0.06274791,-0.15310219,-0.13097389,0.14229383,-0.20376183,0.050863363,-0.34932274,0.07855053,-0.48123264,0.5347331,-0.19459644,0.14962961,0.15929253,-0.042268857,0.3456851,0.016896881,0.071234226,-0.050831616,-0.57242715,0.023125784,-0.18446997,-0.77051145,0.007914256,0.3219129,0.22039515,0.050311983,-0.084338635,-0.035432085,1.0596414,-0.1423029,0.3479491,0.121051684,-0.99262536,0.5120873,-0.13830033,-0.10155175,0.3630044,0.10806338,-0.5502667,-0.2659338,0.21427874,0.3484909,-0.0129631525,-0.017095974,0.117043376,0.007156534
-0.2421518,0.18546028,-0.32584012,0.06114679,-0.099327244,-0.39737523,-0.16246496,-0.17088464,-0.27083656,-0.06999069,-1.097568,-0.15455349,-0.019000942,-0.18053393,-0.2719511,-0.19983074,-0.89534503,0.38258415,-0.13121404,0.23593175,-0.30863285,-0.06360624,-0.23094174,0.0037536507,-0.27000135,0.4897501,0.29233086,-0.32524997,0.024093494,-0.55711216,-0.07562843,0.16947065,-0.25906354,-0.05385615,-0.518657,-0.027178789,-0.02381476,-0.1875954,-0.1782634,0.058820006,-0.001293704,0.15839164,0.12383738,-0.21016441,-0.09333865,0.059176225,0.053739406,-0.22804318,0.1406944,-0.061429154,-0.9240955,-0.16241007,-0.19054416,0.016722884,-0.0010483928,-0.20049253,-0.3008641,-0.022771921,-0.9395287,-0.10499206,0.2105061,-0.3157403,-0.31507027,-0.2818417
0.47753185,0.317708,0.18536752,0.09422343,-0.33628935,0.86099756,0.03835549,-0.03010107,-0.0009920108,-0.067409255,0.24582763,0.17866386,0.15399767,-0.112362996,-0.97759366,-0.20122823,0.26002282,0.020042043,-0.106972195,-0.00677962,0.13609,-0.0491332,-0.22107492,-0.57435995,0.61804163,-0.15216573,0.24014013,0.2159016,0.014154077,-0.40286526,-0.009223416,0.23021765,0.5337634,0.123420954,0.29153347,0.25909945,0.26585308,0.2196796,0.040134087,-1.3101559,-0.03642056,0.18288106,0.32208055,0.13139251,0.6420291,-0.12875545,0.69649124,0.114095986,0.55860215,0.1719471,0.060781095,-0.084732525,-0.13124903,0.08608076,0.09998165,-0.18162678,0.22551297,-0.031250592,-0.25909773,0.10629709,-0.3555215,0.6213178,-0.33339673,0.08856183
-0.2372512,-0.6156834,0.1454336,-0.32296363,0.45566675,0.06964594,0.043363087,0.07598951,-0.15433407,-0.11338559,0.0197975,-0.13070084,-0.9688478,0.06977164,0.12642744,0.08579506,0.08205864,0.27261108,-0.08203899,-0.29104775,-0.08810748,0.002344613,-1.0924461,-0.23367326,-0.04124625,0.24853088,0.13895057,-0.9099272,-0.20580906,-0.29828605,0.0050518764,0.3025855,0.015801514,0.110594735,-0.36025447,-0.8078444,-0.012686978,-0.39021966,-0.18832864,-0.0050830585,0.0706653,-0.6591855,0.31325123,0.11437391,0.45154393,0.022071445,-0.14767729,-0.07248647,0.059509315,-0.35167378,-0.42708594,-0.10038447,-0.17750934,-0.3008145,0.052851398,-0.10182638,-0.24923386,0.027898699,0.2951717,-0.36990812,-0.09309081,-0.64367723,0.0059917206,-0.21230929
-0.40811065,-0.0018177216,0.2518499,0.10168462,-0.22322166,0.31596887,0.07459893,-0.24138354,-0.025836155,-0.013613072,0.2126818,0.032502048,-0.3819423,-0.23450524,0.40136808,-0.087772086,-0.6427297,-0.23010229,-0.19342181,0.3526579,0.19607428,0.43811026,-0.0657802,-0.8087691,-0.6352839,-0.06093819,0.36971286,-0.66271806,-0.24019553,-0.31044948,-0.17551683,0.42663947,-0.1759221,-0.007912879,-0.10065656,0.11926998,0.46682814,-0.92079765,0.08011605,0.2829303,-0.19849743,0.09091172,-0.4469045,0.06908127,0.14799573,-0.47950476,0.52398014,-0.5289297,0.26433158,-0.11325231,0.5794866,-0.0042364197,-0.12829031,0.10464253,-0.36885414,-0.36873463,-0.47079402,0.021635368,0.40434563,-0.38628897,0.10040575,-0.12523815,0.027733916,-0.13468012
-0.0060493173,-0.17899619,0.04242719,-0.60630995,0.38866854,0.5227506,0.039969377,0.07587014,-0.010528517,0.06966497,-0.07408848,0.12464191,0.042460226,-0.269936,-0.46007168,-0.38978046,-0.45286223,0.081658795,0.017200612,0.3078059,-0.10310923,-0.35992974,0.20047943,-0.30926934,-0.074666664,0.29970235,-0.06968674,-0.51254845,0.00032749152,0.019478949,-0.23027644,-0.7392512,-0.23239198,-0.1783248,0.24150914,0.4151437,0.6478112,-0.19750378,-0.2578062,0.3419467,-0.1753123,-0.60625535,0.4414591,-0.17774546,-0.8456726,0.311809,-0.009354512,0.061749913,0.41958484,0.33309147,0.2744651,0.1577431,0.03226007,0.13291036,-0.47103882,0.16180046,-0.21825224,0.0639708,-0.716141,-0.29120827,0.34666857,0.088661924,0.05452386,-0.072177544
0.65847284,0.07800376,-0.06843094,0.32208666,0.0943781,-0.34048957,-0.07146636,-0.106178306,-0.022029037,-0.2241128,0.5774313,-0.047533687,-0.12381215,-0.08077256,0.41481292,0.0713457,-0.2332831,0.4903333,-0.16759181,0.3791406,0.10354879,0.032327913,-0.38426793,-0.29408744,-0.09881029,-0.19558254,-0.44866028,0.40155202,0.094620936,0.16484512,-0.056440264,-0.62931466,0.23136905,0.07946835,-0.04278901,0.25227728,0.4260772,0.4334834,-0.15960762,0.3039187,0.00813485,0.46987244,0.44611076,-0.08744711,0.12592869,-0.92633945,0.11029933,0.50504065,-0.15284584,0.14020567,-0.08282084,0.5058439,-0.20298322,0.43774644,-0.17201334,-0.08658798,0.069754876,-0.00301746,-0.5300434,0.130641,0.12107661,-1.0728866,-0.2344723,0.08651949
0.16121534,-0.023367442,0.19973111,-0.04602573,-0.008274971,-0.33986604,-0.2078749,-0.21864554,-0.30004433,0.01703593,-0.68712956,-0.16068585,-0.19681409,-0.04696502,-0.09815208,-0.13713336,-0.64000314,-0.14554419,-0.21231295,0.30680704,-0.09293436,0.3472823,-0.2652803,-0.4082433,-0.024393037,-0.056252163,-0.597376,0.42318887,0.016442418,-0.26993343,-0.19293757,0.34945524,-0.18890995,0.051648036,-0.118759185,0.41935426,0.45953715,0.31908238,-0.24781805,0.12162065,-0.35071713,0.49101973,0.09217416,0.018773204,0.18520509,0.13015093,0.19720562,0.51820356,-0.008048019,-0.09608478,0.16170368,0.28046015,-0.134159,-0.39817014,0.72431076,0.1852957,0.18442479,-0.18513039,0.08492075,-0.14178453,-0.40430763,-0.39900517,-0.23234424,0.010247855
0.12799443,-0.15380199,0.21509604,-0.26491866,-0.32660806,-0.032072846,-0.042968545,-0.15400788,-0.101511024,0.08558641,-0.32516804,-1.2937479,-0.32069427,-0.019988868,-0.051028926,0.0031280434,0.08276542,-0.27530172,-0.20784643,-0.81193584,-0.12180096,-0.18231308,-0.15256192,-0.07013929,-0.13808109,0.12711659,-0.6901326,-0.05666123,-0.03399682,-0.08164896,0.07753858,0.12237181,-0.7193175,-0.15795806,-0.99201816,-0.865585,0.03077868,-0.77286404,-0.257836,-0.5894583,-0.19997568,0.15892455,-0.0020108577,-0.26996112,0.066383,0.09203837,-0.005913969,-0.7414996,0.21337931,0.0313187,-0.113604836,0.058784273,-0.22452174,-0.03114943,0.109111056,-0.43628153,-0.5301088,0.113147065,0.046828475,-0.6006763,-0.38282016,-1.1466699,-0.14954615,-0.036032107
-0.5812028,-0.0142792445,0.05331947,0.038139593,-0.14458422,-0.062039442,-0.18350305,-0.05054988,-0.061734095,-0.015929246,0.050368115,-0.060962822,0.4001942,0.06487057,0.5587695,-0.10753407,0.09917343,-0.14983132,0.052082457,-0.5448948,-0.057840142,0.48622358,-0.8043789,-0.17029716,0.38491046,-0.003190259,-0.34052733,0.21964923,-0.0109551465,0.25497013,0.11465302,0.11244952,-0.8289843,-0.1152159,0.5287916,-0.057314686,0.016753532,-0.29845738,-0.31982523,-0.07172785,-0.13297893,0.14507566,0.21779655,-0.22220714,0.16008815,0.15724121,-0.16582413,0.44286767,0.139217,-0.212653,0.21784878,-0.24922122,-0.23777461,-0.034702804,0.13333708,0.13899462,0.06871441,-0.20921564,0.20440939,0.1585912,-0.15475222,0.16983585,-0.24776056,0.006585264
0.041572426,-0.74832094,0.07963266,0.1967385,-1.4612641,0.17853773,0.06766436,0.101867214,-0.038084943,-0.21310171,-0.083420895,-0.33869827,0.5059479,0.18712425,-0.5582477,0.072897,1.0939337,0.15786907,0.023046574,-0.39433283,0.09522939,0.23952731,0.04754873,0.05695762,0.3719249,0.09436305,-0.6587217,0.7449741,0.08937161,-0.7354546,-0.044876337,-0.21935385,-0.006132849,0.16014148,-0.21445432,0.19833937,0.4204047,-0.0060633756,0.14341314,-1.4726295,0.29813743,0.3589447,0.20274416,-0.15927368,-0.4032245,-0.19595714,-0.10963345,0.6335022,0.34536278,-0.021856323,0.0068246857,-0.072028555,-0.20805961,-0.0011250374,-0.08362709,0.34809566,-0.31693053,-0.051173724,-0.12568161,0.1805981,0.23993577,-0.0527097,0.010435109,0.27437824
0.022945045,0.13718693,-0.6670692,0.26127678,0.10821354,-0.22687463,0.034873776,-0.08059409,0.04321898,-0.14020132,-0.082942046,-0.24366683,0.06269037,-0.09600272,0.40139326,0.073797286,-0.07511883,0.09497062,0.025798617,0.03857304,0.23719923,0.59974605,-0.055017248,-0.2494676,0.37770286,0.4576105,-0.27141416,0.29529652,-0.0031178687,0.24073601,-0.07878192,-0.8297804,0.23995574,-0.15622634,0.36926103,0.14927231,0.52724355,0.40047958,-0.02832236,0.27219158,-0.30600187,0.18439028,0.19018862,0.03271833,0.32848045,-0.01012762,-0.09351696,0.463175,0.45019567,-0.10545196,0.39126092,-0.19949801,-0.21018165,0.03521776,0.44282514,0.08471745,-0.41033158,0.06895747,-0.08776036,0.14375262,-0.11536493,-0.18109341,-0.20241605,-0.14306927
0.076734185,0.08092623,-0.33263257,-0.38765198,-0.22944333,-0.29110417,-0.059684973,0.102431424,-0.052052952,-0.02151922,-0.36055306,0.0347821,-0.58363223,0.14326945,-0.18376479,-0.059561487,-0.2013514,-0.060140237,0.0728843,0.024964144,-0.03021839,-0.044928294,0.094596155,-0.1798751,-0.13052522,0.1957832,-0.36845905,0.39214993,0.14724384,0.25233594,-0.0040929317,-0.19297278,-0.0077614635,0.07922942,-0.1714605,-0.08533078,-0.89722615,0.057232853,-0.21978879,-0.20437936,0.078725114,0.19563676,-0.019510789,0.0090036,-0.012737937,-0.110175125,-0.010947796,-0.20947194,-0.09582448,-0.0043016854,-0.36532274,0.23928258,0.031699933,-0.2341804,0.031041505,-0.053216435,-0.33609352,0.11474981,-0.35134643,0.3239115,-0.068829335,0.14065799,-0.04206644,-0.14529526
-0.8527091,1.0722063,0.40347525,-0.5904728,0.12579744,0.120623864,-0.24243331,-0.13649704,0.104915224,-0.005673585,-0.5578627,-1.1771481,0.3348742,-0.30270532,-0.63955754,0.20113686,-0.22221604,-0.17242335,-0.09397858,0.036592565,0.079067595,0.29457927,-0.24656083,0.5616692,0.89200747,-0.65316683,-0.49686152,-0.020510077,-0.1584391,-0.9698901,0.083865225,-1.294528,-0.2408437,-0.24869916,-0.07799395,0.23260406,-0.6990266,0.12901847,-0.20830713,-0.3238305,-0.35992646,0.6827149,-0.0600405,-0.11608505,-0.18517977,-0.5139256,-0.4355627,-0.10087506,1.30228,-0.18186532,0.22207446,0.2121006,0.11290564,-0.21737592,0.19452478,0.06706329,-0.66942495,-0.122344896,-1.1143074,-0.13423306,-0.34454387,0.31509158,-0.035827085,-0.23414798
0.028114168,-0.20207386,-0.07519385,0.0009223791,-0.20523033,0.013860784,-0.08446281,-0.19267292,-0.027588084,-0.11418488,-0.21332677,-0.123036616,-1.6949209,-0.00995496,-0.104746506,-0.28179762,0.07738553,-0.46208796,0.0199967,-0.13375853,-0.2977779,-0.16778435,-0.29525673,-1.0919306,0.023122571,0.11014851,-0.030144816,0.3594916,-0.13555628,-0.033030804,0.12570612,0.30123374,0.16866048,-0.06630631,-0.015485122,-0.6542696,0.013212828,0.23042183,-0.03422935,0.089537345,-0.16331847,-0.36141112,-0.19270098,-0.1537447,0.287524,-0.48360822,-0.34602508,-0.047786113,0.2350926,0.038424652,-0.3186059,0.04276763,-0.111737445,0.07279039,-0.12857565,-0.045862883,0.1795553,-0.15855798,-0.18593685,-0.48067302,0.07058018,-0.0841207,-0.36987382,-0.1409802
-0.14354503,-0.14993304,0.22067678,-0.24708991,-0.008490757,-0.27851206,-0.21896662,-0.09421507,-0.29172328,-0.2044809,-0.0475131,-0.14173919,-0.03023251,0.07495182,0.13372414,-0.27263352,-0.29454356,0.01130938,-0.00482685,0.074538134,-0.015247541,-0.1434203,0.019787759,0.12243984,-0.24988532,0.07697003,0.09468483,-0.08511327,-0.08509836,-0.27249888,-0.15728197,-0.17951453,-0.05103389,-0.24391669,0.23211817,0.2620095,-0.75416744,-0.9529177,-0.10156414,-0.3070442,-0.15078065,0.11390287,-0.013595683,0.020140255,-0.28192407,0.5261849,-0.060680527,-0.29621977,0.073246695,-0.050928865,-0.40782398,0.032510724,-0.15582544,0.11503646,0.056527395,-0.1133511,-0.6741846,-0.15616924,-0.043387637,-0.040442083,-0.11957482,0.20663972,-0.06494409,-0.08228172
-0.40117815,0.052546646,-0.7323399,0.29232788,-0.1045306,-0.104435556,-0.19624862,-0.10767378,-0.1454093,-0.12016501,-0.20407005,0.19688684,-0.06810068,-0.26557797,-0.322978,0.34854087,-0.0040839105,-0.062009167,-0.13647348,-0.18716936,0.18016668,0.5812061,0.113092385,-0.586179,0.10516135,0.026231749,0.12445948,0.1559005,-0.06347513,0.17160013,-0.26199597,-0.14632517,0.12547341,0.05792782,0.075235374,-0.1932084,0.20155777,0.17011802,0.0025070559,-0.36014414,-0.011591361,0.47203833,0.04005837,-0.23220448,0.061032306,-0.15385543,-0.03056697,-0.04737691,-0.19733028,-0.032264315,0.40703762,-0.10833384,-0.15008005,0.064933345,-0.2497015,0.2230178,0.13197795,0.109294765,0.49659824,0.24919733,-0.12331472,-0.3664817,-0.4238899,0.0023932336
-0.19164881,-0.4548162,0.10483359,-0.13127029,-0.569219,-0.19904993,0.14491901,0.026488138,0.2610637,-0.17556785,-0.35897246,0.30906698,-0.0375946,0.040236995,-0.47493932,-0.1844891,-0.49692324,0.16459373,-0.21650398,0.056513257,-0.9185108,0.5858885,0.76494724,0.43391335,-0.2853893,-0.28702787,-0.020417236,0.40362632,0.12880091,-0.1487665,0.1310836,-0.9981703,0.022290954,0.04706468,0.5147443,0.05827342,0.23440605,0.047569502,-0.09174816,-0.08237281,0.078733735,-0.6587981,0.15674955,-0.09378344,-0.2763293,-0.099295266,-0.30806127,0.5457203,-0.8375172,-0.23286718,0.058980156,-0.06850166,-0.0832094,-0.6591655,-0.21047197,0.12683113,0.13650107,-0.09130629,0.07470021,0.17730336,0.08626698,-0.05753633,-0.009809658,-0.05715172
-0.23602636,0.10553718,0.1267541,-0.45444456,0.44288948,0.117644586,-0.124572605,0.021456284,-0.12107983,0.08183702,0.059868794,0.21144947,0.26307496,0.0725592,-0.6500898,0.3762296,0.16180097,0.39391944,-0.03186103,-0.32962894,0.22034897,0.061125066,0.19054325,-0.8784252,-0.06820829,-0.6720115,0.32348627,0.20081155,-0.11468664,-0.09155837,-0.12807289,-0.13394448,0.26941064,-0.17643265,-0.6546996,0.0042793225,0.30855754,-0.7509283,-0.10353078,-0.9086676,0.00032816993,-1.0071942,-0.040928505,0.105349675,0.2552046,0.08206115,-0.18305083,0.14687404,0.16454826,-0.2103801,0.14230636,0.053122643,-0.13824627,0.21560204,-0.42153776,0.04937207,0.109001316,-0.09570186,-0.08677232,-0.18500897,0.21627788,-0.084429644,0.16720831,0.070677124
-0.057899017,-0.32510093,-0.042203624,0.06979201,0.5027998,0.4268766,0.06664616,0.099918045,0.166304,-0.078607805,0.3425917,0.38456514,-0.053238094,-0.10041346,-0.49786338,-0.05268463,-0.05247528,0.15491183,0.07144791,-0.10730962,-0.33703864,0.16605587,0.13388522,-0.61512345,0.30642793,-0.1266956,0.28856945,-0.08531019,0.10515488,0.256611,-0.000757246,-0.56295747,-0.03711947,-0.0907743,0.24930657,0.17124136,0.86086774,0.104712464,-0.05452803,0.10424098,-0.049789026,-0.24302869,-0.041941736,0.01622117,-1.2945768,-0.44185862,0.09274791,-0.38355172,0.15569392,-0.27390686,0.53623754,0.3850573,0.045315154,0.44043243,-0.18827948,0.02931345,0.052147366,0.18900889,0.6500061,0.41598752,-0.060119726,-0.428685,-0.25636572,0.012360358
-0.036454085,0.24743006,-0.17348872,-0.14242071,-0.01077787,0.055014458,0.07405108,-0.12334916,-0.017503165,-0.09178639,-0.07767097,0.055338506,-0.049960516,-0.03840426,0.00742175,-0.02730724,0.07033276,-0.16001244,0.06382793,0.010233033,-0.0716301,-0.019750243,0.0061868415,-0.028440705,-0.07069334,0.030181682,0.13619241,0.12541361,-0.2407032,0.052619517,-0.018928349,0.13205084,0.16056156,-0.1367497,0.020051736,-0.24406451,-0.027479982,-0.14017552,-0.22685716,0.1143712,0.048861135,0.097973585,0.14500019,-0.23216127,0.0935607,0.03888034,-0.08564622,-0.19585879,-0.023686992,-0.23110373,0.077540904,0.004763174,-0.21860142,-0.06780573,-0.25344566,-0.22641231,0.09792926,0.10980123,-0.17639196,-0.086906694,-0.0049345978,-0.24147846,-0.13799682,0.12881179
-0.30455887,0.4007848,-0.12952662,0.3414416,0.12864539,0.2601959,-0.07924643,0.17423119,-0.24109788,-0.1527992,0.17424385,0.1523434,-0.14555004,0.0077821356,0.03340019,-0.09681242,-0.4772149,0.21672544,-0.24252622,-0.31620833,-0.15712225,0.29447192,-0.07371164,-0.057453893,-0.034245215,0.2942042,0.34483412,-0.36014572,-0.18658221,0.3520729,-0.088950105,0.003801941,-0.042509623,-0.04294096,-0.066201374,-0.03344203,0.42675534,-0.9361784,-0.035162356,0.46482572,-0.079957314,-0.40888047,0.07901634,-0.07069797,0.099984504,-0.038942654,-0.07336157,0.145874,0.42357898,0.33330044,0.3502238,0.081360124,-0.12770766,-0.71089625,0.27783358,-0.095013484,-0.37759712,-0.16239789,-0.41655353,0.09831104,0.00864269,0.05983666,-0.15060306,0.06057352
0.32313773,-0.5459364,0.26818046,0.50171006,0.12719747,0.07129431,-0.14597762,0.10105942,-0.23652634,0.10344722,0.22185105,0.43631828,-0.19277006,0.022244023,-0.07104629,0.053058244,0.32320017,-0.43215916,-0.1316121,0.32936233,0.060561027,-0.0166431,-0.59328365,-0.23156308,-0.67325366,-0.22641571,0.46956077,0.11790974,0.037784174,-0.8563295,-0.009347806,-0.18396632,-0.1267033,-0.02067698,0.2625497,0.89255464,0.7751642,0.5185301,-0.16306035,-0.14899966,0.070776775,0.26502046,0.14858341,0.17246516,0.061064377,0.30761912,-0.1255187,0.3774375,-0.4078582,0.13471034,0.4388065,-0.25782767,0.012753713,-0.34008384,0.3289153,-0.11504611,-0.08877144,-0.055209257,-0.23182681,0.29908884,0.060936153,0.34712964,-0.12758176,-0.13987336
-0.30036074,-0.5342076,-0.042612813,0.04548163,-0.7492198,-1.4272008,-0.13856117,-0.22445644,0.06078288,-0.10453934,0.32566854,0.21514852,0.19215162,-0.18671454,0.1424812,-0.21100186,0.20567043,0.096445814,0.047501087,-0.63097614,-0.088810734,0.04620494,-1.0146067,0.19068028,0.30007806,-0.160613,-0.13003725,-0.07074732,-0.16982354,0.22384825,-0.009459927,0.27924675,0.07026234,-0.097454906,0.045244064,0.040966347,-0.0025477223,0.05697756,-0.294645,-1.5453526,-0.093606114,0.38375703,0.04140492,0.034296744,-0.38982928,0.193561,-0.12817505,0.38960707,0.06930188,0.119587064,-0.44817767,0.27084014,-0.15715122,-0.5857687,0.14066128,0.05017738,-0.38872594,-0.17649639,0.37823382,-0.26417163,0.32725796,0.13211684,-0.40710327,-0.28527722
0.12322257,0.07476276,0.092075154,0.0243523,0.36601657,-0.52528745,-0.22595662,-0.16222058,-0.15674761,-0.08669229,-0.56474584,0.2111096,0.2562605,-0.31613892,0.11532926,-0.17378822,-0.10434957,-0.44242242,-0.18617873,0.26320142,0.15293911,0.070058845,0.30489004,-1.3989545,-0.48046494,-0.06801161,-0.8946104,0.109333605,-0.11215514,-0.061198317,0.08062331,0.2175502,0.33505198,-0.042743783,-1.1741581,-0.2423911,-0.1928279,0.29124156,-0.28042483,-0.06252622,-0.1906505,-0.8537894,0.13345844,-0.26296926,-0.0024219833,0.13121727,-0.3509308,-0.06181168,-0.020611929,0.075368926,0.04235866,-0.59182155,-0.015332416,0.04592861,-0.900239,-0.2661863,-0.02387494,-0.045039393,0.013350438,-0.016110247,0.18458515,0.18547678,-0.17258096,-0.36168844
-0.19624019,-0.17389217,-0.043732144,-0.084128164,-0.1684779,-0.1212922,-0.21434446,-0.083857596,-0.13655852,-0.027719736,-0.11993365,-0.1293569,0.044290677,-0.19512448,0.11826115,0.091376476,-0.14767908,0.0042269444,0.10876423,0.16605861,-0.19403526,0.07422542,-0.025712367,0.18011476,0.09791881,-0.08136919,0.13819338,-0.14650668,0.013590127,-0.13954031,0.019501448,0.041917663,0.0919659,0.09107078,0.049865045,0.019305112,-0.11671386,-0.1839539,0.038952097,0.047785003,0.010821836,0.07613938,0.16191688,-0.18328339,-0.17786111,-0.017115735,-0.08210452,-0.15505494,0.18371779,-0.043585587,-0.07801632,-0.14157663,0.16394803,0.19381483,0.14139831,-0.0047255224,-0.111728065,-0.043967247,-0.18189451,-0.11021149,-0.18778603,-0.075759314,0.054681588,0.14444757
0.39333194,-0.2603579,0.0073978826,0.293347,-0.5681876,-0.6963226,-0.20585027,0.025081923,0.05774305,0.0001138536,-0.2713106,0.5895302,0.298434,0.07930999,-0.37039456,-0.49305373,0.35594848,-0.23072636,0.03211834,0.30008355,0.037925184,-0.42774093,0.059036426,-0.15872411,-0.03258763,0.24176088,0.38329282,-0.28231075,0.115577504,-0.25557604,-0.18895715,0.456859,-0.63984644,0.00034708544,-1.0720556,-0.17201248,0.1831621,0.33524898,0.034521837,-0.22725715,-0.120768346,0.08012219,0.2316479,-0.060677603,0.04979878,0.37763992,-0.15830003,0.41522545,-0.30244496,-0.0073819435,-0.15893532,-0.09476262,-0.1882545,-0.89400065,-0.19674817,-0.25474107,-0.1944786,0.148796,0.039518684,-0.2537259,0.045920853,0.18490236,-0.50332564,0.036640253
0.0024430642,-0.052607883,0.09220243,-0.10628809,-0.123625465,-0.22867666,-0.086393826,0.018276265,-0.12556773,-0.042714525,0.09910828,-0.31360304,-0.628266,-0.14925404,0.2947056,-0.07433063,-0.26371497,-0.4067748,-0.24279924,-0.105888225,0.06648095,0.07316277,0.19823475,-0.84829205,-0.38192892,0.076234326,-0.23341493,0.08627537,-0.16404781,-0.24355988,-0.13762946,-0.5064461,-0.25435442,-0.16741744,-0.58444524,0.12669852,-0.28845134,-0.1041166,-0.04725677,-0.02031176,-0.33742377,-0.08592557,-0.3053463,-0.06500373,0.040155523,-0.059656303,-0.1801262,0.17604792,0.15398161,-0.46078864,0.11183435,-0.36590263,0.028904619,0.10851861,-0.6849746,-0.0884281,-0.084059626,-0.2411972,-0.134356,0.046290427,0.14135246,0.18388906,-0.12444498,-0.012288452
-0.43697456,0.2591716,-0.43078226,-0.3528961,-0.06753804,-0.105116285,0.036169708,-0.05949572,0.019407505,-0.19904043,0.31848508,0.541205,-0.084264554,0.0021832387,0.11943255,-0.3834953,-0.21817501,-0.4072769,-0.116647206,-0.2985148,-0.08054162,0.4754724,-0.13449442,-0.29416692,0.09209361,0.117850006,-0.4232109,0.21493125,-0.048143156,0.056087296,0.12833144,0.08538755,0.30818108,0.12640882,0.13834362,-0.02403356,0.028018747,-0.1369897,-0.11684131,0.46134838,0.0007912856,0.5505202,-0.36655998,0.054863237,-0.38578117,-0.12563406,-0.13578804,-0.2329441,-0.069261655,-0.014045846,0.47137827,-0.10483149,0.023496903,0.34595573,-0.50077814,0.06699524,0.4857279,-0.07853164,0.3648027,0.036605567,0.020121837,-0.52637917,0.18944836,-0.16914251
-0.09979723,-0.23734468,0.053357236,0.0708548,-0.041922152,-0.019830115,0.0073119076,0.028813703,0.2518432,-0.0017981888,-0.07485878,0.097174354,-0.05988893,-0.054469116,0.082099296,0.14615606,0.1210084,-0.03934761,-0.18704702,0.09299545,0.13297011,-0.14035277,-0.14073801,-0.16334921,-0.02251059,-0.025792083,0.033439156,0.10254441,0.17778718,-0.11252541,0.04540267,0.053721722,0.060554255,-0.101727225,0.029815966,0.0582574,-0.00058535044,-0.10514983,0.07333769,-0.03354065,-0.061992563,0.17284395,-0.119951665,0.061772835,0.07268627,0.14468536,0.14488192,-0.09612552,0.121287405,-0.10670574,-0.1230301,-0.11196853,0.020297365,-0.055620804,0.21655044,-0.21217728,-0.05849468,0.12803714,0.17017555,-0.1974337,0.0010585791,-0.17032516,0.08309964,0.06881974
-0.5568999,0.09517073,0.16468555,-0.15272464,-0.082945734,0.10033502,-0.2123443,-0.07742878,-0.0998553,-0.25086,-0.08200272,-0.14646305,-0.10286213,-0.3367174,0.2275493,-0.23989768,-0.008425236,-0.2452487,-0.38152274,-0.06740242,-0.5283908,0.12782243,-0.018087313,0.023672866,-0.04988127,0.20736818,0.13439223,-0.058945943,-0.19481564,0.02887789,-0.2666477,0.08995188,-0.45898834,0.024845086,0.07358057,0.13349524,-0.34329414,-0.5055429,-0.3452235,-0.0781105,0.07769122,-0.009443671,-0.030272221,-0.29708552,-0.12209433,0.13007188,-0.4445953,-0.11897534,0.05477539,-0.38247192,-0.07305805,0.025571013,0.04900319,-0.1786059,0.112887464,0.0031693736,-0.13546231,0.10486938,-0.15101789,0.07202853,-0.22061352,0.29946572,-0.14574854,-0.06478428
-0.07402445,-0.66641337,-0.014036619,0.07742954,0.081567295,-0.17363088,-0.07519199,-0.19857448,-0.2523975,-0.1318941,0.085185744,-0.89085394,-0.042458504,-0.051174432,0.24586476,-0.21150102,-0.16048384,0.18799835,-0.36457124,-0.84280425,-0.4094228,-0.4623337,-0.08859068,0.10729694,-0.045196224,-0.09940374,-0.28118026,0.071559,-0.17517212,-0.06431452,-0.079029776,-0.044859,-1.0495923,-0.16513397,-0.58281875,-0.5718419,0.014517295,-0.58256006,-0.22108434,-0.34223676,0.015315268,0.06833029,-0.28392506,0.053345684,0.2102948,0.13854839,-0.058682106,-0.38407314,-0.09772453,-0.0153811,0.19350521,-0.18628949,0.037475985,0.19108284,0.13572897,-0.0012513271,-0.09227348,-0.23913735,0.076213546,-0.2110101,-0.7660242,-0.77618945,-0.17120624,-0.27115047
-0.15524751,-0.077742964,-0.13106519,0.04228204,-0.13598618,0.04136444,0.04210361,-0.13683087,-0.30033052,-0.007737317,0.26422417,-0.31844404,-0.112174205,0.05492669,-0.36744142,0.124271646,-0.3706557,-0.18810396,-0.2520898,-0.44181958,-0.19972965,0.29649097,-0.259497,0.59260404,-0.09954224,0.09212244,0.14712827,-0.23837599,-0.11266005,-0.16533074,-0.21060793,-0.44206637,-0.09123329,0.05652129,0.011241372,0.010087086,0.093529664,-0.8467639,-0.0011533296,0.03148764,-0.13068809,0.14287628,-0.23835982,-0.2283564,0.2519307,0.5538867,-0.65456676,-0.048519533,-0.5666406,-0.08844337,-0.21356773,-0.10273309,-0.18877655,-0.08134079,0.05612471,0.005179444,0.17102528,-0.21514446,-0.06794495,-0.012184453,-0.3058344,-0.32880276,-0.22754377,0.032359276
-0.19343683,0.36609322,-0.13394777,0.47575685,-0.9501761,-0.59309787,0.018345837,0.00591653,0.07638951,0.15370847,0.68737453,-0.30794832,0.17740247,0.10085489,-0.38175684,0.32351038,0.45322323,-0.09122747,-0.13364992,-0.59266925,-0.2225299,-0.5710017,-0.05005854,0.5406846,0.68041724,-0.25424117,-0.7569836,-0.89676535,0.07206862,-0.553047,0.08468677,-0.24933839,0.7836231,0.16718951,0.17537487,0.29852363,0.13743916,0.21571869,-0.013832539,-1.2564456,-0.25401235,0.38662976,-0.052889943,-0.12079394,-1.4758788,0.26246762,0.009114665,0.27632982,0.3086972,-0.13313572,-0.57122123,-0.08699425,-0.18916982,0.20196012,0.18695083,0.025836874,-0.32674268,-0.045869257,0.84757143,-0.027053926,0.031077951,0.47297242,-0.1648848,0.09610981
-0.08247571,0.19978814,-0.13567434,0.118500754,0.12221356,-0.19425277,-0.13233778,-0.015034273,-0.16071087,0.10123308,0.16206683,-0.14251322,-0.07018514,-0.19403695,0.087838426,-0.10076897,0.0843534,-0.15375984,0.04993181,-0.09275546,0.13576199,-0.13584891,0.020746976,-0.08384569,-0.04334593,0.06259693,-0.21301979,-0.21523584,-0.12973168,0.013779059,0.031092316,-0.03655894,-0.1288695,0.21229057,-0.111522004,-0.14458045,-0.19626525,0.14097233,0.10587777,0.17283247,0.07623084,0.0011499673,-0.02265796,0.009932712,-0.07028864,-0.15330264,0.093548015,0.17795326,0.13182016,-0.2035249,-0.13424093,0.10414012,0.14746122,-0.043190554,0.19228072,0.060768947,-0.19712315,0.038020536,-0.13323389,0.21191214,0.1518748,-0.019158185,-0.16644564,0.07080875
0.098621994,-0.049979776,0.0080071185,-0.041493036,-0.023323694,-0.17078917,-0.17281374,-0.00499706,-0.2873079,-0.009321778,-0.107146695,0.2416817,-0.42937797,-0.19165233,0.020979334,0.2286826,-0.025537094,0.107892565,-0.04320793,-0.24884298,-0.054869127,-0.16011909,-0.032185562,-0.054262657,-0.112002134,-0.08131134,-0.10570852,-0.011437923,-0.19721676,-0.32107967,-0.21864866,-0.17652255,0.13714135,0.12364597,-0.026517568,0.028644618,-0.037080303,-0.3062036,-0.24330331,0.06479355,0.0056110388,0.09863035,-0.015244347,-0.030710587,-0.09053905,-0.08067125,0.17974468,-0.29609263,-0.033457045,0.05433809,0.15173799,-0.022912964,-0.044148248,0.2106843,0.1694798,0.06621227,-0.04819097,-0.16106027,-0.056186005,-0.1825642,-0.18826255,-0.1800806,-0.20536864,-0.1180841
-0.021641804,-0.670806,0.123182885,0.26360422,-0.40988964,-0.07261306,-0.02271773,-0.007125325,-0.12211001,0.05166475,-1.1013929,0.3247343,-0.0056442246,0.18729201,-0.36833414,0.011961854,-0.27794558,0.093393944,-0.07085244,-0.6361627,-0.36693865,0.38669094,0.76191455,-0.5969384,-0.8236514,-0.064727515,0.10459433,0.14052583,-0.1569532,0.12046843,-0.13032183,-0.47562638,-0.30905768,0.006397175,0.362957,0.3426972,-0.03890307,-0.1968735,0.12243657,-0.04803787,0.05144827,-0.9890061,-0.28290942,-0.11646071,-0.20092034,0.022763904,-0.29942188,0.027974956,-1.1176274,0.008269076,-0.40871018,0.19605483,0.13805301,-0.48756847,0.46737146,0.039528716,0.09583616,0.17832355,-0.33782753,-0.035637625,-0.21406095,-0.021360515,0.15022542,0.011899484
0.13332689,-0.02615501,-0.044384457,-0.18854511,-0.6622242,-0.65030587,-0.095219895,0.06745209,0.13168806,-0.045825545,-0.06638205,0.34491298,-0.31211525,-0.32554477,-0.29516622,0.121939205,0.022236196,-0.07517138,-0.0050834017,0.12414727,-0.1835215,-0.15552506,0.061175477,0.26523927,-0.19529338,0.065008156,-0.023538256,-0.1284793,-0.282798,-0.35463172,-0.2127923,0.07276322,-0.40052772,0.049680457,0.24098358,-0.016532315,0.17700244,-0.8864847,-0.036330592,0.22014603,-0.14628601,0.120600015,-0.30423504,-0.20321926,0.18593943,0.049002536,-0.5915503,-0.0228788,-0.09162002,-0.23390257,-0.1220552,-0.32522133,0.02449845,-0.4894642,-0.0426672,0.05290895,0.06765901,-0.0219149,-0.043338023,-0.29081222,0.08658873,0.081800826,0.028234838,0.01546799
0.09902659,-0.4540307,-0.167068,0.40928975,0.08132455,-0.8433222,-0.13216846,-0.08819795,0.030878207,-0.19450916,0.12931912,0.3427238,-0.48565233,0.049424853,-0.13849953,0.35284728,0.29269412,-0.01687559,-0.040597863,0.50954664,-0.26060265,-0.5514257,0.78163284,0.18780388,0.08272305,0.060282096,0.21184747,-0.46622738,-0.069302976,-0.1917324,-0.15470013,0.25408366,0.05397262,-0.009998701,-0.11840514,-0.15154669,0.03820247,0.03052364,0.002018258,-0.43852296,0.061829276,0.121409796,0.15934528,-0.19419102,0.16559918,0.38446617,0.5102106,-0.35838103,-0.13118389,0.06807575,0.043761227,-0.031832222,-0.20849222,-0.3175796,0.20115729,0.08514625,-1.0072631,-0.014910729,0.33470452,-0.30253968,0.301183,0.09947906,-0.5322502,-0.13401555
0.36197996,-1.888981,-0.008697047,0.07278253,-0.36677298,-0.2212932,0.14092126,0.15965869,-0.17940521,-0.23965661,0.30686137,0.13995148,-0.1830463,-0.23530914,-0.9116156,-0.11583435,0.036902703,0.22055589,-0.11028464,-0.70358455,-0.12461526,-0.2902931,0.16191082,0.11117722,0.22162008,0.23001605,-0.1548179,-0.09867361,-0.12384182,-1.0961577,-0.022149196,0.30456743,-0.5663285,-0.021033112,-0.10747726,0.41330406,-0.28055307,0.076390326,-0.11431529,0.24506973,-0.03296248,-0.2956578,-0.21601029,-0.10306392,0.09703179,-0.022191191,-0.5561294,-0.533414,-0.24620569,-0.31437492,0.011536348,-0.17731118,0.12185537,0.29408368,0.03107429,-0.36293358,-0.25499424,0.059235238,-0.02420275,-0.17779963,0.12999801,-0.00970368,0.18029389,-0.10027476
0.12841712,0.06077116,0.0037855173,-0.3372137,-0.13282388,-0.57997173,-0.2240078,-0.15670496,-0.19172946,-0.06673397,0.30579877,0.09910045,-1.0229089,-0.045533895,-0.82227427,0.06859839,0.36694717,-0.40648302,-0.2315467,0.19211526,0.10075642,-0.100955844,-0.4655938,-0.94111544,-0.3417637,0.04193894,-0.79402345,-0.065514624,0.035092294,-0.1605391,-0.31833732,0.6326725,0.05880146,-0.26246223,-0.7253752,0.011218859,-0.18290721,-0.06455692,-0.2729078,-0.069115184,-0.016739056,-0.5978446,-0.45678446,-0.12302456,-0.16962522,-2.1866305,-0.5057604,0.06223994,0.43562946,-0.17429768,-0.13549906,-0.10871455,-0.15426247,-0.18088914,-0.17777556,-0.20042902,-0.11189913,-0.22084302,-0.921852,-0.69958234,-0.112058744,0.13928822,0.09262652,-0.014371257
-0.08857257,-0.19806838,-0.19455649,-0.17583016,-0.4272574,-0.0063251634,0.10011081,0.08049402,-0.15353784,0.12171247,-0.23283304,-0.2679216,-0.051627122,-0.23716766,0.27914852,-0.14030536,-0.13175404,0.6209352,-0.26379597,0.0944879,0.047311477,0.15538077,-0.5266589,-0.16190264,0.14778759,0.23961139,-0.30867642,-0.2293937,0.0031196098,-0.39063427,-0.21069553,0.16555181,-0.2843645,0.029380042,0.2579477,0.23286705,-0.30465242,-0.04729707,0.030229066,-0.019261023,-0.32392985,0.31878445,-0.084112644,-0.0038032176,0.1260856,0.1185104,-0.31812242,-0.2266836,0.1553702,0.06781594,0.39196306,-0.34379035,-0.23004524,-0.009940729,0.27631947,0.1423827,0.06389909,-0.13831359,0.08214482,-0.18560675,-0.050083566,-0.071697555,-0.3114331,-0.1483802
-2.2583542,0.08076808,-2.1421385,-0.2942402,-0.20841621,-0.44481438,0.008546993,-0.30546528,-0.2831626,-0.24533698,0.016924774,0.09436068,-0.15263815,0.04715425,0.089972645,0.09033432,0.021216545,-0.13789393,-0.18085273,0.07534579,-0.5810296,-0.17125615,0.2168959,-0.22370166,-0.0082076825,0.09362767,0.027695263,-1.6723235,-0.18813662,-0.26182482,-0.06159159,-0.09299817,-0.028312238,-0.25670984,0.050638482,0.15105993,-0.7565552,0.05757453,0.021480637,-0.0137986485,-0.068812154,0.1490706,-0.1264765,-0.0027643067,-0.790867,0.101555675,0.042681325,0.026670575,0.02803047,0.026007447,-0.16725759,0.111791395,-0.13940512,-0.75758386,-0.71910834,-0.17207347,0.17327103,-0.22632238,-0.055654664,-0.020139731,-0.41741326,0.27103096,-0.27902505,-0.10917139
-0.52097493,-0.06897677,0.02271874,0.3104375,0.41940054,0.28888127,-0.064669974,0.004917848,-0.11452431,0.12959017,-0.02312236,0.12169557,0.045257144,-0.11620934,0.0036739921,-0.08330907,-0.5322794,0.11534522,-0.12644619,0.10562027,-0.5896,0.18289404,0.21522237,0.12951446,0.6232168,-0.2761128,0.19287401,-0.020935636,-0.118901476,0.46786046,-0.26473755,-1.2377794,0.38750476,0.014311298,0.026965212,0.216017,0.1745613,-0.013536876,-0.010805068,0.48870778,0.058013447,-0.015367628,0.18706304,-0.18371607,-0.027954958,-0.80480224,-0.270231,0.3155906,0.60390383,-0.21149908,0.60898995,-0.06149353,-0.12961489,-0.20187995,0.06157139,-0.059346117,-1.1372129,-0.17960308,0.09455605,-0.3125886,0.017302005,0.35380262,0.00891742,0.10810427
-0.63379997,-0.22949894,-1.1522682,-0.30321792,-0.7591246,-0.49579456,-0.08811412,-0.19353545,0.039883755,-0.12289222,0.51930064,-0.29491892,-0.30054858,-0.48974988,0.24286216,-0.3830012,0.49252668,-0.45610717,-0.004588406,-0.67204535,-0.030153409,-0.012907484,-0.9267969,-0.31128383,-0.18315561,-0.50798976,-0.49134693,0.14660029,0.109589264,-0.038927853,-0.1672844,0.24710016,0.15722062,-0.0907289,0.5101576,0.04757482,-0.3629898,-1.1677318,-0.040489525,-0.15854463,-0.14463176,-0.3369724,-0.6236615,-0.007991881,-0.31177005,0.10807822,-0.66616064,-1.2669858,0.13679135,-0.26891512,0.67430484,-0.8120951,-0.06723115,0.022320127,-0.0068831667,-0.09131854,0.553047,-0.17298618,0.6599366,0.09721817,-0.39035308,-0.7833505,-0.14600295,0.005941625
0.4075086,0.0555644,0.24487716,-0.15685861,0.118734635,0.08205894,-0.24391584,-0.360413,0.07112037,-0.11985876,-0.34643272,0.49164376,-0.5316948,0.17600809,0.20248191,-0.095793374,-0.17062439,-0.28675237,0.014314255,-0.2684955,0.062038083,0.11853353,1.0383104,-0.025793435,-0.5705005,-0.79744744,-0.31064352,-0.01437923,0.106722124,0.22865887,-0.2564283,0.16389503,0.080153346,0.03210178,-0.1320603,0.57942885,-0.30167487,-0.12244272,0.12551957,-0.0015127646,-0.0072483392,-0.9229062,-0.04216348,0.02969522,0.29095232,-0.06316555,-0.31867227,0.1914327,-1.0341896,-0.15134785,-0.16252957,-0.16067849,-0.009178159,0.14767891,-0.13937768,-0.1397183,0.22631675,0.015630398,-0.043822687,-0.23040374,-0.20466475,0.19894575,0.061014157,-0.33128008
-0.21501857,-0.43711442,-0.14769584,0.4427944,-0.26969782,0.08804061,-0.14814614,0.1514873,-0.097646475,0.07825419,0.33503795,0.108593315,0.08624888,0.062540166,0.015440186,0.099513516,0.1769229,0.0045355526,-0.15842466,-0.3934715,-0.36695272,-0.20215571,0.9227714,-0.26869425,-0.42337322,-0.45320663,0.2835145,-0.7345105,-0.20707206,-0.26273745,0.2036746,-0.42298877,-0.08177327,0.06019961,0.13459098,-0.28942287,-0.0065473933,0.29998022,-0.14681712,-0.20153989,-0.16464582,0.10627053,-0.13376492,-0.057885855,-0.36388892,-0.026016578,-0.34241703,0.16331188,-0.049638875,-0.012695331,-0.1826808,-0.2480374,0.18471026,-0.17034808,0.07296854,-0.14346708,-0.4971193,-0.07402057,0.096959285,0.1021026,-0.2909337,-0.3597933,0.047976073,-0.02719947
0.007623922,-0.09619688,-0.377414,0.42826462,-0.67109144,-0.26828787,-0.20378853,-0.30779788,0.008541576,-0.16991249,-0.084539376,-0.33164036,0.44557655,0.07897466,-0.5083989,-0.14447908,0.42550015,0.42342457,-0.27039254,-0.8110205,0.11975011,-0.43748516,-0.09414999,-0.43305048,0.52358407,0.055617496,-0.093349025,-0.26670486,-0.024709105,-0.36495748,0.038887944,0.023330934,0.14931247,-0.08027794,-0.2747585,-0.5088016,0.034126714,-0.06354005,-0.17331609,0.047600728,-0.1834357,0.16500784,-0.08983678,0.09306352,-0.89967656,-0.16350064,-0.16575515,0.048106752,0.075584576,0.21593386,0.50092864,-0.053571526,0.1680622,0.044259537,0.080106676,0.15007538,-0.15540752,0.16583405,0.3516293,0.27718723,0.22960159,-0.44132727,-0.12040765,-0.2927087
-0.01787943,-0.8589673,-0.13350447,-0.18647876,-0.20456116,0.2970065,-0.10724632,-0.01751435,-0.34528393,-0.08729329,0.13379474,-0.12576863,-0.37293664,0.053546667,-0.66757566,0.18741325,-0.4809507,-0.007822121,-0.16093878,0.16905896,-0.06908075,-0.24218132,0.53887373,-0.031716485,-0.12820444,-0.16440447,-0.15788284,0.02985716,-0.06874818,-0.46854258,0.070287116,-0.30214244,0.3529618,0.11205922,-0.33847192,-0.048306335,0.15073377,-0.16133843,-0.032031044,0.06411589,0.039826483,0.24452184,0.4655935,-0.2182359,0.006366668,-0.15642652,0.114187114,0.05583797,-0.34211406,-0.01325531,-0.36338776,-0.014970055,0.027167562,0.10575139,-0.34199485,-0.3921218,-0.09205901,-0.12240704,0.12025716,-0.62579197,0.41834372,0.14319384,-0.22798751,-0.02591923
0.06732327,0.042688396,-0.018800516,-0.21516123,-0.040829413,-0.26987404,-0.024995193,-0.05225299,-0.1458086,-0.011791718,-0.42661896,-0.47130904,-0.7756213,-0.08975384,-0.41431096,0.04461303,0.0004732404,-0.25248814,-0.052138142,-0.26754665,-0.36367908,-0.182245,0.10975966,-0.030422008,-0.116046585,0.0728969,-0.21934238,-0.14453505,-0.14363788,0.2710153,-0.28955647,-0.014367722,-0.12824686,-0.07289133,-0.388213,-0.5123928,0.019617448,-0.24251343,-0.21402024,-0.032174006,0.06563056,-0.18848704,-0.40870088,0.08231997,-0.008352822,-0.4032972,0.40602103,0.15338568,-0.0030869402,0.024167165,0.36175093,0.047816798,0.060887143,-0.4180258,-0.6695081,-0.4012125,-0.17387259,0.0913416,-0.105408564,-0.18251757,0.033859078,-0.27229854,-0.194633,-0.2757198
0.21993159,-0.23362477,-0.30973995,-0.0027598506,0.41873065,0.41648903,0.14293534,0.013415642,-0.079055905,-0.18560202,0.16671328,-0.4718283,-0.06333369,-0.029695489,-0.36789945,-0.028206844,0.18847254,0.34167707,0.09648919,-0.52476263,0.038793407,-0.32203832,0.25787538,0.07339803,0.22359566,0.02801129,0.24680673,0.039411347,-0.06320621,0.18251109,-0.078764796,0.0810722,-0.30119675,0.10730677,0.3338417,-0.28918242,-0.3119435,-0.7182063,0.16651289,-0.6012112,-0.010370801,-0.077609144,0.05091886,0.10586593,-0.033611983,-0.018316677,-0.10173917,-0.1965497,-0.12587897,0.054811094,-0.21038267,0.033638973,-0.11441155,0.1587346,-0.5329571,-0.10316048,0.3166314,-0.23206195,-0.16083194,0.002836174,0.20771782,-0.3379669,-0.006769498,-0.18421638