-0.3665849,0.55676657,-0.3617395,-0.5423708,-0.087297365,0.122103475,0.39943665,-0.4661454,-0.07878947,0.08355533,-0.12871954,0.019816192,-0.21518955,0.27130416,-0.21076415,-0.42710006,0.26946723,0.5404237,-0.6130044,0.24448286,0.21555407,0.17994504,0.42041358,0.23250416,0.14264072,-0.17717907,-0.14198148,0.04329136,-0.3670359,0.068729594,-0.9889363,0.021089226,-0.11794311,0.00059000135,-0.1374767,-0.0034707268,-0.15007038,-0.28983173,0.057581753,0.21675162,0.14219715,0.089416824,0.044152964,0.22853707,-0.1858922,0.097287044,-0.17519583,0.14479579,-0.13145374,0.031823307,-0.17893136,-0.45382863,0.4683478,-0.58905554,0.021054985,-0.41450232,-0.26267347,-0.017335668,-0.11750091,0.19336875,-0.383087,-0.17086038,0.15850659,0.20865123
0.12145132,-0.6167915,-0.04617198,0.077372536,-0.018699568,0.09446542,0.12747279,0.17774907,-0.20173822,0.21790974,0.09096476,0.16573153,0.49104676,-0.2186147,0.24406444,0.41405863,-0.1964362,-0.063169464,0.015804328,-0.36420426,-0.14013322,0.32075572,-0.015909476,-0.595605,0.32991007,0.10277199,0.05548182,0.15928383,0.27437013,0.30932206,-0.7107409,0.09868419,0.22679551,-0.9028719,-0.07553369,0.13585195,0.1281832,0.27377486,0.11580205,0.18248399,0.061605908,-0.170039,-0.22115813,0.16019572,0.028549364,0.03827708,0.20566212,-0.15952614,0.08016446,-0.45391867,0.38627428,0.038783465,0.035497166,-0.7879629,0.1601662,0.069710046,0.217166,0.010417991,-0.057940215,0.1630168,-0.09742487,0.2355602,-0.18205726,0.045579948
-0.27077731,-0.34207222,-0.22924626,0.19872667,-0.026886279,0.18674186,-0.4296644,0.24610864,-0.3361539,0.30504045,0.054326754,-0.122175395,-0.3567076,-0.12080913,-0.38057274,-0.20626736,-0.06850065,0.05729902,0.19494775,-0.31691974,0.0423249,0.09174791,-0.21751083,0.29377738,0.12373824,-0.012344924,0.21600994,-0.14833924,0.1507855,0.092713684,-0.24658227,-0.04356522,0.37618056,-0.033658102,0.27395752,-0.09850481,0.08380873,0.0052551036,0.4147466,-0.17465022,0.12828298,-0.2333379,-0.32626954,-0.24792793,0.14055485,-0.1273614,-0.14121047,-0.12720928,0.12011065,0.4347641,-0.29611513,-0.7298671,-0.33942458,-0.14142574,0.13200481,-0.23373827,-0.077484876,0.1455599,-0.2564658,0.1530587,0.31542826,-0.7650861,-0.20632252,-0.50855315
0.3658345,0.011572171,-0.03079329,0.5821765,-0.13616578,0.25696996,-0.30630162,0.1915017,0.30644888,0.1989361,-0.31760234,-0.62338454,-0.48968327,0.07257957,-0.21689335,0.45989865,-0.03202988,0.71901125,-0.18720883,-0.23347664,-0.33369014,0.07940225,-0.46528628,0.70491815,0.7377554,-0.029032767,0.08920217,-0.20857443,0.13934916,0.30203077,-0.33606818,-0.14078131,0.6697691,-0.2496393,0.3644192,-0.07574164,-0.33516642,0.50547445,0.7391098,-0.11860562,0.38307947,0.29593435,0.11047826,0.038941458,0.68934184,0.03552011,0.52750903,0.7336164,0.3290064,0.67465824,-0.14643015,-0.26607093,-0.628606,-0.26641867,0.03963142,0.3962881,0.55602527,0.6949266,-0.69911015,0.37256593,-0.3687289,-0.018651988,-0.15101688,-0.23267823
0.048591822,-0.12366866,-0.15217847,-0.06050078,-0.14428201,-0.16410843,0.21914926,0.18411678,0.22013067,-0.08771931,0.14706472,-0.111288376,-0.2727662,0.042020373,-0.097043596,-0.27931437,0.5223696,-0.2956896,-0.024573304,0.25949025,0.3511834,-0.5041283,0.3408105,0.32178533,-0.4298589,0.12522177,0.42418283,-0.14047359,-0.40108895,-0.24232042,-0.118773825,-0.4135921,-0.33565626,0.2624311,-0.3130832,0.10323536,-0.08510945,0.21680722,0.2002507,0.32634988,-0.3341383,-0.008762774,-0.08546589,-0.069120415,-0.581026,-0.07433939,-0.34690046,0.18619941,-0.1416778,-0.4045533,-0.3081691,0.11515701,0.28124827,0.07790739,-0.049174514,-0.08425734,-0.18171865,-0.501066,0.10109581,-0.22714089,0.08438948,-0.24622832,-0.004104887,0.27305654
0.2943217,0.1476889,-0.42495438,-0.8763905,0.028608346,-0.4267032,-0.013832991,-0.63012475,0.4801834,-0.34869248,-0.049424697,-0.18369037,-0.4050325,0.18489125,0.06331265,0.26203468,-0.5652404,0.22225155,-0.33638155,-0.78444093,-0.5804816,0.6415044,-0.026778337,-0.41724718,0.47070333,0.06674511,-0.66064894,0.02961351,0.37881017,0.42355558,-0.6193974,0.5977425,-0.03832775,-0.12213314,-0.6057965,0.46820313,0.6886737,0.30661327,0.025648521,-0.6743255,-0.016778719,-0.079099014,0.10497293,-0.360674,-0.694149,-0.00031484448,0.41270322,-0.20555918,-0.06420816,-0.32507682,-0.12236751,-0.55589545,-0.14623751,-0.3523335,-0.12180877,-0.11256114,0.5776941,0.727848,-0.03572648,0.124133535,-0.28326085,0.013555287,-0.41156986,-0.5777786
0.24381799,0.55556154,0.11413488,-0.23864082,-0.35494104,-0.050535556,0.08030181,-0.33421904,0.029311558,0.13271882,0.03843897,0.45873678,0.31223682,0.17776053,0.19374378,-0.035828628,0.056909576,-0.06192562,-0.47534934,0.01500219,-0.67766005,-0.52036923,0.25870478,0.15438394,0.22566909,-0.101428986,0.19806723,-0.18533051,0.014600603,-0.273171,0.30495813,-0.29359618,0.29338405,-0.27010593,0.18051194,-0.047550563,-0.047155693,0.16426057,0.14628926,-0.5452322,0.23608087,-0.005620881,-0.045584403,0.25237426,0.11687562,-0.8485149,0.32862055,-0.1304828,0.17166628,-0.058521748,-0.35559613,-0.7625194,0.040734123,-0.5327146,-0.15180148,0.26589537,0.07893053,0.017070586,-0.056218952,0.43591443,0.03033444,-0.2410408,0.014821046,0.38889772
0.058055297,0.3004924,0.4266175,0.054838028,0.19182134,0.07817219,-0.29574823,0.36199695,-0.3266398,0.23390715,-0.25791505,-0.8544652,-0.6876767,-0.16871795,-0.42384046,0.39360994,0.13546173,0.11676036,-0.3557309,0.08039124,0.42669365,0.038616855,-0.040872876,0.4825175,0.13532576,-0.6880564,0.33341068,-0.18910235,0.124234185,0.2165285,-0.45275,0.021145834,0.10545818,0.26633927,0.44896036,-0.6836688,-0.27570683,-0.36683255,0.10819326,-0.3015877,0.48497993,-0.30186978,-0.2493941,0.4909897,0.3982063,-0.9502029,0.03577673,0.5216422,0.37729847,0.6217801,-0.7563612,-0.5499431,-0.42780066,-0.37392431,0.14543347,-0.80770963,0.15731783,0.3492347,-0.5552311,0.42798883,-0.1245375,-0.70475525,0.5629798,-1.056936
0.13405265,0.13498959,-0.42335975,0.4138555,0.05464577,-0.24128643,-0.3308873,0.38374302,0.047879275,0.015362555,0.11624243,0.21850416,-0.18840408,-0.050200254,-0.06702223,0.06896157,-0.41273177,0.012581396,-0.038560998,-0.18610872,-0.41043943,0.27790838,-0.57028675,-0.54722077,0.2067674,0.28738296,-0.2056863,-0.27366626,0.07739986,0.018779429,0.09892389,0.19641082,0.2228946,-0.13567339,0.3135144,0.029711083,0.030198008,0.14012247,0.52674025,0.15010527,0.06287683,0.09309061,0.16841602,-0.30986354,-0.35677373,-0.09231834,0.0561122,-0.47527227,-0.042324945,-0.5339861,-0.32831922,-0.031122442,-0.26087666,-0.17562078,-0.06754585,0.25094742,-0.23520066,0.012128045,-0.3990567,-0.13050024,-0.20475325,-0.19469664,-0.2720937,0.21492366
0.060687993,-0.43920055,0.33010295,0.09523645,0.14476664,0.4708157,-0.2777123,0.2114104,-0.14502822,0.15880893,0.39302358,-0.26879156,0.77869236,0.039970238,0.11779817,-0.5431972,0.12566002,-0.31913224,0.46458048,0.4228745,0.3858202,-0.46972135,-0.030437933,0.38986188,0.031150999,0.02496421,0.5318937,0.116904594,-0.44522712,0.1155177,0.39262852,-0.22406851,0.049856678,-0.010203171,0.24536814,-0.055263933,-0.036264196,-0.6564873,0.114615895,-0.0065176105,0.01806844,-0.12482166,0.5890575,0.0695175,-0.20493925,0.83908266,-0.35114375,0.05742401,0.1470049,0.20763704,0.7564772,0.2904553,0.010488117,0.5004481,-0.16181296,-0.053913657,0.025620436,-0.25857446,0.05643406,0.16249824,0.3410945,0.44128528,0.0111744255,0.3264342
-0.19574152,-0.036763765,-0.70761925,0.067332104,0.18165988,-0.22076556,0.08559169,0.21055338,-0.17156242,-0.5194381,0.16820365,0.24518895,-0.03803781,0.3236034,0.40337378,-0.05132229,0.026112517,-0.21113624,0.40217665,-0.22306614,-0.01629988,-0.2316368,0.119429834,-0.46125346,0.04658567,0.11234809,0.07077102,-0.15611708,-0.117920734,0.056893602,0.5945113,0.13056086,-0.41432354,-0.14899588,-0.43918452,0.25617608,-0.38134557,-0.073076844,0.13638447,0.09847356,-0.38097268,0.11753214,0.43825942,-0.47581103,0.13170187,0.22504757,0.027213616,-0.29677945,-0.54311943,-0.12329075,0.14124407,0.002091359,0.3094597,0.13658108,-0.08389321,0.08363967,-0.19406433,-0.21166664,0.3011607,-0.35693017,0.35719275,0.28978243,-0.11071334,0.42289892
-0.19683808,0.6561237,0.50870055,0.14097315,-0.040212706,0.0808056,-0.035875335,0.17360476,0.1901448,0.6465533,-0.3812818,-0.38079014,0.07630759,0.030942107,-0.18046436,0.23478667,-0.16185951,-0.26374787,-0.16645914,0.039294124,0.11216973,-0.2736611,-0.17603813,0.25608844,0.43251652,-0.07738218,0.34084284,0.006784017,0.20978843,-0.18411505,0.27526715,0.40093717,0.60711473,0.045621525,0.2726849,0.05338736,0.034501307,0.10968798,0.06308219,-0.46741128,0.25642702,-0.35720125,-0.30065668,0.6656,0.29411095,-0.14507255,-0.09295554,0.2880588,0.23213454,0.4677218,0.040832154,0.059139352,-0.01484874,-0.4619775,-0.02760761,-0.13946344,0.012057796,0.1754339,0.1384589,0.39697903,-0.18986426,-0.22079843,0.40037134,0.18151703
-0.39826196,-0.35298258,0.65151906,-0.009892083,0.28329533,0.22354905,0.26768044,0.32465822,0.38978648,-0.07878539,0.15839306,-0.022212058,0.04377843,0.34453657,0.2052173,0.2197574,-0.065941736,0.12260961,0.1925477,0.28353772,-0.041930605,0.2228211,0.2898944,-0.08463835,0.306064,0.07757568,0.062952556,-0.16926725,0.21729538,0.1407716,-0.5473348,0.4920361,0.41686913,0.24317126,-0.52714026,0.29198667,0.5355609,-0.06695305,0.0687122,0.18598989,0.15834147,0.24146768,0.24716945,0.19310354,-0.12045155,0.07254561,0.3168388,0.26039132,0.24827541,0.06554415,0.030222839,0.18268296,-0.11210066,-0.45128947,0.24941184,-0.023394814,0.27290142,0.27371296,0.1367111,0.30519706,-0.18179128,0.28054473,-0.18236236,0.21888638
-0.13863936,-0.8381058,-0.020708727,0.44621956,0.1875184,0.053332433,-0.49472702,0.2624485,-0.29367763,0.12679663,0.10000632,-0.06258391,-0.43845552,-0.07620121,-0.1316073,-0.28256083,0.094130374,-0.13334239,0.341939,-0.00640671,-0.0014586323,-0.10957442,-0.25009966,0.3262646,-0.22177301,-0.100533396,0.41400903,0.15055025,-0.47443444,-0.16950269,-0.3650542,-0.0026633912,0.12755518,-0.15525717,0.37255394,-0.6286879,-0.51555324,-0.40104324,-0.11087552,0.02713981,-0.06042243,-0.14340034,-0.121675014,0.24973136,-0.0067108893,0.19358072,-0.4463878,0.08831733,0.3777908,0.19010822,0.3942287,-0.18099153,-0.8270855,0.27613172,-0.06922021,-0.51408255,-0.7409684,-0.043638796,0.029639276,-0.25866818,0.28911608,-0.45111394,-0.053255763,-0.24980888
0.055189647,0.30151913,0.45718336,0.50302523,0.09888248,0.13531658,-0.33681124,-0.12975033,0.15302114,-0.18447332,-0.17861193,-0.10978557,0.14558217,0.22653972,-0.07208441,0.31394047,-0.5414875,-0.15393189,0.22253174,-0.46451735,-0.31210756,-0.100562125,-0.19973834,-0.26667523,-0.078616075,0.076154254,-0.094212875,0.0032268998,-0.14345038,-0.20858029,0.07638819,-0.011616303,-0.12519899,0.14478582,0.33202887,-0.0034189408,0.28620514,0.21405348,0.069769695,0.07902606,0.27164695,0.055382673,-0.19903682,-0.025345348,0.24034475,-0.5466487,0.18317941,-0.17066507,-0.47915715,-0.017687839,-0.75022155,-0.41961062,-0.2626165,0.17295851,0.0073236735,-0.1605933,0.078632355,-0.20807493,-0.4345668,-0.27246758,0.15652406,-0.8207023,0.086881705,-0.42918321
0.40383515,-0.31645495,-0.3969776,0.53273034,0.1249077,-0.15958777,-0.24872483,0.18215105,-0.28546476,0.057558715,0.26575354,0.13693324,-0.23377466,0.17934225,0.09029745,-0.0363565,-0.23094092,0.0053415536,0.167057,-0.68337756,-0.25383258,0.20787995,-0.2861366,-0.2845585,-0.17276847,0.17086866,-0.10332383,-0.09082892,-0.0650893,-0.09633644,-0.17829187,0.052348435,0.010478664,-0.62803924,0.1816937,0.053105522,-0.27134472,0.21899657,0.09477421,0.31765768,-0.21987896,-0.1864959,-0.13064063,-0.34375983,-0.5429373,-0.15563938,-0.16730644,-0.050495874,0.2766222,-0.41522577,-0.08390493,0.20569658,-0.3569852,-0.076698236,-0.3239519,0.30915862,0.095057316,0.21306494,-0.39790192,-0.11422981,0.34231094,0.045746334,-0.04159488,0.1385758
0.114251286,-0.09691684,-0.40468016,-0.22965257,0.01702246,-0.03251118,0.08044716,0.07427568,0.28956798,0.011197611,-0.44854537,-0.60095626,-0.16639724,0.56513625,0.17623414,-0.15893424,-0.41163516,-0.0019227249,-0.19792439,-0.59048134,-0.19393161,0.30633107,-0.22819206,-0.016593821,0.28015745,-0.061421033,-0.3983505,0.06700758,-0.28457972,-0.011527812,-1.0454208,-0.026517915,-0.12122579,0.74239635,-0.24667105,0.011022179,0.15534824,0.29842782,0.15474413,0.1566598,0.22327982,0.25038788,0.36053377,0.02016877,-0.8572151,-0.6268591,0.17891267,-0.28928807,0.0059172306,-0.50794625,-0.58651793,-0.85380816,0.04620703,-0.8242395,0.33549115,0.017266987,-0.17760089,0.14807034,0.033476226,-0.14891377,-0.7484571,-0.5876172,0.03779826,-0.6713922
0.18947588,-0.19752143,-0.54090106,0.50067896,-0.12686479,0.038110483,-0.2573091,0.4780485,-0.07023332,0.22595382,-0.2505288,-0.44700584,-0.35722256,0.03637501,0.19744729,0.11088209,-0.46210706,0.15997396,0.042840783,-0.9384268,0.28300634,-0.044799764,-0.99367183,0.062332038,0.67730045,0.010019729,-0.2268954,-0.14043982,0.14153406,0.1013924,-0.30854958,-0.15829045,0.501704,-0.4895964,0.29774663,-0.116484754,-0.1818468,-0.09523004,0.030754931,0.02863869,0.5429824,-0.021433707,-0.09707279,-0.2326305,-0.17975551,0.10236894,0.48653618,-0.12747431,0.5144046,0.3629149,0.26845267,0.35780913,-0.68204486,0.2486895,-0.05735769,0.3927682,0.031452816,0.2949469,0.008929592,-0.3939023,0.09488689,-0.02489128,-0.23505394,-0.37687534
0.35806096,-1.186117,-0.24729863,0.4882983,-0.020513482,-0.1978824,-0.35005274,0.7211635,-0.41193965,0.2046557,-0.42172828,0.42865098,0.48094115,0.4429114,0.3574383,-0.033186518,-0.2981837,0.43380484,0.09808616,-0.57537735,-0.17955516,-0.43052164,-0.26041856,-0.2686996,0.31080016,0.44061124,-0.5975104,-0.13643445,-0.13297573,-0.3631259,-0.34229833,-0.3082828,0.35853347,-0.57527894,-0.004931354,-0.087404184,-0.35039586,-0.20249899,0.19351363,-0.065841675,-0.024427306,-0.14025268,0.5012888,0.10476492,0.54579055,0.022166707,0.03866857,-0.41730654,0.21570842,-0.56918544,0.40286663,0.33524883,-0.41296223,-0.27875492,0.015898792,0.19003826,-0.078238994,0.106236085,0.3132811,-0.0012119046,0.11984557,0.18777578,-0.40364483,0.34331274
-0.2662736,0.113034464,0.14304018,-0.07731578,0.12321108,0.18143527,0.16411078,0.02809354,0.25372377,0.13599838,-0.19560267,-0.55150425,-0.29350013,0.27262935,-0.42609203,0.11330431,0.17724825,0.3158662,-0.36554486,0.18806234,-0.24634236,-0.17137963,-0.038667496,0.19903456,0.14256293,-0.31392315,-0.250585,-0.01913803,0.17290069,0.12358843,-0.2171149,0.16900487,0.3116862,0.0030381589,-0.22316946,0.10484754,-0.06590001,0.07685306,0.07666108,-0.3128062,0.00042813574,0.0021145453,0.04225533,0.44876888,-0.12177699,-0.0073642256,0.047184065,-0.06905665,0.04537664,0.1306043,-0.13646705,-0.16593605,0.23580982,-0.16457275,-0.26707047,-0.028734569,0.28359738,-0.077208765,-0.32016167,0.32937396,-0.44391546,-0.303499,0.08263417,-0.111789115
-0.030785697,-0.5233518,0.014012173,0.10039398,-0.22780111,-0.22907498,0.3415009,0.2096628,0.13848008,0.014121188,-0.41504243,0.026789062,0.24491712,0.36575335,-0.123824574,-0.5972096,-0.13197356,-0.12592158,0.5287926,0.31679884,0.019156808,-0.13459788,0.06697325,0.35823324,-0.22792342,-0.22519808,-0.33761722,-0.17207676,-0.30153537,0.07401325,0.047207404,-0.16388473,0.13167183,0.10012114,0.19550596,-0.009216154,-0.1126361,0.0373579,-0.12188385,0.18663508,0.044621967,-0.56965107,0.0047995765,0.3874141,0.06902182,0.4981063,-0.2879915,0.27714202,0.18667725,0.27765656,-0.055920888,0.35025176,0.27440584,0.30802438,0.06261305,-0.13676535,-0.63643616,-0.64490074,0.040415004,0.17281383,0.16524093,0.2507207,0.4705414,0.13919489
-0.17565636,0.13110712,-0.0068049133,-0.035500754,0.015367893,-0.051192,-0.14846765,-0.22267067,-0.29050234,0.08157389,0.10194794,0.3325887,-0.43256202,-0.17058523,-0.004046669,0.3280977,-0.18644862,-0.41792193,-0.3092028,-0.13573325,-0.12434845,-0.14633454,0.20514807,-0.1114277,0.23876563,0.07451805,0.09477188,-0.25287086,0.2525816,0.060094148,0.14384773,-0.043482218,-0.15049772,-0.10156652,-0.11818791,-0.18716107,-0.14758343,-0.38255545,-0.25828332,-0.8173455,0.260829,-0.006668692,-0.07864583,0.16573058,0.17510353,-0.61141396,0.04713345,-0.2598228,-0.11092462,0.08163136,-0.24502239,-0.13082415,-0.22511075,-0.19084264,-0.06830485,0.039824184,0.13884369,-0.12867127,0.46927392,0.24477178,-0.093341805,-0.35691586,-0.026895015,-0.17891462
-0.120520815,0.21842673,-0.1291433,0.11921451,-0.13574888,-0.20272797,-0.12432673,-0.48742646,-0.19487953,-0.3022142,0.1033988,0.3764389,-0.11350013,0.15354624,-0.19963413,0.040913265,-0.09099339,-0.24617328,0.15737832,0.118392386,-0.07327653,0.20441516,-0.07152523,0.12618813,0.14902589,-0.14736341,0.2864239,-0.18397027,0.20321943,0.20037222,0.27796978,0.38286796,-0.23726183,0.19905649,-0.043310624,-0.24492185,0.013236544,-0.007993489,0.13885319,-0.42629668,0.3178701,0.022903897,-0.017353522,0.21533024,0.06126239,-0.400838,0.25319496,0.070107326,-0.3821766,-0.09879042,-0.91556925,-0.5735973,-0.09206448,0.14214599,0.05263436,-0.17733498,-0.038410623,0.09314755,-0.4314507,0.54473376,-0.24398598,-0.9666961,0.20536676,-0.12091468
0.24342893,0.13071908,0.44223762,-0.048066996,-0.24529114,-0.12748744,0.27008545,-0.36369684,0.33914244,-1.1605111,-0.20828106,-0.010669184,0.020355443,0.7842419,0.4660063,-0.08673124,0.29589203,-0.15232813,0.035492145,0.28725278,0.06688726,-0.13382114,0.211779,0.054106582,-0.11197634,-0.029822959,-0.29177102,-0.1798611,0.17119427,0.2538049,-0.020395663,0.15038852,-0.20681982,0.46840888,-0.6632839,0.39220667,-0.010637896,0.044558786,-0.079214886,-0.18825912,-0.1288386,0.11359405,0.38118625,-0.25296867,-0.044637848,0.15673117,0.251704,-0.10723578,-0.18721765,-0.36274588,0.3233956,0.12319938,0.23495004,0.0068708486,0.13555564,0.24833778,-0.065505266,0.1753345,0.06494299,-0.2871857,0.09738274,0.38800687,-0.12838538,0.11232192
0.06881823,-0.14220555,-0.6122253,0.86749774,-0.28510773,0.16508085,-0.46732414,0.59948856,0.021611182,0.3137147,-0.022058338,-0.5293374,-0.00081244524,-0.3045616,-0.23413815,-0.09764268,-0.6323068,0.20723914,0.5953982,-0.20626123,0.048442177,0.3634403,-0.3602571,-0.47730452,0.054771133,-0.022781823,0.08437669,0.018854307,-0.12269822,0.20984735,-0.09707719,-0.065597445,0.38411272,-0.043583333,0.71841013,0.15762544,-0.29349843,-0.49401042,0.056375276,0.11409492,0.44892237,0.2549069,0.05517621,-0.12309524,-0.22949788,0.28748703,-0.2682632,-0.32442182,0.45765656,0.2236319,0.24235652,0.3395193,-0.4424706,0.30438417,-0.12202477,0.18912667,0.33969396,0.002812089,0.13109984,0.12463463,0.6044921,0.39338174,-0.15808074,-0.01867222
-0.104547344,-0.71816707,0.0918315,0.17177466,0.17351502,-0.06474806,0.26965782,0.20349848,0.29331326,0.08519674,-0.22085446,-0.06868788,-0.3193189,0.08869515,-0.29343545,0.21438552,-0.04219984,0.13894005,-0.014771719,0.1188432,-0.037540052,-0.0608853,0.055996805,-0.0026403216,-0.031688564,-0.20517568,0.023323625,-0.17810902,0.3153473,-0.12910083,-0.3545195,-0.018768547,0.13599397,0.19568858,-0.12844084,-0.06789247,0.3621158,-0.36832094,-0.36116612,0.07685043,0.25896427,0.15150857,0.032661136,-0.060293913,-0.11180089,-0.10830897,0.3226429,0.24346285,-0.018347068,-0.050978065,-0.004638302,-0.017695332,0.25017405,-0.09793994,0.08312558,-0.14165935,-0.06210269,-0.26848188,0.32656398,0.2718121,0.02041085,-0.15602934,0.15396035,-0.5966148
0.34818766,0.24867837,0.5303286,-0.030180685,0.09949791,-0.2790237,0.30187973,-0.5776884,0.68436414,-0.97589505,-0.64536947,0.15456083,0.10673515,0.81005,0.59658384,0.25770944,0.23681135,0.56870526,-0.71320486,0.53968704,-0.084864646,0.6434488,0.6863845,0.279861,-0.14594123,0.31274158,-0.49698693,0.039530672,0.5993599,0.64738965,0.071776755,0.37637827,-0.27170962,0.53064895,-0.92928207,0.33548477,0.5765127,0.47366598,0.50492835,-0.26633134,0.0060850005,0.28700107,0.63665533,-0.38678333,0.077482395,-0.07865717,0.6331818,0.10678234,0.049884804,-0.7977118,-0.047539145,-0.5878631,0.1497106,-0.15309443,-0.0390929,0.39972442,0.1835505,0.1527732,0.14237122,-0.15123186,-0.5823966,-0.41566586,-0.19009852,0.2415212
0.10054927,-0.38099012,0.20270722,-0.06148697,0.06663122,-0.023749115,0.47605386,-0.072346486,0.16989508,-0.39844394,0.20681264,-0.0067770835,-0.27247405,0.048312917,-0.012506921,-0.12267671,0.2841125,0.07126612,0.29597065,0.15893055,0.5783139,-0.3029465,0.26653153,0.19861092,-0.4209556,0.06276107,0.09384228,-0.24867219,-0.003612851,-0.033174764,0.17335267,-0.11634903,-0.52161574,0.18831469,-0.11887149,0.25769132,-0.08946252,0.0386308,-0.022046868,0.20599584,-0.23965475,-0.47692758,0.038009737,-0.12892799,-0.11249145,-0.1352309,-0.23762529,0.2974746,-0.13736047,0.19377135,0.079999916,0.031876497,0.14418395,0.19952483,-0.06547799,0.12247477,-0.029067528,0.088705696,0.17237683,-0.057956927,0.027575389,0.17354651,0.2917484,0.27979663
0.37306046,-0.40212345,-0.042096067,0.15217002,-0.11952126,0.11083048,-0.14175725,0.16080633,-0.004228225,0.17681715,-0.11967688,-0.2283994,0.06966321,-0.27858877,0.019808441,0.19762753,-0.4839014,0.11898454,0.11668668,-0.33932796,-0.25579256,0.20479687,-0.047552753,-0.6580217,0.040471375,0.15500005,-0.33290902,0.193607,0.24302022,0.09850063,-0.24705473,0.049357142,-0.115987435,-0.37519434,0.05388905,0.056166228,-0.33557138,-0.06385462,0.14327632,0.3613376,0.0479473,0.08947028,0.32452303,-0.17100357,-0.031238629,0.18252833,0.068087965,0.092256606,0.28296688,-0.59435177,0.3557056,0.42708373,-0.028519584,-0.026271334,-0.086996794,0.08207925,0.3889263,0.07109681,0.007963732,0.13488342,0.10765182,0.3826093,-0.102860585,-0.062038105
-0.20443803,0.06904498,-0.21957675,0.2598393,0.08004495,0.18511744,-0.030820193,0.40863445,-0.2217588,0.18341017,-0.24801499,0.10904128,0.21420376,-0.41861,-0.27200902,-0.06755474,-0.7582097,-0.05088337,0.09550928,-0.42737174,0.4221226,-0.19646378,-0.06835257,0.22915672,0.26719588,-0.4354925,0.30248272,-0.15701543,0.024386832,-0.15736222,0.48039407,-0.14922076,0.32716843,-0.08647231,0.17223069,-0.02993692,-0.05591925,-0.31440043,0.21564221,0.15233517,0.093192555,-0.19024043,-0.6161167,0.33747962,-0.0938882,0.1434105,-0.085140355,0.30190212,0.3087764,-0.0054093516,-0.001583657,0.27209875,-0.052221533,0.27712637,-0.10603306,0.22929901,-0.33925834,-0.1269963,0.3002423,0.31333092,0.14286667,-0.07013229,0.3119688,-0.2087762
0.08586718,-0.32639238,-0.2176773,0.46010432,-0.06835614,0.11054822,-0.2716742,0.38416046,-0.24679834,0.08960463,0.1442792,0.0986138,0.33365262,-0.24903591,0.23425613,0.06674547,-0.12422333,-0.089617275,0.4885202,-0.18399034,0.17470193,-0.14284493,-0.6299475,-0.07925193,-0.11819571,0.5379015,0.3247013,-0.10003124,0.01581717,-0.02961212,0.31919935,-0.033603583,0.39326644,-0.41822323,0.35420716,-0.080137946,0.01047774,0.32667583,0.5983286,0.48501897,-0.057122696,-0.26324195,0.060939364,-0.14142066,0.17719014,0.7727377,-0.13018824,0.29274452,0.18720634,0.10157357,0.13398051,0.3570457,-0.50151193,0.47084188,-0.2038814,0.16921917,0.10089652,-0.099951856,0.008054231,0.01037535,0.20047133,0.38106465,0.07192794,0.0107753705
-0.21798393,0.032022122,-0.13449126,0.24881998,0.16799244,0.032646876,0.2121281,-0.114734136,0.19776106,0.19369824,-0.03493305,0.25615275,-0.037841115,0.05238075,0.17867044,-0.14879169,0.31676057,0.47280967,0.32444188,0.11037688,0.004354689,-0.10148982,0.2438865,0.25353256,0.118580274,-0.10864134,-0.026714971,0.00052919035,0.12793158,0.20806967,-0.16852194,0.41718993,0.0016149069,0.18934779,0.23390514,0.361365,0.07894285,-0.7336724,-0.1639998,-0.064326406,0.11972565,0.10890472,0.18463147,0.15746953,-0.23827383,-0.045685045,0.1936291,0.20887269,0.14031057,0.24737567,-0.4700159,0.32401544,0.25001124,-0.18100461,-0.06926991,0.09203854,0.31805998,0.34442642,0.6225648,0.28643602,0.40812927,-0.124138385,0.085950255,-0.076227374
-0.4956515,-0.14671932,0.19220306,-0.18679647,-0.08825788,-0.2232441,0.48008296,-0.042697933,0.20540443,-0.6415979,-0.6823754,-0.43144682,-0.26639116,0.34405893,0.18343435,0.50861686,0.41973248,0.3652707,-0.068625405,0.49886638,-0.5468186,-0.25500473,0.63460124,0.22396216,0.08707527,-0.10400836,-0.49762166,0.10867265,0.29997328,-0.2773927,-0.3914962,0.25140795,-0.17222519,0.4540753,-0.48643816,0.25947577,0.25227386,-0.17137395,-0.08606947,-0.18631291,-0.43994808,-0.045235787,-0.21443428,0.178348,0.21944132,-0.27221888,0.2152874,0.21459208,-0.47485805,0.17423156,-0.27020696,0.09469312,0.49049154,-0.48225278,0.07522724,-0.040812716,0.31291565,-0.019813152,-0.15004542,0.39617085,-0.33822054,-0.20878814,0.28601128,0.027264569
0.12970784,0.0066531473,-0.058974937,0.035227098,-0.37184617,-0.42759416,-0.07565079,0.010528199,-0.058753822,-0.18560733,0.20007496,-0.24293053,0.050911717,-0.18854575,0.32213065,0.02953156,-0.010852187,-0.45285484,0.17288141,0.17278744,0.14018807,-0.09013379,0.17174193,0.12709226,-0.0022320717,0.22288592,0.15814397,0.04399655,-0.20598446,0.15815826,-0.3338414,0.12660562,-0.49462014,0.21204932,0.012132124,-0.034746736,0.037765052,-0.34029838,-0.3649833,-0.14333583,-0.014539052,0.15595816,-0.04183021,0.15220314,-0.07526503,-0.018021574,-0.17998698,-0.030777382,0.029658392,0.20668885,0.02891156,-0.05253351,-0.18389353,-0.38733184,0.018593954,0.15448216,-0.05916754,-0.27657402,0.13773496,-0.17561717,0.16914967,-0.1113635,0.21272807,0.19239746
-0.09624806,-0.11395106,-0.40471864,-0.080885775,0.07902534,-0.009192227,-0.14617682,0.055545907,-0.11285237,-0.2554685,-0.14494261,-0.1189368,0.058435563,0.17408869,0.22185862,0.45208484,-0.18322909,-0.2813269,0.07647904,-0.24328774,0.5301758,-0.5373478,-0.21979,0.3290735,-0.0057247933,0.108473286,0.018876724,0.10712251,0.28097746,-0.31634203,-0.24188216,-0.30146524,-0.4614349,0.06308044,-0.3821781,-0.029559629,-0.6206401,0.10195477,0.7036679,0.13878644,-0.4291089,0.37002784,-0.34403816,-0.6000447,0.17212284,0.25565758,0.022975493,-0.105082534,-0.38595992,-0.19667518,0.18278274,0.29481265,-0.25585335,0.07498408,-0.003280931,0.10176899,-0.22579105,0.35517782,0.29787064,-0.4911823,-0.03466213,0.057355218,-0.21356985,0.13946043
0.3411145,0.18026681,-0.7378351,0.38845947,0.06471421,-0.06675693,0.27298385,-0.20489584,0.020650415,-0.28313014,-0.1041798,0.053831447,0.04013907,0.45183772,0.47685215,0.018843004,0.26880628,-0.5539705,-0.072022945,-0.2742264,0.2034606,-0.088760376,-0.1811606,-0.03190288,-0.35889944,0.2933288,0.032244064,0.034077972,-0.2943714,-0.077209696,0.123962715,-0.3755202,-0.78794837,-0.20746101,0.01768444,0.38024408,-0.13469219,0.20883256,-0.17981772,-0.034199446,-0.3204518,0.29000217,0.587777,-0.30205187,0.35836092,-0.07489993,-0.070255026,0.056712624,-0.04783259,-0.007028687,-0.06297339,-0.15146321,0.105027795,0.09727566,-0.041273467,0.43494943,-0.10734383,-0.16951029,0.061287224,-0.86417997,0.21232113,-0.16126288,-0.28315753,-0.07967458
0.1002351,0.2567966,0.011369453,-0.0952621,0.15553918,-0.011242303,0.13001916,0.11075984,0.19100457,0.0775957,-0.083653994,0.01699933,-0.5828091,-0.13334139,-0.14856768,0.050292477,-0.06075907,0.15445048,-0.1401279,0.10243518,-0.27162966,0.074515045,-0.018376786,0.3448437,0.3111442,0.2772968,0.13585119,0.06520226,0.05642492,0.14899187,0.25090706,-0.025847547,0.43624383,0.27546194,0.22802965,0.11443893,0.06808505,-0.29925025,0.35234854,-0.33244842,0.04016491,0.03696889,-0.017343713,0.39093098,0.02675124,-0.5596704,0.0964264,0.27384833,0.032853574,0.28386956,-0.55652344,-0.5890634,-0.15445551,-0.9379588,-0.1708772,-0.1716139,0.03682263,0.019894531,-0.22126997,0.5658163,0.26893565,-0.42407194,-0.15433115,0.05611204
0.17830424,0.103185214,-0.74858576,0.611942,-0.18667695,0.0996483,-0.5037325,0.19102359,0.121693745,0.3886316,0.16254863,-0.22072195,0.20779735,0.27944705,0.09343335,-0.18054837,-0.4827759,-0.583706,0.45094505,-0.25242826,0.07677388,0.18736795,-0.32649666,-0.40506727,0.08662904,0.44022703,0.12870233,-0.1408563,-0.309264,0.14428103,-0.22570322,0.053069822,0.07961844,-0.17547584,0.49844018,0.24395041,0.054056898,0.76445866,0.49898466,-0.034344506,0.24480462,0.23280573,0.30363426,-0.07694184,0.14068381,0.25154027,-0.09602799,-0.30771676,0.38879707,0.14961015,0.17095502,-0.097496465,-0.7129384,0.2243574,-0.20895186,0.13087682,0.15285821,-0.6246153,-0.4562727,-0.07521976,0.32005414,0.18013719,-0.22435692,0.19140668
-0.6738883,0.1821824,0.5461031,-1.1304812,-0.19668831,0.06693615,0.5147108,-0.33434737,-0.08833035,0.121236436,0.65645933,0.32539618,-0.19622865,-0.66899705,-0.92867386,-0.87921095,0.6737724,-0.089662515,0.2362011,1.0026731,0.9297942,-0.31750107,0.47775185,0.47696802,-1.0834559,-0.1139558,0.27595374,-0.017813573,-0.6030853,-0.59836066,0.6732829,-0.50997645,-0.40234566,0.03559715,-0.4542976,-0.58632606,-0.315033,-0.37071577,-0.38068423,0.5919917,-0.7671823,-0.5287096,-0.5735916,-0.21707442,0.15287673,0.2653194,-0.5987156,0.38605025,-0.42064357,-0.08847726,0.0678976,0.83848023,0.5381008,1.1340077,-0.043644216,0.0035915412,-0.46930668,-0.7642354,-0.26894626,0.7946613,0.8061398,-0.24186687,0.06733217,0.5700459
-0.13680646,0.3621253,0.43019423,-0.3813724,0.07242466,-0.25637564,0.015031054,-0.6650394,0.5899969,-0.69261587,-0.16240086,-0.08996058,-0.17111617,0.48025063,0.40938088,0.3014127,0.41960117,-0.17973799,-0.3235813,0.35874727,-0.07967505,0.5059259,0.028253756,0.08978263,0.06113769,0.27183306,-0.38777304,0.07703837,0.14207041,0.39171284,0.24959594,0.33616325,-0.5545646,0.12430358,-0.456353,-0.050941564,0.48517776,0.36673748,-0.029449489,-0.21340276,-0.2914803,0.12533225,0.099875346,-0.1752282,0.4336406,0.029817766,0.30075422,0.11959003,0.09767952,-0.29899865,0.018907927,-0.4307832,0.023741968,-0.018837541,-0.015973167,0.42619833,0.61117226,-0.1275128,-0.0037792288,0.3010719,-0.1805843,-0.22602023,-0.075121954,0.21255097
0.030092172,0.11208574,-0.5752334,0.43435654,-0.23975812,0.027406355,0.047856156,0.07798948,0.05250442,0.1776898,0.107125394,-0.058170967,0.2268065,0.06228189,0.15443698,0.016082754,0.15850696,-0.35081112,0.4257181,0.20136824,0.2656825,-0.013134996,-0.18139185,0.09169902,-0.35375756,-0.071360625,0.018484022,-0.1261978,-0.56295586,0.014838592,-0.18529746,-0.43745828,-0.09251082,-0.09891119,0.2896737,0.111580364,-0.010781797,0.24724388,0.077048436,0.23784596,0.18796037,0.10811432,0.08323758,-0.09180306,0.113547266,-0.099684685,-0.21576376,-0.22570531,-0.03720584,0.46473402,-0.05754785,0.16847509,0.16868146,-0.07548934,-0.14967592,0.2971376,0.26052293,-0.041409787,0.20194967,-0.29033569,-0.09261638,0.19620733,-0.04413593,0.1822095
0.13986391,-0.2914806,-0.0479779,0.20343688,-0.1509895,-0.1233842,-0.017651733,0.14417908,0.072455175,0.106352344,0.1108011,0.11520276,0.22475226,0.04339028,0.015793316,-0.13131109,-0.29982167,0.16205211,0.1731137,-0.183483,0.037003208,0.022445546,0.066080034,0.12091333,-0.16246264,0.17093454,0.17353901,-0.17105609,0.18434508,-0.053015105,0.13492173,-0.00082635117,-0.048717145,0.08172536,-0.1239175,-0.05685495,0.19943601,0.0045919768,0.049696743,-0.1062262,0.026721861,0.030372905,0.2511529,-0.036271352,-0.09128225,0.091697074,0.2064819,0.05659253,-0.17403583,-0.009924506,-0.15632802,-0.010441464,0.17822677,0.2498695,-0.14482032,-0.08093607,0.15098146,0.107906096,0.17516875,0.03331721,0.010974511,0.050444722,-0.015722694,0.17907761
-0.34162462,0.45432425,0.28353235,0.2277837,-0.1690615,0.14544718,0.06286742,0.012654701,0.31047717,0.3249836,0.07362151,0.073331654,0.0045601698,0.118523784,-0.067050904,-0.4208779,0.15659824,-0.061873697,-0.05817326,0.13820577,0.048850328,-0.25659794,0.104290634,-8.692571e-05,-0.34574464,-0.04391713,0.25893223,-0.045809537,-0.010234873,-0.45885247,-0.14915621,0.0068017296,0.21934949,0.23621725,-0.014951512,0.047317535,0.1926082,-0.37005654,-0.11417855,0.08260285,0.090119235,-0.38405395,-0.031248925,0.24470478,-0.292356,-0.37653735,-0.12662861,0.3008823,0.1484572,-0.010620031,0.081205845,-0.33946675,0.111427166,-0.27591547,0.01907272,-0.037275493,0.04675377,-0.34905416,0.23025785,0.32498446,0.04675027,0.136847,0.28829497,-0.07720801
0.35554132,-0.49006578,0.069116995,-0.20941725,0.21555997,-0.0240864,0.18812548,0.1340046,0.113384545,-0.105186746,-0.26863894,-0.06714061,0.14193329,0.07692892,0.27609056,0.18872845,0.15335032,0.37606904,-0.031503886,0.3469518,-0.41148126,0.21384881,0.22661746,0.06019293,0.18417425,-0.18410285,0.11164864,-0.13062946,0.35850057,0.009857228,-0.76406795,0.30164415,-0.012223881,0.2608514,-0.36171263,0.04894284,0.042640455,-0.23192877,-0.19572705,-0.1988285,0.2625061,0.01983712,0.35690287,0.3078291,-0.36596698,0.18503572,0.17373326,-0.043570627,-0.29710707,-0.005704811,0.30824837,-0.13098206,0.28893828,0.19392978,-0.07446494,0.035099383,0.0760547,0.11609637,0.31385812,0.19585504,0.025414448,0.055108145,-0.13412496,0.04121034
0.16005808,-0.38890174,-0.35149217,-0.0044584796,-0.28628778,-0.09081218,0.100446105,0.34340486,-0.37958157,-0.33189186,0.12001461,0.2655829,0.64089704,0.30665225,0.63032705,-0.22678535,0.0112494035,-0.33730423,0.35178345,-0.087344624,-0.05884606,-0.67254615,-0.10867606,-0.27748737,-0.5710196,0.3174165,0.061332207,0.08774349,-0.25537196,-1.0108694,-0.20167877,-0.54538655,-0.35002026,-0.2191476,-0.14094523,0.18352105,-0.52426124,0.048409205,0.26131558,0.45855552,-0.4118901,-0.23951975,0.25120592,-0.074448,0.20085983,0.079120174,-0.26805595,-0.3006846,-0.48798594,0.22085679,0.46075612,0.35211563,0.20308459,0.04602067,-0.21365409,0.34150293,-0.33227646,-0.12004011,0.37853932,-0.07233522,0.36750895,0.12583938,-0.38646978,0.20915028
0.14750819,-0.45610833,0.07618646,0.16892333,-0.54727477,0.12707074,0.057906616,-0.20387869,-0.21837972,-0.008549152,0.32910275,-0.13137099,-0.22741643,0.03661838,0.23202278,-0.10974355,0.413086,-1.898499,-0.2662515,0.040518288,0.2952205,-1.2279867,-0.34046695,-0.006428748,0.16188808,0.050835587,0.068432055,0.06799538,0.17174628,-0.31377053,-0.3783518,-0.32468066,0.13409634,0.25284475,-0.05648368,-0.2821999,-0.046957094,0.1762929,0.21521157,0.05090874,0.10863041,0.04898204,-0.38416818,-0.0619246,-0.08887291,-0.6726636,0.048893638,0.20794415,-0.26752552,-0.2027061,-0.86673635,-0.0006908006,0.03914747,-0.14285189,-0.045675993,-0.015152212,-0.19513965,0.07525142,-0.15163097,-0.19098787,-0.005051673,-0.8880937,0.2839656,0.028758075
0.03840777,0.1140408,-0.037974693,-0.24637659,-0.1714216,-0.017386798,-0.14770491,-0.33655578,0.24794453,-0.12013931,-0.44672498,-0.37944174,-0.7046939,0.031595692,-0.18494025,-0.42895553,0.11580603,0.23167579,-0.26360673,0.22820373,-0.12512949,0.09885095,-0.3765601,-0.06292023,0.38840526,-0.14848183,0.09436568,-0.25238702,0.27284116,0.20263195,-0.78307855,0.3219151,-0.06874496,0.4267048,0.0072935945,0.11146381,-0.2770707,0.055952597,0.63806576,0.08147895,-0.072880335,0.3507535,0.27410862,0.2114319,-0.32093364,-0.59233385,0.09142042,-0.28550097,0.17239788,-0.37542063,-0.61364704,0.004740308,-0.48482674,-0.31143355,0.1772213,-0.13189435,0.30234194,0.40008488,-0.04816066,0.6238015,-0.50107056,-0.21992454,0.07205748,-0.8864011
0.75239,0.620879,-0.7435913,0.049895655,-0.059427578,0.14440821,-0.11085097,0.23607053,0.059764788,0.23392452,-0.2773972,0.19608952,-0.3461775,0.2843418,0.308493,0.0681761,-0.082845554,0.5958687,-0.8379268,-0.071236834,-0.075766295,0.115347065,0.16653982,0.18194784,0.27270856,0.11943535,-0.535336,-0.24375053,0.2633801,0.31923383,-0.19592156,-0.05706903,0.49334127,0.10862778,0.04572026,0.3096601,-0.41391426,0.08600973,0.18483572,0.0428592,0.11059029,0.558444,0.38638297,-0.17409918,-0.0066316286,-0.22597575,0.12523134,-0.34373498,0.6038424,-0.566018,-0.47381303,-0.8276263,0.10373781,-0.16897625,0.22067577,0.23833677,-0.102550015,0.5058411,0.10938089,0.24828313,-0.59708333,-0.6256167,0.12888166,0.052761342
-0.2894658,-0.014537619,-0.3347572,0.3259822,0.11198252,-0.0471155,-0.08196079,0.2083937,0.25742322,0.018708844,-0.07339003,-0.5141444,-0.29614767,-0.13805726,0.24887304,0.2860564,-0.505304,-0.20137961,0.05959327,-0.53572303,0.054557532,0.19260365,-0.3302711,-0.054159526,0.15483372,-0.14792506,0.19546749,-0.26555073,-0.021401105,0.37176076,-1.1708153,0.24703477,0.29415113,-0.07363971,0.28301033,0.41468176,0.30674598,0.26910895,-0.041405793,0.40026325,0.50303763,0.051458254,0.1200369,0.0062388754,-0.25488946,0.25357062,0.2476759,-0.13785571,0.30894598,0.3250008,0.09800244,0.3574675,-0.12939706,-0.44111013,0.2569411,0.17640813,0.448581,0.096626446,0.07388286,0.3540161,-0.09758752,0.50320023,0.21676783,-0.50559694
-0.01249143,0.037754785,0.14486806,-0.049683996,0.3066892,-0.14411953,0.55037624,-0.08737069,0.2080542,-0.2654265,0.3864045,0.35530722,-0.11448485,0.6176685,0.38528365,-0.062348656,0.17361431,-0.22754171,-0.14943682,0.10250401,-0.07458475,-0.21827874,0.38609815,0.028152674,-0.2385312,0.09082232,-0.08359015,0.107058115,-0.13693744,-0.11966896,-0.039268848,-0.3860822,-0.49841365,0.04034939,-0.29863122,0.26384178,-0.39027366,-0.1293425,-0.3389542,-0.30281067,-0.6023506,-0.17234863,0.31707323,0.076474175,0.032097887,-0.18411958,-0.4197515,-0.11205822,-0.033070862,-0.15326634,0.090613104,-0.08912058,0.14928041,0.42754433,-0.15633793,0.09121445,-0.10384773,-0.48395884,0.2869459,-0.52503484,0.2040219,0.08091604,-0.12525445,0.1332438
-0.117059104,-0.095594235,0.057599604,-0.10330185,-0.08062026,0.17324848,-0.20902172,-0.05129112,-0.4843406,-0.13655312,0.3160038,0.20039709,-0.32663825,-0.42740586,-0.034734815,-0.61115175,-0.31259635,-0.051526334,0.11359179,-0.09304873,0.14060804,-0.34083828,-0.07467959,0.13676593,0.06070515,0.094976865,0.3762096,-0.18565346,-0.6097766,-0.52321273,0.023499807,-0.53412485,-0.028501518,-0.18830854,-0.13217993,-0.4121506,-0.33601984,-0.2966856,0.16472974,-0.719863,-0.09601485,-0.19670506,-0.5032738,-0.13281834,0.30684623,-0.055241313,-0.51403725,-0.18040456,-0.008328716,0.10350845,-0.38912687,-0.66083306,-0.16006537,-0.081226654,0.004264467,0.012004198,-0.5483196,-0.019690637,0.22712252,0.0121633,0.23522787,-0.6047505,-0.26361227,-0.1521888
0.13977578,-0.11086102,-0.35613522,0.060785893,-0.19085291,0.014758365,0.076610066,0.22328241,-0.08908829,0.19077541,0.21813406,0.19329828,0.22770287,-0.37904462,0.09779138,-0.56738234,0.0925004,0.1364607,0.036526844,-0.1461017,0.40604258,-0.20548204,0.19742274,0.056162864,-0.12955333,0.30828932,0.034283698,0.12504229,-0.8401528,-0.14570722,0.042521834,-0.54239357,-0.099263825,-0.2032433,0.19153033,-0.18437807,-0.2567485,-0.21953432,-0.17779626,0.29449657,0.16436379,-0.088714495,0.16213849,0.16943127,0.28805158,0.16163439,-0.8601846,0.21741669,0.03306533,0.44375214,0.094843335,0.24776931,-0.08525173,0.25395873,0.04675817,0.18012692,-0.24582155,-0.5092265,0.09883415,-0.12950721,-0.029645596,0.06680922,0.277777,0.26805574
0.14765717,0.09130675,0.2920091,0.20412388,0.14792907,-0.22228442,-0.051594287,-0.09374062,0.12984689,-0.30375123,0.11597669,0.20566599,0.26131126,0.29773486,0.05559711,0.092044,-0.3967564,-0.2001405,0.31436327,-0.47503883,-0.07389009,-0.076741494,0.042566717,-0.597535,-0.04359091,0.10453292,0.07906781,-0.09849574,0.09607066,-0.20519704,0.27246374,0.289924,-0.10049253,-0.47664604,-0.08935239,0.13861531,-0.13951187,0.23099566,-0.022241818,0.28150183,-0.3452349,-0.124101706,0.019563744,-0.40281922,0.0703327,0.13440126,0.13421847,-0.09778272,-0.043628868,-0.17916155,0.14491522,0.04499071,0.18330656,0.0022780057,0.028094688,-0.21792024,0.12817255,0.082931615,-0.16154146,-0.1429273,-0.08562512,0.15603405,-0.3749134,-0.06727299
-0.12835474,-0.08867151,-0.11134657,0.09013159,-0.16337942,-0.14229365,-0.025899116,-0.138038,-0.15058544,0.2362783,-0.21607414,-0.099132106,0.19779369,-0.20879415,0.118117385,-0.22644275,-0.38615716,0.12456394,0.29182607,-0.32377008,0.19947942,0.06377466,0.05109269,-0.0165078,-0.15781654,-0.18731277,0.083872914,-0.16542743,0.19740035,-0.32604894,0.24011408,0.06876813,0.12791225,0.059712622,0.010383248,-0.0917083,0.19185145,-0.14500438,-0.08170795,-0.21124087,0.2340043,-0.81011796,-0.26075998,0.40017235,-0.083008885,0.23487253,0.090073645,-0.00037835186,0.27783388,0.08887995,-0.07333913,0.4503536,-0.08919737,0.2884351,-0.075553454,-0.27910212,-0.45860323,-0.326267,0.15445766,0.42924032,0.16915247,0.032242097,0.2982644,0.09245727
-0.6680754,-0.43457675,-0.07299152,0.040580325,-0.29550192,-0.035237983,0.42607483,-0.02963105,-0.061962992,0.047864344,-0.0070399838,0.13806799,-0.21194747,0.19580717,-0.22160618,0.1970193,0.18456599,0.003205725,-0.5024742,0.26645094,0.21195287,-0.21693686,0.1757697,-0.13584447,0.20007849,-0.18752412,-0.024353592,-0.048785873,-0.17676917,0.17780277,0.11763254,-0.0971679,0.06993075,0.1961128,-0.067857094,0.17688422,0.21511896,0.050828453,-0.4731665,0.19635764,0.018823123,-0.1591678,-0.13368468,-0.091628924,-0.4945106,0.046721216,0.14125328,0.17460437,0.103843465,-0.24358672,0.115348436,-0.13489808,0.31819138,-0.36729392,0.015012725,-0.25475487,0.17941141,-0.40290523,0.049795613,0.026425406,-0.51285493,-0.22394721,0.36643064,-0.005536481
-0.2934481,-0.57379556,0.19287297,0.24897364,-0.23329425,0.3442505,-0.58519036,0.54480773,-0.35489964,0.39602467,-0.05036764,-0.07505633,-0.5074755,0.1951312,-0.14950287,0.047046967,-0.26157534,-0.3107341,0.51287836,-0.06154281,0.1836756,-0.33628765,-0.31377044,0.013774706,0.09741513,-0.10590887,0.17701769,0.05750882,0.1527449,-0.08624406,-0.1564695,0.0441847,0.496174,-0.0045402837,0.37984434,-0.25645402,-0.15996782,0.062171854,0.100537136,-0.41685387,0.004548359,-0.2434862,-0.111491844,-0.12520568,-0.08665741,-0.28000244,0.26322064,-0.13487323,0.30409944,0.54980934,-0.32149082,-0.9859328,-1.0105836,-0.5013831,-0.120102786,-0.3045815,0.026490364,0.080694035,0.56682014,0.093082756,0.28508794,-0.42993718,0.21377604,-0.49692702
-0.026168345,-0.10668448,-0.15014951,-0.19066775,0.20532806,-0.31978074,0.012892309,-0.0050627287,0.4914434,-0.54565364,-0.082445435,0.11196841,-0.12181552,0.43080282,0.02547102,0.36844793,-0.29334515,-0.01839714,-0.037567608,-0.11781906,-0.09251756,0.33058092,0.04939758,-0.24306735,0.21993434,0.1329581,-0.27682894,-0.19348139,0.31136543,0.41663197,0.2800024,0.0436453,0.14602019,0.5227627,0.012255234,0.42486268,0.14567593,0.2050483,0.17624469,-0.06708151,-0.07807184,0.18026063,0.31184232,0.21238859,-0.08762108,-0.0776345,0.30740008,0.04592628,-0.22328024,-0.522183,-0.14359765,0.06723979,-0.20628552,0.17002982,0.061320342,-0.013550023,0.11949728,0.1519786,-0.041184045,-0.0863343,-0.15811303,-0.072087385,-0.26955518,0.09957355
-0.48915872,0.25195694,-1.0106535,0.06534386,-0.02750393,0.1439552,-0.23605211,0.26028088,0.035124995,0.16724083,-0.39337933,-0.5428019,-0.1486008,-0.094777346,0.17580414,0.09968207,-0.39642322,0.16680804,-0.31922692,-0.65398574,-0.47953284,0.32393652,-0.30477232,-0.51008743,0.31975603,-0.1954303,-0.4315259,-0.09389734,-0.07082114,0.034614045,-0.9072836,-0.055552717,0.27834412,-0.030540448,0.19082427,0.10039983,0.39015958,0.15063304,0.28071734,-0.4024405,0.42037317,-0.19742861,-0.2982232,0.01268703,-0.070488006,-0.100640066,-0.047537763,-0.5149652,0.36878714,-0.12133072,-0.013403182,-0.10987699,-0.24429464,-0.3978924,0.14026298,0.040205512,-0.1331967,0.23128925,0.08641042,0.66282815,-0.33872864,-0.4607327,0.046454,-0.1788329
0.2205624,-0.047149085,-0.13659318,-0.12354517,0.14246161,0.19237362,-0.13404325,-0.08919818,0.13350444,0.03540434,-0.17509298,0.17500821,-0.13252656,-0.09633374,-0.11496211,0.1468256,0.17507851,0.16808002,0.18805608,-0.14384104,0.046245586,-0.12431612,-0.17404635,-0.08349971,0.14536147,0.019714192,-0.13513802,0.07214652,0.16482525,0.11123994,-0.020037532,-0.0046205586,-0.015216423,0.14126793,-0.0935698,-0.01816273,-0.08379499,-0.015674105,-0.13777982,0.13189794,-0.111159116,-0.027659614,0.15289676,0.097862706,-0.049129292,-0.18595847,0.032518428,-0.08447947,-0.12143849,-0.17086418,-0.082481034,0.17741102,-0.19161756,-0.10493939,-0.19581063,-0.12551616,0.08188578,0.033342138,-0.108842455,-0.092300005,0.13520275,0.08272369,0.1370139,0.18388747
0.4188479,-0.089426704,-0.06775432,0.3756848,-0.029999016,0.034650646,-0.284615,0.4170102,0.23845802,-0.22852868,-0.19329712,-0.43644562,0.114809945,0.20923644,0.44275126,0.13118857,-0.42260313,-0.2554914,0.33386892,-0.71630996,-0.122578956,-0.049007624,-0.3743008,-0.42357707,0.121831074,0.12826045,-0.1981468,-0.1858874,0.043924894,-0.35459626,0.1170258,-0.25195697,0.22549297,-0.041601934,0.2924304,-0.09804595,0.072244935,-0.22696255,-0.20192218,0.033678662,0.34478152,0.055164337,-0.117264174,-0.5471478,-0.7081223,-0.06759535,0.39202917,-0.34254235,0.0877791,0.15070309,0.044272304,0.7038034,-0.48047197,0.23773031,0.09172387,0.34980118,0.15923944,0.33185184,-0.102095254,-0.10885711,0.30963284,0.08495066,-0.23096499,-0.05112616
-0.1316256,-0.21956588,0.03487252,-0.24776044,-0.034652878,-0.027959054,0.061717454,0.049043056,0.21929878,0.10738743,-0.32202676,0.11569432,-0.3679806,-0.09259803,-0.12179626,-0.335775,-0.060971405,-0.0644888,-0.08576061,0.20355049,0.053085264,0.06333491,0.22462928,0.1295895,-0.10696574,-0.43388632,-0.37231532,-0.10309786,0.0016810994,-0.31065857,-0.5635698,0.39665836,-0.03312224,-0.056826655,-0.066463195,0.09184327,0.110787034,-0.22413562,-0.0920026,-0.5143031,-0.06378974,-0.109330714,-0.33403116,0.20616467,-0.26240224,-0.13875169,-0.15645409,0.13166802,-0.091999955,0.1518933,0.019109162,-0.3028563,0.2552585,-0.3901375,-0.020952892,-0.12230254,-0.2105136,0.15866262,0.22142869,0.36625847,-0.12336011,-0.22450525,0.27521494,0.01841954
-0.21186616,0.22813939,-0.10075387,0.30646262,0.1703822,-0.07884349,-0.2554048,0.4074644,0.055247314,0.0779609,-0.042993333,0.24559607,-0.26728094,0.18638399,0.14729697,0.19476625,-0.059299495,0.25077033,-0.14952187,-0.17097495,-0.2064228,0.17116068,-0.531892,-0.6077267,0.042021956,0.33622885,-0.29934937,-0.0117119625,0.107724495,0.17411092,0.15286037,-0.102873296,0.05435683,-0.1785734,0.36711168,0.16630217,0.104509,0.3299911,0.6199695,0.6636487,0.23906668,0.052963067,0.03778304,-0.09418812,-0.40172926,-0.19521429,0.22483504,-0.10077475,0.10828299,-0.413996,-0.36139482,-0.11384275,-0.23268928,0.052922383,0.04178917,0.20519242,0.14637694,0.05195241,-0.7547717,-0.17818472,-0.028280701,-0.3470626,-0.36232778,-0.06650821
0.09001199,0.10671796,-0.2808,-0.04019766,-0.36587983,-0.21775816,-0.1542982,0.022189006,-0.22717509,-0.085075445,0.08849661,-0.028092483,0.009865182,-0.06516896,-0.013693482,-0.08596868,-0.039017923,-0.24738385,0.19113022,-0.07848032,-0.12963632,-0.09492773,0.020461425,0.23417887,-0.5755747,-0.07344547,0.34343868,-0.17481156,-0.69732386,-0.2794319,0.13554046,-0.5073699,-0.31042048,-0.28839472,-0.018393854,-0.0062034735,-0.06682915,0.045161035,-0.37657768,-0.11076838,0.00963616,-0.22316356,-0.2230709,0.30730805,0.046384875,-0.24474174,-0.6826061,0.10875907,-0.084471904,0.32246733,0.10110272,0.01993877,0.2505919,-0.022290157,0.06486086,0.10503665,-0.3118906,-0.37325484,0.33221895,0.012196213,0.17340653,0.11480064,0.08660545,0.05692045
-0.0682508,-0.96099,-0.016375912,-0.07709632,-0.36903444,0.006915409,0.04329935,-0.029196968,0.15252325,-0.23875633,-0.16768189,-0.53173894,0.014430422,0.11186129,0.32738978,-0.1540086,0.3415155,0.028870206,-0.6562038,0.1553806,-0.21886772,-0.12102502,-0.16470423,0.2613347,-0.07882069,-0.31814247,-0.15091033,-0.2508299,0.09583168,0.3287632,-0.9208959,-0.14875841,-0.17011894,0.33528724,-0.20143496,0.074059814,0.20966232,0.14196894,-0.05309518,-0.16214229,-0.23242244,0.42488107,0.48942852,-0.0076252758,-0.5070721,-0.077549644,0.10067869,-0.1087714,-0.18495195,-0.30157617,-0.26577437,-0.391472,-0.071071304,-0.089889444,-0.27225205,0.008547716,0.064144485,-0.043509033,-0.11377225,-0.041545037,-0.5121393,-0.33424115,0.21265453,0.1995562