-0.33327493,-0.9860843,0.39812103,0.5324053,0.27872056,-0.220218,-0.3066867,-0.2635793,0.06269841,0.6476972,0.17379102,-0.14641929,-0.12604928,0.29175404,-0.069469824,-0.8069137,0.31295842,0.7003389,0.6674782,-0.45976833,0.18040799,-0.20499162,0.108227976,0.19020005,0.61297244,-0.34428146,0.16026895,-0.104640536,-0.8670232,0.17325857,0.09211394,0.82202303,-0.39616188,0.037570816,0.43760443,0.16408205,0.3469234,0.26225916,-0.2508619,-0.012474034,0.026706157,0.15206125,-0.052138135,-0.1897874,0.3836969,0.16944623,-0.64193624,-0.38521773,-0.37570855,0.17823637,0.32939973,0.51244766,-0.4054111,0.40780827,-0.5550056,0.0037591348,0.18070331,-0.049938858,0.048943125,0.60816604,-0.19434342,-0.33635548,-0.55479366,-0.35821614
-0.6088678,0.38862702,-0.15951128,-0.08253317,0.07975015,-0.03960771,0.043821696,0.24329433,-0.54841536,-0.20133786,-0.3205995,0.008054328,0.10355449,-0.13618763,-0.31935337,-0.20317958,0.28917608,-0.24621604,0.14186543,0.2462795,0.33368823,-0.16050066,0.06346115,0.40178287,-0.16924469,-0.01976425,0.25424737,0.17516911,0.15227117,-0.004188016,-0.08367377,0.19253732,0.24480113,-0.10072188,0.04002882,-0.13338149,0.34087697,0.25287777,0.33516935,-0.054393962,-0.21353637,-0.029539596,0.054549377,-0.082960345,0.27556607,0.09248167,0.10545451,0.13274524,0.44361767,-0.07824505,-0.38522124,0.05262812,0.2886191,0.043563448,-0.21840298,0.102347195,-0.061232798,0.12548064,0.19901252,0.13241625,0.1395722,-0.55370736,-0.15084799,0.16571702
-0.09689377,-0.20509948,0.37808338,0.23702496,0.034465436,-0.14907981,-0.4374788,0.22427547,-0.3147712,-0.08479697,-0.19324577,-0.366296,0.018196259,0.13727057,-0.41665113,-0.101759404,-0.07351284,0.10883412,-0.8950086,-0.44880313,-0.29898423,-0.34093133,-0.5492047,-0.22576797,0.024160938,-0.27948487,-0.38984495,0.04200843,-0.12132053,0.22958489,0.361507,-0.2764471,0.25844216,0.39789692,-0.2847946,0.1643206,-0.10927751,0.33153626,-0.15569238,-0.4056845,0.02533857,-0.100375906,0.044696063,-0.1392193,-0.26397952,0.3468647,0.33544657,-0.082920246,-0.08486364,-0.33518288,0.13292947,0.2709977,-0.039004747,0.2193545,0.10508628,-0.0021114761,-0.37252247,-0.16832386,0.019107457,-0.1371131,0.09226708,-0.16228825,-0.114998996,0.22557954
-0.051557805,0.38397786,-0.2342239,-0.13811573,0.036362797,0.2975483,-0.18635368,-0.6882612,-0.06634312,-0.53673565,0.26842335,-0.024268141,0.029151931,-0.4226609,-0.8792473,-0.49868906,-0.06502242,0.3072265,0.47675392,-0.031382874,-0.3057508,0.20116511,-0.29863012,0.94080186,0.71922976,0.23885475,0.9508554,0.7274115,-0.25975904,0.078268796,0.37221768,-0.44400007,-0.1403975,0.36173314,-0.25075728,-0.24014693,-0.34524354,-0.0212684,0.57355446,0.72294235,-0.36392578,0.032710217,0.36362216,0.34870106,-0.12907676,-0.087040044,0.035031166,-0.32929412,0.3030505,0.38511258,-0.25732705,0.019948903,-0.5720299,-0.3798743,0.0818851,-0.16285412,-0.279415,-0.005279158,-0.1715322,0.43946764,0.46093246,0.058352247,-1.1520594,0.25958312
-0.21546909,0.116568066,0.06182481,0.056601375,0.18826684,0.05175447,-0.62054294,0.21960947,-0.10083352,-0.03087822,-0.5498398,-0.17539488,-0.21260346,-0.23783432,-0.61544514,0.13860324,-0.055948813,-0.5458929,-0.3231898,-0.15465786,0.35083395,-0.2908964,-0.024286708,0.005054788,0.020068094,0.28031954,0.108233064,0.21331647,-0.006221621,0.27739027,0.10808509,0.17809728,-0.025465809,0.3662,-0.035154175,-0.6289792,-0.184483,-0.037409578,-0.31740266,-0.09933072,0.022103233,-0.10956209,-0.14219809,0.07819361,-0.15605922,-0.36924726,-0.4230423,-0.50990814,0.1357862,-0.15811186,-0.13194047,-0.07250751,0.18440165,0.051174413,0.082411826,-0.03279178,-0.2836825,-0.2688792,-0.20669831,-0.39984667,0.42722327,-0.38407528,0.41260013,0.31857154
0.0024177365,-0.3380916,-0.31502518,-0.11456007,-0.006479972,-0.20124432,0.05680208,-0.54589444,-0.27776602,0.020271573,0.017692942,-0.23571868,0.13578537,0.3647212,-0.16469017,-0.08074975,-0.19336697,-0.41922954,-0.39711893,0.3036834,0.15586908,-0.007838608,0.3483529,0.274998,-0.2768829,-0.24192779,-0.098300844,0.08755868,-0.28145483,-0.45077896,-0.10946337,0.062192794,0.22635202,0.20000584,-0.03292511,-0.10056463,-0.1312327,0.028469216,-0.8607587,0.023369595,-0.19717024,-0.11542046,0.35174623,0.24645495,-0.27281222,0.06952922,0.25259113,0.073779725,0.34452364,0.39285457,0.1393065,-0.18675664,0.08016998,-0.39906284,0.11963002,0.4064037,-0.046529423,-0.52734494,-0.023564544,-0.35174012,0.34120524,-0.07509858,-0.13373518,0.4243898
-0.20695381,-0.33589622,0.09028385,-0.049968835,0.07496898,-0.33156487,0.00017268458,-0.15870412,-0.25626034,0.1156448,0.22766005,0.09911743,-0.12252838,0.15379012,0.29578993,-0.19859993,-0.5440972,0.1820941,-0.11554714,0.070494525,-0.16223888,0.24851115,0.19442761,-0.12275602,-0.13775358,0.35121444,-0.5680891,0.34585008,0.21731028,-0.38624808,-0.23341574,0.22085886,0.14880687,-0.064144075,0.2273468,0.14049257,0.20822641,0.054795958,0.08950244,0.19598886,0.14301363,0.07208246,0.04412466,0.27340257,0.14724255,0.10889482,-0.71216965,-0.19998065,-0.14388551,0.19611752,-0.03356361,-0.15911287,-0.2564583,0.048555125,0.08170318,-0.2044245,0.0960452,-0.24348661,0.05062659,0.05987035,0.025103044,-0.15734346,0.14218621,-0.015823796
-0.048674043,0.11364862,0.35697636,-0.1777984,-0.50483817,-0.19858956,-0.008597374,0.11291099,0.11762192,0.09803137,-0.53256035,0.509353,-0.21047755,-0.043337665,0.09739223,0.10152016,-0.11196996,0.12142475,0.32854432,0.07456779,0.0029039318,0.11954506,0.10900224,-0.3089362,0.02157299,-0.27549458,0.16642757,-0.0795449,0.034978855,0.33429024,-0.29091164,-0.04582871,-0.5954456,-0.0011943955,0.07122523,-0.55160093,0.0016740466,0.21756831,0.16936815,-0.23540415,-0.018188288,-0.13194132,-0.032492597,-0.4659727,-0.049336646,0.018132161,-0.12854537,-0.23979193,0.15236269,-0.41334212,0.28425622,-0.21920191,-0.005354031,0.08211609,-0.36119625,0.009095438,-0.033222318,0.1091499,-0.08985411,-0.34364593,-0.043953024,-0.03549243,-0.034530733,-0.29071808
0.13717067,0.079274856,-0.3136993,-0.033174515,-0.014436915,0.016398253,-0.17736293,0.10389582,-0.15438555,0.14366214,-0.3787461,0.18371662,-0.10646981,-0.22790828,-0.0703315,0.1240152,0.14598572,-0.1991364,-0.22395357,0.35874677,0.023945874,0.15594861,-0.3818516,0.3263361,-0.068444096,0.18465215,-0.03249902,0.12534225,-0.16796401,-0.023615604,-0.15019533,-0.19926377,0.004562419,-0.10860796,-0.41699594,-0.22049859,-0.20951068,0.02479768,-0.14503987,-0.075143754,-0.48948288,-0.081116274,0.009102293,0.15566546,-0.4126607,-0.2386268,-0.1298466,-0.61198014,-0.55771124,-0.039388232,-0.053470604,-0.035069685,0.2938556,0.1644237,0.26628703,-0.18568096,-0.6690285,-0.059894536,0.16261357,0.037328362,0.31407917,-0.3030152,0.31901208,0.2402506
-0.5250467,-0.51073027,-0.2776862,-0.11501765,0.38254526,-0.5388087,-0.2072454,-0.30491453,-0.0010181088,-0.3146796,0.294915,-0.028430743,-0.06513943,0.039533954,0.20851915,-0.063047655,-0.3247067,0.22838682,0.009049803,-0.1824095,-0.08108201,-0.27528948,0.0962656,0.22932386,-0.12925297,-0.3637928,-0.34653577,-0.1154351,-0.080250554,0.0403015,-0.028940344,-0.09127122,-0.16750355,0.14494373,0.3489362,0.051650986,-0.18842317,-0.19927397,0.30948782,0.015603,0.23247956,-0.13366604,0.038061522,0.1755908,0.14788266,0.3509156,0.040296666,-0.20487234,-0.11529882,-0.11239576,-0.150823,0.16554713,-0.03368482,0.012474261,0.03817102,-0.2679603,0.102023765,-0.30460075,-0.04368271,0.14799364,0.03986432,-0.21000391,0.01427406,0.30115548
0.26090273,0.019693222,-0.331044,0.09741581,0.16880795,0.11564973,0.18961564,-0.35922828,0.26238486,-0.06368391,0.093839735,-0.26299572,-0.25853884,-0.04943413,0.3105844,0.2844293,0.32677817,-0.048470292,-0.060728118,0.07778835,-0.351979,-0.18213913,0.43200234,0.15344562,-0.1100171,-0.11957801,0.24442306,0.22885107,0.114613086,-0.23796128,-0.099816345,-0.02345136,0.0049673975,-0.061000366,0.063855,0.34114116,-0.08253989,0.092744745,-7.50686e-05,0.1289649,0.35825342,0.107349455,-0.08786726,-0.055857215,-0.23931153,0.20040849,-0.0067432406,-0.06438067,0.42891473,-0.2497312,-0.2480246,-0.013365297,0.06954571,-0.32553858,0.14005522,-0.19059537,0.057331655,-0.13028806,-0.08039987,-0.080263734,-0.107430406,0.44748744,0.056129925,0.17601979
0.14012688,-0.54932797,-0.35918516,-0.51267385,0.2205121,-0.26774982,0.062921606,0.00090353715,-0.5054589,-0.18426868,0.009084928,0.004130818,-0.32678148,-0.062689275,-0.57387453,-0.32834354,-0.2763572,-0.4479844,-0.26229948,0.17308752,0.1139349,0.2530896,-0.17900121,0.14252765,-0.47931245,0.22907305,0.2288601,0.46201706,-0.32502392,-0.22635286,0.010391051,0.30404568,0.03864131,0.0645163,-0.21719684,-0.3546644,-0.20467857,-0.13919117,0.12264169,0.030664744,-0.1318273,0.030462323,0.3569444,0.32478324,-0.20626406,0.011942468,-0.05442014,-0.11434841,-0.23634534,-0.010740843,0.17641425,-0.23487824,-0.16719791,-0.3126154,0.288355,-0.11656051,-0.6702861,-0.028824084,-0.10299033,-0.67253655,0.4333747,-0.48555282,0.03181475,-0.034668967
-0.40510947,-0.5859977,-0.10568986,0.08388929,-1.0072774,-0.20261993,-0.6349023,-0.6510584,-0.055616505,0.016075296,-0.026418654,-0.08720476,-0.07340579,0.24162301,-0.0069012125,-0.26236746,0.07667855,0.28652832,0.5651934,-0.62625235,0.19704299,0.11459533,-0.10786125,0.012066535,0.12576427,-0.4640003,0.2532407,0.067971215,-0.6754644,0.18629807,-0.24168333,-0.29886055,-0.04617894,0.16683346,-0.0893106,-0.124002896,-0.3304874,-0.1359757,0.063690856,0.27329135,0.49846306,-0.12712243,-0.0050080325,-0.18823424,0.21347865,-0.009805783,-0.80749875,-0.42676643,-0.15254475,-0.6078804,-0.13923456,0.37519878,-0.39177525,0.07950103,-0.117844395,-0.0024325624,0.004528163,-0.30546334,-0.120761566,0.0959194,0.2638483,-0.28646663,0.51297694,-0.48047924
0.0059028254,-0.49095908,-0.12863958,0.37402582,0.13543749,-0.12105482,0.24259062,-0.06490076,-0.17223704,0.25428313,-0.07604864,-0.77184415,0.3821655,-0.25499263,0.14945957,-0.1427166,0.15028356,0.34452865,0.071314745,0.02665688,-0.28409332,0.09107773,0.03345205,-0.08318201,0.34709153,0.14549461,-0.18474889,0.17293285,0.23861215,-0.5697678,-0.015277161,0.28899932,0.4140414,0.37746498,-0.06726147,-0.28362814,0.25284004,0.193635,-0.12766846,-0.34244868,0.005719696,-0.20002817,0.34128958,0.1440793,-0.09746964,0.40621758,-0.18334785,0.0051387236,-0.1740563,0.03590036,0.34257382,-0.008117626,0.097744755,-0.2651721,0.11550668,0.20098953,-0.34706548,0.001402982,-0.22216053,0.20545304,0.037886553,-0.13875096,0.1296007,-0.06403781
-0.35019302,-0.32549897,-0.49828178,-0.55245805,-0.08523572,-0.1768128,0.31764948,-0.11379952,-0.029689522,-0.1840692,0.39974046,-0.33128038,0.7622456,-0.518592,0.13397239,-0.6398653,0.6616648,-0.8914472,0.010385646,0.02764589,-0.2639532,-0.42168933,0.14591649,0.28458634,-0.12288573,-0.26636693,0.5941445,0.11357312,-0.61741424,-0.6455378,-0.4480385,-0.75256354,0.39182734,0.1506558,0.27574465,0.3539044,0.010812854,0.478099,-0.16317417,0.7901451,0.53166187,-0.062251333,-0.63784504,0.5151054,0.33131957,-0.83956516,-0.29383948,-0.44659373,-0.061075896,-0.0018156918,-0.9284967,-0.35997626,0.6075285,-0.5247326,-0.50024354,-0.4670662,0.2179041,0.51029766,-0.14628668,-0.06088326,-0.32242703,0.104730956,0.34005874,0.12232374
0.1320253,-0.03155535,0.25767696,0.18908565,-0.15673496,-0.17372,-0.45163676,0.4421805,0.21885574,-0.3285014,0.07116403,0.123658285,0.3416982,-0.46437928,-0.18863787,0.017545903,0.27822027,0.4823107,0.276418,-0.037900385,0.13386333,-0.4755874,-0.08740655,0.34944287,0.7013053,-0.23301198,-0.11583368,0.1551553,0.4054132,0.23992085,-0.032767206,0.053455874,-0.28255415,0.046926275,-0.23499657,-0.29188994,0.2140619,0.08390009,-0.59890884,-0.031383492,0.27027583,-0.19039355,-0.17683697,-0.1978944,0.18282187,-0.05630762,0.17613602,0.35920662,0.33473924,0.09838073,0.102325894,0.10141565,-0.32094246,0.24923669,-0.0024235453,-0.23952608,0.21367563,0.35558897,-0.189636,0.0758473,-0.29478315,0.091169916,0.117182635,-0.7455261
-0.020315608,-0.07576542,0.13180655,0.2717545,0.4184526,-0.39677328,-0.25973973,-0.54779875,-0.34904605,-0.10399371,-0.33839595,0.028298205,0.016326515,0.2999244,-0.15316157,0.090680085,-0.17533284,0.16460314,0.0049588713,0.3942459,0.23968937,-0.3275288,-0.38334465,-0.051685374,0.25462404,0.26128322,0.31200823,0.32369593,0.22383577,-0.2222084,-0.18365066,0.17815079,0.20314825,-0.1200082,-0.077418685,-0.14067897,-0.19253619,-0.3018098,0.26546645,0.25613528,-0.11824046,-0.05795927,0.09000374,-0.07682991,-0.20265883,0.29228428,-0.014803093,0.17135672,-0.7303226,0.1070191,0.07032382,-0.24723978,0.0400881,0.021847744,-0.0056018285,0.08363301,-0.115885496,-0.43869144,-0.07453028,-0.27764654,0.37502667,-0.20624717,-0.5319345,0.19986115
-0.11199422,-0.4051755,0.18983538,0.1892929,-0.49956205,-0.20499094,-0.2313207,-0.46403694,-0.08557056,-0.07171972,-0.19295284,0.4025254,-0.372098,0.4610599,0.2539344,-0.2726754,0.16693379,0.043147568,-0.29686266,-0.14659378,0.07981046,0.19120014,0.32501644,-0.41358915,0.17175306,-0.40204224,5.8625224e-05,-0.124926515,-0.3064081,0.2848403,0.05127698,0.0879188,-0.3643677,-0.23269016,-0.21407792,-0.025959225,-0.07514456,0.09574852,0.11560191,-0.17058875,0.01337169,-0.013667994,-0.22433972,-0.051018134,0.009333992,-0.11168743,0.25251013,0.074641615,0.32760593,-0.26414472,0.23927513,-0.0050287163,-0.35352162,0.3159038,-0.1261155,0.39074638,0.018224653,-0.18061528,-0.15685135,-0.09533805,-0.21764356,-0.058948334,0.15733223,0.017204048
-0.35591185,0.15561455,-0.102101006,0.14044972,-0.2786303,-1.0073855,-0.22983275,0.058704197,-0.25462613,0.23728918,0.33815515,-0.12761839,0.24140784,0.15699129,-0.010158038,-0.028125152,-0.25033396,0.32807732,0.30782968,-0.25815707,-0.29974318,0.26328793,-0.18001845,0.043582954,0.56227636,0.07469486,-0.079219505,0.10310619,-0.1253469,0.2568253,0.04087761,0.06523036,0.12587985,0.08289427,0.21549569,0.082153596,0.30004388,-0.4658866,-0.26665413,-0.33728027,-0.01235759,-0.18978159,-0.20283704,0.04074405,0.10771699,-0.07979036,-0.5394681,0.17551649,0.4122117,0.09837554,0.18358454,0.24622664,0.035769034,0.16360417,0.0033858132,0.20303893,0.0371287,-0.26064166,0.039679263,0.37511942,-0.16992913,-0.13643557,-0.16719872,-0.20614389
0.02958894,0.14889286,0.3132625,0.1810078,0.16623703,-0.4334471,-0.15000512,-0.015957544,-0.097372524,-0.017868342,0.0029515044,-0.3042155,0.08788752,-0.8446626,0.032992925,-0.18372796,0.2731543,0.13039763,0.2727271,-0.13118668,0.35047814,0.0026695416,-0.15167473,0.11532267,0.25190035,0.2332446,0.19772725,-0.0152051775,0.0040012924,0.042229693,0.1459952,0.14610751,-0.11286932,-0.030882303,-0.18852928,0.20378071,-0.25864983,0.015812976,0.336409,0.37775806,0.041142955,0.044590734,-0.15647228,-0.72691876,0.16070881,-0.64735186,-0.18533531,0.40504253,0.18741073,-0.116110444,0.06971882,0.11799173,0.07226676,-0.021540496,0.37051743,-0.9951853,-0.6398724,0.13842614,-0.08496391,-0.082604244,-0.1720618,-0.032165688,0.108915396,-0.18319896
0.19832678,0.16516276,0.1745509,-0.5441043,-0.27119747,-0.14638777,0.2126774,0.39491192,-0.035738938,0.07770923,-0.52882564,0.30943865,-0.4128599,0.31091702,0.08623427,-0.045469105,-0.45218557,0.018216662,-0.02343649,-0.1678059,0.031916566,-0.10022508,0.061980136,-0.3936251,-0.02133642,0.00045982513,-0.47564605,-0.21481578,0.041621488,0.24308392,0.046650928,-0.082869455,-0.15600616,-0.117362045,-0.51735985,-0.37503463,0.21245572,-0.40635836,-0.14749254,-0.33172247,-0.23518589,-0.23012179,0.09501784,-0.31005418,-0.09995501,0.26228938,-0.16908886,-0.17562096,0.10777086,-0.13283446,0.3206612,-0.10394852,0.17204037,0.42498067,0.112875946,0.07661226,-0.26422834,0.10139909,-0.17350177,0.13203013,0.3991863,0.010111212,0.17535505,-0.42576325
-0.53889674,-0.39793417,0.24649316,0.14804263,-0.13620664,-0.4965867,0.2672925,-0.24792287,-0.105266824,0.6024751,-0.023924422,-0.02832492,-0.019145872,0.073283195,0.33317396,-0.17958574,-0.53479606,0.4336548,0.24359016,-0.2649191,0.08057742,0.24147344,0.13501748,-0.031694647,0.52214855,-0.25243467,-0.4967742,-0.38953328,-0.005113484,0.2740663,0.16012064,-0.291686,-0.54184824,0.30665565,0.26518714,0.22059716,-0.23489049,0.009370031,0.513544,-0.42479637,0.11956718,0.18398216,-0.3896124,-0.0029877084,0.4192918,0.049918856,0.06183121,-0.1980971,-0.60523653,0.14590292,0.38671878,0.24544472,-0.18399777,0.14446257,-0.25951055,0.03302175,-0.15250936,-0.46967265,-0.004496485,0.45357394,-0.23882215,-0.12395738,-0.10488876,0.14890404
-0.1450123,-0.17116947,0.24848376,-0.11691736,-0.07337205,-0.09766492,-0.37388682,0.19391456,-0.13722105,0.012591179,-0.23931295,0.26307705,-0.060748924,0.12717848,0.093819454,-0.059935518,-0.3301939,-0.09389125,-0.3192612,-0.13831028,0.25497305,0.09006494,0.09477137,-0.15264103,-0.057250798,0.19384833,-0.037846576,-0.21325076,0.14976108,-0.02615862,-0.24234591,0.06817762,0.19200513,0.12686177,-0.34097862,-0.16906908,-0.32183865,-0.5645409,-0.17783134,-0.33338842,-0.47438097,0.13768889,-0.008287075,0.21492851,-0.23126867,-0.045023236,0.021977523,-0.6431736,0.050766308,-0.07709284,0.11386492,0.039965454,-0.22073443,0.04762321,0.14609729,-0.100976646,-0.33954322,0.21219137,-0.11814837,0.09486773,0.2844146,-0.16944268,0.023910308,0.08160642
0.2854544,0.16658677,-0.6762734,-0.08012784,0.21864699,-0.15811822,-0.31520987,0.055108707,-0.019470327,-0.3538311,0.44251254,-0.25565243,-0.076917015,-0.3449563,0.100795664,0.12876341,-0.20397611,0.21502496,0.110328585,-0.38125855,0.30141106,0.04000932,-0.2693262,0.153798,0.17306809,-0.30107892,0.14542474,0.41599485,0.1648261,0.05819242,0.1796902,-0.23671931,-0.034097377,-0.059828497,0.40069935,0.30012402,-0.31405887,0.203002,-0.21641383,0.019298956,0.2623514,0.03365507,-0.47443488,-0.16521648,0.45195156,-0.6192484,-0.1932627,-0.00043091387,0.110065706,0.018755551,-0.6837404,0.342745,0.360706,-0.16100648,0.03501157,-0.23249461,-0.006457728,0.06366008,-0.1413174,-0.007084645,-0.38530448,0.04139328,0.026665062,-0.4721253
0.07051325,-0.043879185,-0.2842024,-0.052465755,0.20543653,-0.28508702,-0.41015428,-0.33576623,-0.21368758,-0.2804717,0.015080931,-0.17262149,-0.25479323,0.27127025,-0.43075544,0.0079136165,-0.46564174,-0.55093753,-0.21961412,-0.4528037,0.45072356,0.111608304,-0.24180524,0.42407584,0.11651741,-0.27084607,0.12439359,0.1579898,0.50929344,0.20001362,0.06299746,0.16749474,-0.035862166,0.02946137,0.36349446,0.39623535,-0.10788677,0.34080172,-0.5354125,-0.0107770935,0.27736044,0.106126,-0.009183467,0.30887067,0.36198577,-0.110472865,-0.061013613,-0.71908855,-0.02489871,0.3727245,0.12967175,0.5834288,0.2846217,0.10231741,-0.3099,0.39329895,-0.2883051,-0.32840723,-0.16707171,-0.6247947,-0.17402418,-0.36272147,0.041537173,-0.22929141
-0.047511663,0.029650398,-0.5209348,-0.36542737,0.15484056,-0.13891989,0.28658566,0.2180935,0.14959493,-0.022775473,-0.24375251,-0.30905256,-0.123846225,-0.22917539,-0.24005754,0.13438931,0.14962323,0.15220946,0.101947,0.03381418,0.029361455,0.030985257,-0.23034279,0.26566336,-0.15232249,-0.023098774,0.1767746,0.06174076,-0.28521258,-0.40551007,-0.62873966,-0.28332648,0.18193518,0.12736446,0.027189212,-0.30425867,-0.37075424,-0.44944072,0.14005291,-0.018426659,-0.25030705,-0.03938337,0.06062259,0.13757014,-0.20306551,0.4262552,0.12326326,-0.026973473,0.2739429,0.083629385,-0.31107643,-0.30457327,0.109932505,-0.32540423,0.47572035,0.07503211,-0.21045879,0.30600068,-0.06486538,-0.18953821,0.26639378,-0.028119681,0.20748568,0.13847975
-0.27837828,-0.05860288,0.20704569,0.18976085,0.29900986,-0.36303425,-0.118855305,0.065717794,-0.20551467,0.47526935,0.43591347,-0.0715692,0.19786431,0.25382042,-0.7680534,-0.3847193,-0.1450317,0.26934853,0.26516637,0.1584098,-0.32716882,-0.2514937,-1.23983,-0.014089766,0.36130595,-0.011653907,0.32653707,0.32691205,-0.18639155,-0.022527153,0.52156764,0.019791076,0.050156232,0.16003351,0.10497988,0.17471181,0.017428562,0.29673335,-1.0535189,-0.3199579,-0.006280652,-0.009253351,0.038555462,-0.19045846,0.36788142,-0.60478413,-0.27489093,-0.037254296,-0.114227034,0.5976428,-0.113461204,0.09286617,-0.3348349,-0.03239743,0.09190103,0.0027431655,-0.90776277,-0.17141722,-0.20607075,0.57321155,0.13382475,-0.52354705,-0.6176494,-0.20983204
-0.39450055,-0.3040663,0.13907486,0.4397422,-0.35116383,-0.14301251,-0.58549213,-0.30354273,-0.104882434,0.04554824,-0.20118825,-0.13881896,-0.014296555,0.3500627,0.13941227,-0.44837198,-0.078653656,0.30076724,0.32677212,-0.27069858,0.22428477,-0.007382318,-0.09011976,-0.014744061,0.23861837,-0.09474513,0.09925782,0.065689065,-0.599859,-0.042396054,-0.11448035,0.08124491,-0.0435729,0.23898683,-0.121505335,-0.0074447556,-0.013002867,0.2817186,0.018188981,-0.031947114,0.4585453,-0.01437699,0.0058689937,0.1667565,-0.007872494,0.1870873,-0.40653118,-0.3422084,-0.34892467,-0.14671943,0.13899718,0.19828221,-0.6292437,-0.023265654,-0.24007405,0.018914875,-0.0010810562,-0.40662217,-0.14232552,0.32668018,0.090833925,-0.45168728,-0.17521396,-0.1543688
-0.02118247,-0.31262627,-0.07825061,0.05902083,0.004450235,-0.47721174,0.21854159,-0.16046205,-0.3574609,-0.15023887,-0.15301469,0.00037651224,0.02882206,-0.071323894,-0.033892263,-1.0109645,-0.16385476,0.16054468,-0.1586156,0.117592335,-0.07587464,0.4423297,0.2524898,-0.19430831,-0.18882984,0.018201075,0.013560301,-0.3460621,-0.47705683,-0.05634175,0.015366312,-0.17537686,0.21500984,-0.08764607,-0.3565242,-0.105980165,-0.062283862,-0.21007553,-0.005660922,0.11361239,-0.29882586,-0.10148789,0.10474471,0.10069646,-0.30825981,0.12716511,-0.0030163727,-0.23026572,-0.19056855,-0.090731815,0.02866964,-0.050356817,-0.37593773,0.07182254,0.29893807,-0.14843668,-0.17815201,-0.092536464,0.014375613,-0.17817493,0.11344386,-0.41747412,-0.12743822,0.09551582
0.45512792,0.014767101,0.41102925,0.96966,-0.58282775,0.24394807,0.3621668,1.2276502,-0.03396047,0.11249544,-0.7073968,0.014648758,0.35100824,-0.044530585,-0.48616314,-0.63735914,0.19181576,0.16980232,-0.24451624,0.61311895,0.19236723,0.112307705,-0.67610127,-0.19070207,0.13390158,0.123551816,-0.40834445,-0.20960672,-0.26904353,0.12456469,-0.2262437,0.6310264,0.7926452,-0.43261486,-0.7838081,-0.9884977,0.6169805,-0.63832986,-0.69834435,-0.3287011,0.013525304,-0.39705783,0.22023584,0.54364187,-0.50627786,-0.7199041,-0.22154799,0.7575968,-0.08700087,-0.55344,-0.19198431,-0.3176152,-0.4754265,0.12547784,-0.008337572,-0.18447253,-0.06576997,0.3948891,-0.07477922,-0.6101443,0.24920401,0.2471657,0.19815905,0.3239912
-1.0797035,-0.42022705,0.38608986,-0.103345454,0.5166054,-0.91131264,-0.42746675,0.5367639,-0.7440295,0.56624967,0.18518686,0.029357553,-0.32014903,0.53296065,-0.28238824,-0.467841,-0.5530893,-0.20701826,0.6894945,-0.88105494,1.0650142,0.2788072,-0.5188881,0.31841362,-0.702564,0.41842768,0.23757964,0.4678314,-0.5592332,0.3530329,0.37407362,0.8462467,0.068052754,0.66990143,0.39128163,-0.3375177,-0.72250813,-0.32346943,-0.19591364,0.0866105,0.4905289,-0.020090481,0.6309287,-0.21079282,0.6511761,-0.8213016,-0.9394475,-0.51885325,-0.36976546,0.092823625,0.56477934,0.7208082,-0.34953582,0.48933434,0.43669143,0.5981189,-0.59821147,-0.5904961,-0.07745946,-0.081557624,0.5143516,-0.40174693,0.78032404,0.38825944
0.18050663,-0.021108493,-0.38659608,-0.20895639,0.31363985,0.1571438,0.22399715,-0.033169176,-0.13450842,-0.29655305,0.10056884,-0.34987333,-0.24290286,-0.4400544,-0.362832,-0.41963378,-0.103986256,-0.36530763,-0.036899,-0.037363674,-0.20201127,0.38153756,-0.07102306,0.2153284,-0.41491818,0.3487507,0.14322913,0.2001457,-0.020357171,-0.1803251,-0.2525928,0.22117898,0.21091692,0.10375542,-0.025305143,0.23344518,0.10308572,-0.08936171,-0.16998905,0.13045992,0.17452934,-0.19584599,0.2877104,0.29364553,0.12496271,-0.34531918,-0.3776733,0.005678149,0.10744425,0.27764753,0.02445142,-0.17810027,-0.17313139,-0.2953729,0.36043552,-0.2593626,-0.15298705,-0.326911,-0.05490985,-0.08684159,0.20774604,-0.32269347,0.17129555,0.33375856
-0.56125474,0.11540542,0.106203385,-0.69714886,-0.61865914,-0.3081834,-0.35356757,-0.12658073,-0.14255363,-0.13294189,0.40658563,0.020177074,-0.03797849,0.06733281,-0.31313476,0.014919829,-0.46976677,0.4172756,0.16372271,0.29308897,-0.32958892,-0.28932217,0.057883363,0.2695218,0.086669445,0.18716316,0.42791486,0.115396276,0.009443331,0.08012627,0.21114565,0.09095715,0.17347664,-0.42052114,-0.11069969,-0.16279684,0.10092568,0.21176176,0.79953754,0.46754804,0.12066603,-0.06153561,-0.14240547,0.16721757,0.19740123,-0.13851264,-0.2927484,-0.46654493,0.33680603,-0.1137573,0.044703826,-0.30603194,0.52273524,-0.27222252,0.14725576,0.37316173,-0.6548072,-0.17167154,-0.12657018,0.20438597,0.19153056,-0.23767263,-0.65956545,-0.17488503
-0.29504195,0.42566797,0.057720404,-0.034038484,-0.09380798,0.19356358,-0.48803413,-0.43152466,0.045704402,-0.51319844,-0.13010657,-0.17138077,0.36892915,0.027316522,-0.15572338,0.16589381,0.27343762,0.14801393,0.023707923,-0.13883044,-0.45864803,-0.11023481,-0.048286308,0.49184605,0.3036293,-0.2659018,0.657415,-0.06947031,0.39364728,-0.039838932,0.049868,-0.65493655,-0.0952578,0.12985146,-0.1807769,0.18137822,0.057622287,0.67901343,-0.680747,0.061102595,-0.035427757,-0.1862762,-0.4374778,0.08049853,0.15283804,-0.046852168,0.5215297,0.027640436,0.22165737,-0.08648405,-0.092343755,0.090487614,0.23088685,-0.1631709,-0.10823242,0.027212018,-0.022545613,0.052893173,-0.22332266,-0.09790358,-0.3387001,0.28248066,-0.085823074,-0.15827334
-0.049659465,-0.3886194,0.19281285,-0.2257289,0.44052744,-0.13269073,-0.11697253,0.082004994,-1.0132239,0.4009036,-0.27013755,0.31064042,-0.14617333,0.16571613,-0.047381982,-0.4083548,-0.37553138,-0.16648199,0.3306463,-0.27695653,1.1206056,0.29225072,-0.4838813,0.2462324,-0.55698144,0.38294214,0.06697265,0.73241943,-0.3328791,0.27742136,0.6228989,0.6588385,0.28582144,0.7325116,-0.005716449,-0.09811187,-0.16380024,-0.079628885,-0.8081275,-0.18459783,0.5079213,0.3849178,0.68154144,0.18916975,0.55560344,-0.29404816,-0.7375404,0.21908523,-0.37718138,-0.052193474,0.15941913,0.25893426,-0.23668633,0.2954452,0.043911897,0.07834854,-0.26705435,-0.5898428,-0.06641535,-0.10366551,0.16673443,-0.6408051,0.6761713,-0.10356673
0.079250224,0.06601544,0.15802948,0.13659886,-0.026303371,0.022532422,0.36921182,0.09179519,0.104512416,0.24851175,-0.24101514,0.24255776,-0.3156636,0.21442436,-0.26723865,0.07518173,-0.35534957,0.3136065,-0.5592468,0.15664724,0.23262113,-0.12095747,-0.32104468,-0.28649744,-0.16251884,-0.13235489,-0.4532266,0.11663098,-0.082041636,0.2986839,-0.054192856,0.07885738,-0.3801689,0.13734695,-0.047831114,0.13969809,0.06429378,0.06467359,-0.040596854,-0.43156937,0.08330627,-0.092969626,0.17382441,-0.39169627,-0.29609504,0.40525544,0.035678126,-0.04153852,-0.019774478,-0.0791415,-0.004944796,-0.112693086,-0.081442125,0.22344023,-0.110329114,0.07230908,-0.13611272,0.10646133,-0.015671395,0.029406989,-0.021700256,0.09834532,0.03427425,-0.39073715
-0.26586083,0.31529304,-0.09133292,0.0040117614,-0.041034967,-0.023854421,-0.239743,0.31450266,-0.103131846,0.2553159,0.19596075,-0.50875014,-0.06947024,-0.37714073,-0.12400429,0.23191167,-0.1019199,-0.053305093,0.21212012,-0.2827302,0.03690823,-0.49824208,0.09678625,0.35449687,-0.15703206,-0.270504,-0.007467272,0.13700603,0.35160813,-0.0023509634,-0.02675544,-0.43161282,-0.36797822,-0.056471556,0.37043706,0.3897035,-0.3663477,0.1937407,-0.32444382,0.052135956,0.05295681,0.14066882,-0.5608277,-0.0661848,0.3546838,-0.025749061,-0.028694607,0.12545535,0.006378444,-0.06263525,-0.14442472,0.21154654,0.38117626,0.12268909,-0.099038765,-0.09347267,-0.016583562,0.007702661,0.09037865,0.18568707,-0.3861089,-0.016187845,0.0025800276,-0.0761037
-0.5651962,0.2876934,0.45115992,-0.19940832,0.05226453,-0.23635058,0.119371936,0.25542632,-0.1627089,0.28571007,-0.16448416,0.3488567,0.079025395,-0.041237928,-0.25150996,0.15304194,-0.3157946,0.22271532,0.11231907,0.24617203,0.070898324,-0.0006211312,-0.0055968673,0.14620993,-0.05060508,-0.19092716,0.1601147,-0.15778707,0.051902946,0.48209605,0.108273365,-0.33776686,-0.42040724,0.12703554,0.030828979,0.0929888,0.23424941,0.11539664,0.34723243,0.66786987,0.31866348,0.047693036,0.16033205,0.08806275,0.108780645,0.2791204,0.05923175,-0.3767937,-0.10125235,0.08372954,0.20233391,0.19401081,0.39072087,0.15788738,-0.2018483,0.107948385,-0.7823337,0.24694633,-0.193597,0.014075721,0.04807908,-0.20283712,0.20979683,-0.009478461
-0.25488102,-0.28896484,0.06590306,0.6382489,0.16711858,-0.53984374,-0.23388131,-0.8996518,0.00040772717,0.24965978,-0.6354742,-0.0934948,-0.1559811,0.4559921,0.101934016,0.31425336,-0.09469471,-0.07108735,-0.3666836,0.36560476,0.15745355,-0.32447705,-0.4219243,0.38145956,-0.11285319,0.23046303,0.10715327,0.028554516,-0.5292092,-0.054687086,0.17956847,0.1754624,0.39839,0.09864177,-0.6042939,-0.60794705,-0.08297991,-0.36418635,-0.00063744583,0.36353046,-0.2940196,-0.04380421,-0.006242621,-0.040743943,-0.40653914,0.023515815,0.34303042,0.56968737,-0.5891898,-0.4938022,0.10704654,-0.0062381197,-0.3555642,-0.04602326,-0.24568287,0.08478128,-0.37707487,-0.46136987,-0.14169392,0.039518457,0.4030237,-0.051431563,-0.04042514,0.17928933
0.4595436,-0.03335584,0.2370054,-0.29491717,-0.05233367,0.3920342,-0.2901116,-0.15416639,-0.10137436,-0.052576646,0.09455974,0.057526894,0.13835305,0.19804448,-0.13987622,0.24427746,0.063641734,-0.30584392,-0.17378409,-0.26132724,0.22256583,0.14904945,-0.050350085,0.15516956,-0.29951093,-0.055803146,-0.013949929,-0.13492751,-0.030190375,0.047677238,0.057258278,0.35550064,-0.38085583,0.30647266,0.26874936,0.35451087,-0.0077250707,0.013982921,-0.14914382,-0.052250158,0.08008416,0.19637068,0.10252979,0.2683983,0.16359276,-0.28142935,0.061064925,0.056092348,0.24230012,-0.0411829,0.17879015,0.3063483,0.023098476,-0.0119170975,-0.7291759,0.17560396,-0.010279573,-0.034045532,0.04421122,-0.21624908,-0.26094955,0.19711353,0.0445118,-0.42310095
-0.048475806,-0.23603757,-0.3690552,-0.048394963,0.2883913,0.07605733,-0.111113206,-0.06996005,0.041132107,0.08795113,0.24093735,-0.020981276,0.039957903,-0.24605547,0.09458267,0.22673121,-0.051179536,0.17533104,-0.19434136,-0.11700343,0.32874465,-0.048441157,0.1144916,0.5320374,0.11591896,-0.023363415,-0.2021454,0.17104863,0.031914324,-0.34523857,0.12632355,-0.027907234,-0.35701397,-0.11356675,0.35080537,0.27185535,-0.33845165,0.30801418,0.20294866,-0.076545395,0.09842736,-0.15709794,-0.2653559,-0.05794382,0.18735243,0.14651795,-0.13668844,0.0038339982,-0.40935302,0.13012534,-0.54424644,0.09224269,0.03590359,-0.40856037,-0.2857497,-0.39163217,0.21057233,-0.28265148,0.11369919,-0.07723053,-0.14927821,-0.19357811,0.15379012,0.18187092
0.04192767,-0.03994547,0.14614385,0.0595377,0.17111868,0.43369412,0.31663615,-0.82392395,0.23394136,0.053279165,0.1218868,0.17781845,0.21343635,0.14199977,0.14140493,0.13830331,0.15114713,-0.27424523,-0.8524142,0.34533423,-0.4133261,0.40232083,0.015762381,0.26918432,-0.5173452,0.2173208,-0.1507449,-0.042287804,-0.17060345,-0.39471352,-0.74306655,-0.047219906,-0.07685339,0.0054151765,-0.22772294,0.053287946,0.17377143,-0.071295224,-0.43401608,0.27658337,-0.25698212,0.19409525,-0.07253297,0.17747723,-0.52139425,0.16354018,0.19796292,-0.39619446,-0.28894743,0.15000157,0.21211186,-0.222941,-0.0217768,-0.05274716,-0.32295954,-0.11440397,0.33021948,0.06833781,-0.07080564,-0.4175722,0.17352174,-0.14945759,0.22335796,-0.08425922
-0.08204136,0.23994605,-0.15121384,-0.2832008,-0.11678273,0.10595794,-0.16830964,0.18845515,-0.011409256,-0.49953973,-0.15246844,0.3127114,0.042977888,-0.4501941,-0.32877314,0.0772995,-0.2505682,-0.19186528,0.037098177,0.1591435,-0.0070757126,-0.118899554,-0.5028775,0.09294399,-0.3281746,-0.020966407,-0.3568966,0.11297457,0.23136707,-0.188166,-0.031809013,-0.16862962,0.081768095,-0.052753035,0.3531642,0.04211286,-0.022472823,0.027789494,-0.3881585,-0.32813907,-0.013585668,-0.21657895,0.10290315,0.13457972,0.43133086,0.05552414,-0.8160181,-0.123770215,-0.3751958,0.07195717,-0.29074132,-0.061770298,0.061145406,0.062667824,-0.14763151,-0.5455107,-0.54041046,-0.2869005,-0.07533382,-0.08512738,-0.018485101,0.11749273,0.11429788,-0.15813105
-0.6368921,-0.3474478,-0.07930311,-0.27928057,0.44740248,0.08510986,-0.0684922,0.23452325,0.023629298,0.24533354,-0.3148051,0.13716637,-0.16661218,0.128167,-0.38308424,-0.031185748,-1.0112455,0.39405602,0.1673662,0.2762376,-0.283082,0.28316203,-0.03030103,-0.004198089,0.004812502,0.39905053,0.15441787,-0.045367993,0.12663038,-0.26257443,-0.051554445,0.018671619,0.36867002,0.30002683,0.22294082,0.013799501,-0.026403012,0.17232275,-0.0022090317,0.24356575,-0.1158036,-0.116780706,0.32215753,0.013999461,-0.2063592,0.546164,-0.48425832,-0.9491738,-0.08699241,-0.35713038,-0.3306352,-0.24248484,-0.39641237,-0.112915665,0.532768,0.18833286,-0.080579415,-0.23943995,0.042626936,0.014219787,0.13851063,0.010022177,0.16283576,0.40069884
0.29131418,0.020356046,-0.22864433,-0.18713742,-1.1022208,-0.058026303,0.0944276,-0.44465077,0.36008272,0.032292213,-0.20925549,-0.050600197,0.18274958,-0.082537666,-0.22774355,-0.69209284,-0.08509082,0.24671191,0.47795412,0.027792955,-0.20177315,-0.050208308,0.2646308,0.70528084,0.28381106,-0.012106337,0.49387315,0.015370276,-0.1317847,-0.12398521,0.117485,-0.04254684,-0.046377767,0.3740263,-0.16861019,-0.08227106,-0.3189167,-0.21071856,-0.8467937,0.42881712,-0.4678781,0.04199995,-0.01426745,0.04847115,-0.122662805,-0.061287828,0.06832016,0.16190548,-0.24046235,0.069442764,-0.069026455,-0.3995493,-0.43851462,-0.023073819,-0.6806804,-0.15312482,-0.09778735,0.032352958,0.049957443,0.6184252,0.21024317,-0.123875074,-0.34100088,0.14152217
0.41598865,0.24821538,0.19355945,-0.659366,0.11914806,0.19338635,-0.2606096,-0.24524885,-0.1680734,0.16818997,-0.04079432,0.09586456,0.38012406,0.16127934,0.0050325515,0.3272141,0.029195152,-0.40684724,0.030422924,-0.16775565,-0.105229646,-0.026457205,0.10185535,0.057397436,-0.3335036,0.0154993925,-0.19427457,-0.42879295,0.23474,-0.26454994,0.10223564,-0.39693034,-0.3886428,0.31125772,-0.3766431,0.19530077,0.04955115,0.19008012,-0.2746348,-0.010631934,-0.14951348,-0.2064626,-0.28449845,-0.0077965413,-0.11607157,-0.42010483,0.26073062,0.039215546,0.04536968,0.037552338,0.30725315,0.037791375,-0.1965829,0.19713013,-0.01735761,0.11971723,0.25117213,-0.051839378,0.037162114,-0.42809114,0.04157892,0.08062831,0.18559755,-0.22591992
-0.34691194,0.0997626,0.27647412,-0.040217455,-0.023760362,-0.28961092,0.10806957,0.06063126,-0.33453482,-0.0727768,-0.2095834,0.13301541,0.14172448,0.01316954,0.1405587,-0.115692265,-0.38322574,-0.057484243,0.057968892,-0.08878816,-0.21749203,0.17229438,-0.06466282,-0.11944999,-0.045207385,0.06442455,-0.58237636,-0.32389888,0.13514382,0.3456101,-0.14205734,0.060069576,0.105476625,0.2075887,-0.25727803,0.051878117,0.101158306,-0.013520937,-0.09657409,-0.5619002,0.14092828,-0.16739552,0.04066171,0.0038095447,-0.098172076,0.02598646,-0.048977297,-0.0864884,0.11095049,-0.24694847,0.189543,0.48672044,-0.119422734,0.35367468,0.09936202,0.24987662,-0.33295077,-0.41209033,-0.17817485,0.18177892,0.03280507,-0.32002717,-0.023549601,0.031544793
-0.017525433,0.15295279,-0.020830013,0.046561204,-0.2152243,0.14564319,0.009944368,-0.4791657,0.21549909,-0.08012931,0.38901654,-0.36653906,-0.011311783,-0.3214595,0.11870979,0.03798181,-0.15190022,-0.2413363,0.10394945,0.06532161,-0.04792992,0.27620775,0.020479865,0.20945892,-0.21621796,-0.1421275,0.13172825,0.22747298,0.20438386,-0.5144015,-0.029783359,-0.011288325,-0.39510864,0.13981876,0.239386,0.39806703,0.076048136,-0.027602002,0.05063298,0.27096948,0.0757554,-0.13728987,-0.24639806,-0.018722625,-0.016891673,0.05640709,0.1195231,-0.030203652,-0.090536945,0.33405438,-0.15506524,0.1329383,0.16910572,-0.5570284,-0.07391653,-0.44069368,0.19436853,-0.1264608,0.07714366,-0.16018395,0.04507873,0.04654145,-0.20886596,-0.19416147
0.020863183,-0.16312471,0.26759085,0.51734906,-0.53077376,-0.06550532,0.057508424,0.34537718,-0.11486644,-0.38685986,-0.02859247,-0.7735228,0.36850664,0.09593315,-0.2549222,-0.2992983,0.046658684,0.36210772,0.10785251,0.41184396,0.4621551,-0.045158282,-0.07159097,0.61627656,0.061351877,-0.31486648,-0.33716053,-0.27111378,-0.12272601,-0.006826125,-0.292841,0.73286176,0.069038175,0.11527252,0.040549148,-0.13940299,0.52507335,-0.6767993,-0.25115427,-0.4204173,-0.038274597,-0.1500081,-0.33926985,-0.2514052,0.30560696,-0.04113967,0.20153357,0.13868414,-0.08545872,-0.4494109,-0.36394164,0.3285956,-0.14309566,-0.038745258,-0.6097644,0.4048685,0.18444648,0.26222634,0.09636135,-0.13146795,-0.050695736,-0.13013288,0.44496596,0.12026475
0.4333212,0.15417457,-0.032256875,-0.49669856,-0.13194138,-0.120076805,0.2730207,-0.13143122,-0.06026865,-0.20492211,-0.08552384,0.058738723,-0.28472105,0.194969,0.069269896,0.10366586,-0.00805694,-0.3512234,-0.24678594,-0.18482473,0.16550168,0.33920002,-0.124112494,-0.18748522,-0.107175484,0.17167048,0.25264373,-0.09052228,-0.52420306,0.20058414,-0.075956166,0.20445527,-0.13182046,-0.074962646,-0.57690996,-0.31689596,0.10830904,0.045981683,-0.026829472,0.32981625,0.25361034,-0.12999792,0.23640935,-0.17101893,-0.43244573,-0.29128292,-0.114451826,0.15628198,0.4591661,-0.14845905,0.22259577,0.14952339,0.1876243,0.123026244,0.22951967,0.10882325,-0.05387233,0.2536264,0.04918684,0.022285422,0.119667955,0.09261274,0.14446902,-0.22980785
0.38685563,0.16664016,-0.093006484,-0.09723098,0.02339135,0.14691363,-0.30083588,0.32358563,0.0013021184,-0.017873501,-0.17201896,-0.0034756851,0.27393222,-0.022596577,-0.41799793,0.08619018,0.06647179,-0.09234116,-0.46651846,0.2376616,0.13864563,0.09010263,0.16445963,-0.2926885,-0.071337186,0.43421876,-0.06990277,-0.021063462,-0.0059520775,-0.005552127,0.11301842,0.36462864,0.36033568,-0.1304524,-0.30860287,-0.5762086,-0.013355667,-0.84446824,-0.5807041,-0.013401155,-0.31122094,-0.04368289,0.17158097,0.30669677,-0.202906,0.17505133,0.026491862,0.1010684,0.17275512,-0.6606658,-0.15062714,0.022219354,0.09769415,0.26569122,0.2802043,-0.15361838,-0.10289861,0.07267143,0.022870516,-0.18672593,0.3103941,0.14143227,0.029525397,0.3549011
0.30173245,0.0728582,-0.20994699,0.23153543,0.029611463,0.09128941,-0.08847765,0.3587647,0.13431188,-0.59935623,0.068562604,-0.8465534,0.21432333,-0.05740739,-0.4718236,0.06393785,0.18784708,-0.41290757,-0.15195408,-0.027784677,0.007742401,-0.20569973,0.0123447245,-0.02583618,-0.0530759,0.18005757,-0.14167611,-0.04997429,0.1800525,-0.2303446,0.2543428,-0.013037167,0.42718408,0.10322044,0.0007478065,-0.2624042,0.11621927,0.2981855,0.10158523,0.09491226,0.014186577,0.19240442,0.28651804,0.24933004,0.4025138,-0.21361093,0.03727888,0.16856684,-0.119921766,0.03928188,-1.0030223,0.3963175,-0.0015657764,-0.21235085,0.11023003,-0.15128972,0.20740762,0.12556618,0.14888172,0.059704002,-0.080196254,0.10335615,-0.05167993,0.30401108
-0.02481454,0.1627504,0.1988207,-0.17667294,-0.19321024,0.33010164,-0.57629603,-1.4726961,0.18582954,-0.20740815,-0.39935896,-0.08279848,0.25627702,0.2916989,0.18979764,-0.36816952,0.11914211,-0.014820636,0.022158049,0.16840327,-0.23634869,-0.29548746,-0.21585555,-0.07389357,0.049719017,-0.39512783,-0.004513669,-0.010145355,0.20789835,-0.2988694,-0.03204389,0.079453096,0.15863603,-0.0067219757,-0.14313388,-0.49119478,0.27303085,-0.15331158,-0.49778932,0.009326741,-0.017262919,0.11444301,-0.32149807,0.428367,-0.16137078,-0.08469634,-0.16154075,0.20758168,-0.032339413,-0.2102086,0.31802124,0.30737984,-0.37975967,-0.020768436,-0.4415393,0.023545096,0.045064118,0.27146387,-0.057065725,-0.06415568,-0.0052361805,0.31224847,-0.39107767,0.018392727
-0.13252175,0.18872806,-0.055150833,-0.0138165,-0.35821274,0.4717003,0.17507027,-0.15472874,0.52124816,-0.08284217,-0.37546253,-0.19655883,0.11682614,-0.19160298,0.19928424,0.09909708,0.46355057,0.39196888,-0.11537599,0.26127568,-0.24447615,-0.20213728,0.26862857,0.1140866,0.326857,-0.1275377,0.13497493,-0.5175238,0.13709079,-0.39406338,-0.16920964,-0.34641412,0.089661665,-0.26806393,-0.3315598,-0.13288763,0.19461334,0.04698386,0.00660933,0.13903473,-0.3023209,-0.15756182,-0.33169603,0.048046745,-0.12104192,-0.09664057,0.24694134,0.030124942,0.09674882,-0.64442265,-0.13601387,-0.4009545,0.11832564,-0.35196134,-0.13626547,0.21701111,0.40459478,0.567515,-0.0751874,0.16348998,0.13478197,0.5776254,-0.2614793,-0.12471131
0.15399265,0.3317967,0.08449078,0.1819166,-0.064476095,0.088953316,0.005960692,0.093506195,0.39933094,0.07902824,0.033653043,0.12993346,-0.3138458,-0.14942043,0.19747147,0.29695794,0.17825907,0.045209743,-0.41446787,0.34511212,0.0146696875,-0.063975066,0.13628829,-0.19490863,-0.05393486,0.084272705,-0.36094144,0.11450429,0.09897117,0.068759345,-0.004268649,-0.034976535,-0.17229685,-0.2203049,-0.16374986,-0.337977,0.3734861,-0.53004366,0.1698557,0.041211206,-0.1882589,-0.19869393,0.03478446,0.113881364,-0.2617655,0.28756514,0.2153999,0.06565185,0.095393725,-0.35799995,-0.012817281,-0.3875908,-0.118050314,0.25351834,-0.12566048,0.17523585,0.07480437,0.17178304,-0.13343662,0.33479607,0.1342495,0.33225283,-0.25703266,0.26378766
-0.02099818,0.046878766,0.22421521,0.09543214,0.25838587,-0.14017117,0.17252645,-0.05203012,0.1747243,0.07842529,0.32293737,0.023092434,-0.22105727,-0.044815235,-0.15692042,0.16427249,-0.27425095,0.29479116,-0.69209343,-0.10199704,-0.011393456,-0.12784106,-0.17567828,0.1454282,-0.29336768,0.041619066,-0.58859247,-0.06664037,0.039462954,0.17308229,-0.40321156,0.080533236,-0.17622657,-0.18710989,0.22845367,0.08678991,0.035435207,-0.03892449,-0.09642379,-0.35961136,-0.18912187,-0.1727411,0.29357702,-0.23872846,-0.61755925,0.4123339,-0.043292977,0.23231481,-0.18699178,0.44709772,0.20680521,0.1901283,-0.08607397,0.10675974,-0.20219836,0.21803707,-0.009506431,-0.27766746,0.039666783,0.21904857,-0.020997623,0.2703789,0.035625264,0.30722067
0.23967369,0.01910626,0.07816819,0.08176032,-0.2120911,0.06783755,0.15849501,-0.43120718,0.30990377,-0.34703916,0.16970894,-0.14437018,-0.27669635,0.028287783,0.11414628,0.31153807,0.0018260848,-0.05077669,-0.05503715,0.019886456,-0.114009365,0.19869259,0.35469988,0.012488213,-0.17695388,-0.21519558,0.077479295,-0.18185188,-0.3097378,0.16773824,-0.103163354,0.19220918,-0.23686495,-0.14271271,-0.10325579,-0.26234132,0.20991707,-0.07646754,-0.12059042,0.08434242,-0.15576571,-0.18065771,0.15026978,-0.18589334,-0.2650934,-0.13293639,-0.014370995,0.085219905,0.016183846,0.05668035,-0.054530088,-0.037861858,-0.15553163,0.24182796,-0.46820062,0.057353042,-0.054945547,-0.12968275,-0.19705081,0.38832492,-0.007097685,0.43917963,-0.02897101,-0.22644635
-0.06543409,0.080581,0.46608442,-0.10823683,0.1416158,-0.14653838,-0.48648208,-0.21434838,0.045295786,0.26663315,-0.028091112,0.21780662,-0.18104601,0.39603162,0.3215235,-0.07202258,-0.15640567,-1.015202,-0.272305,-0.12680298,0.21865103,0.011006299,-0.22602536,-0.46394122,0.13161579,-0.16682853,-0.29585248,0.03588975,-0.072255336,0.3457407,0.26080373,0.020388681,-0.44960037,0.013234542,-0.087548286,-0.0076347333,0.18865271,0.36962044,-0.16820621,-0.38484055,0.3391163,-0.20870997,-0.1897535,-0.24037242,0.14958903,-0.41202125,0.1626897,-0.036939785,-0.091961145,0.15233059,0.21961626,0.40039113,-0.33212453,0.1923901,-0.27020022,0.511153,0.015670031,-0.17184415,0.040787205,-1.0103034,0.02214361,-0.1565967,0.4093744,-0.6653064
0.44599578,0.22214328,-0.4792032,-0.030602759,-0.29609093,0.55769944,0.31427303,0.11445157,0.76733756,-0.17250474,-0.19484885,-0.29551122,0.1602223,-0.48737356,0.22595268,0.38460833,0.3931579,0.10611007,-0.18123084,0.345663,-0.35083744,-0.5831899,0.29516506,0.18189783,-0.07903512,-0.30346075,-0.1570743,-0.33268115,0.47558978,-0.36482888,-0.24773313,-0.14429615,0.16249463,-0.41146898,-0.15456153,-0.3580279,0.06461127,-0.3157968,0.012343215,0.00924193,-0.37878063,-0.15715456,-0.18451785,-0.09941579,-0.06733767,-0.45766813,0.49564293,0.13953379,0.17226472,-0.37665546,-0.36301506,-0.40793478,0.06579873,-0.6352052,-0.01265613,-0.615055,0.18535294,0.54422,-0.12523715,0.17922568,-0.12677982,0.5586092,-0.38718724,-0.1476889
-0.0033331565,-0.14155042,-0.26208627,-0.018458107,0.14901862,-0.14232646,-0.25926703,0.34812322,0.046219602,-0.4258225,-0.28290337,0.18963037,0.011864558,-1.1022263,-0.25267002,-0.05858118,0.18714654,-0.19937861,0.11161646,0.10659754,-0.022159005,-0.055598862,-0.24412663,0.09567718,0.05414489,0.25273544,-0.101875424,0.0770995,-0.13462162,0.14228675,-0.305319,0.001557391,0.23266089,0.19252883,0.04030959,0.18298973,-0.004977664,-0.23957089,-0.28118068,0.35080326,-0.057764135,-0.03426988,0.29699937,0.34028485,0.32732832,0.27511826,-0.24869204,-0.17324525,-0.33743197,0.12365369,-0.6211803,-0.07739097,0.32660836,-0.16388316,0.08145959,-1.0101708,0.11196187,0.12730604,-0.22754128,0.08406223,-0.08202707,0.08941186,-0.084105395,0.20951647
0.038705517,-0.38834536,0.1187697,0.39237958,0.24797408,0.29022825,0.18501107,-1.0045199,0.33615828,0.08044855,-0.3336163,-0.4282582,0.084558845,0.091270275,0.19948545,0.33106068,0.09629746,0.040545538,-0.14765355,0.08867522,0.20700616,-0.11091944,0.23871955,-0.10609009,0.42856848,0.1851743,0.30603057,-0.016117018,0.053404864,-0.5102829,0.16215272,-0.027158739,0.33143935,-0.17338707,-0.0995215,-0.04617699,-0.047322907,-0.067148425,-0.39247915,-0.07805202,-0.45133463,-0.17017074,0.11719916,0.08811609,-0.2761667,0.35770467,-0.02036408,-0.28176633,-0.37083253,0.050667573,-0.24112344,-0.50256616,0.12431932,-0.011728701,-0.045168128,-0.023942461,0.35543337,-0.10695079,-0.10319155,0.004014699,0.005664266,0.38608125,-0.47425446,-0.033981428
-0.036418326,-0.113294475,0.038884263,0.46989122,0.037095215,-0.059186988,0.24436001,0.80980504,-0.19682094,0.19345164,-0.37585935,-0.1707633,0.18600273,0.14355336,-0.4736962,-0.33998105,0.12733406,0.35920566,0.1262938,0.333087,0.15886992,-0.23473223,-0.26315868,-0.53075606,0.18417807,0.27054378,-0.454505,-0.056908473,-0.51523346,-0.4708819,-0.7744039,0.7300652,0.52730364,0.03566976,-0.23467101,-0.31081876,0.8411034,0.07427894,-0.5458509,-1.0383875,-0.24661376,0.04160064,0.24747428,0.52009743,-0.42294654,-0.27975348,-0.01602203,0.5002571,-0.25694713,-0.41253608,0.37857795,-0.5626686,-0.5112281,-0.6521364,0.091178,-0.017230606,0.049547724,0.18658176,-0.004268176,0.24657841,0.63784075,-0.06391319,-0.44344226,0.57416296
-0.47316724,0.42587036,0.095846035,-0.55206186,0.18554692,-0.37121302,-0.4422667,-0.15810804,-0.20127477,0.043201197,0.24624273,0.05742436,-0.004813609,0.36001325,0.3213858,0.2615557,-0.20856974,0.071495935,0.27392617,-0.0476685,-0.007568835,-0.27524203,-0.082442,0.27300644,0.08680383,-0.081453934,0.40570024,0.21303377,-0.009802837,-0.020834627,0.054084215,-0.35256103,-0.4194425,0.21965414,0.25849137,0.4527127,-0.27635047,0.23499453,0.29458475,0.08974582,0.4056326,-0.11346077,-0.1742921,-0.3005048,0.051353186,0.5062157,-0.26068202,-0.76976067,0.040874284,0.20432423,-0.1394911,-0.17007144,0.14950985,0.23763222,0.023804689,0.002378563,0.16153875,-0.019245176,0.034926657,0.14551792,-0.45988128,0.1434823,0.15296686,0.07417171
-0.14304872,-0.48731673,-0.25067717,0.17475936,-0.1658417,-0.25153276,0.44526345,-0.49944094,-0.1711257,0.09303643,0.108356886,-0.4238758,0.49974215,-0.013813116,-0.032227043,-0.582813,-0.15267548,0.17177455,-0.041410442,0.19144425,-0.30596113,0.19577359,0.06308935,-0.026193684,-0.0249243,0.2354231,0.068944596,-0.17524533,-0.015993785,-0.4589219,0.032252356,-0.27640545,0.07969813,-0.02820349,-0.04307216,-0.17283374,-0.09315349,-0.29608932,-0.31765628,0.22766903,0.07478884,-0.05850853,0.08121899,0.35374764,-0.21768923,0.27636412,0.12972075,-0.28379977,-0.9155165,0.0450605,-0.06188484,-0.15343627,0.00087388465,-0.27668515,0.28071934,-0.30430716,0.087968335,0.08516952,0.092141606,0.08380234,0.24215493,-0.11226788,-0.031621214,0.107524104