-0.020196576,-0.13834547,0.07524143,0.05369545,0.004259567,0.14428516,-0.18706962,0.07196746,-0.062103115,0.29072896,0.26822576,0.094006546,-0.014937321,-0.06992004,-0.13845344,-0.08670837,-0.33366135,0.22526917,-0.10604117,0.31036007,-0.08268872,0.08915971,-0.13277704,0.11899252,-0.043497916,0.2632196,-0.47223482,-0.062333014,0.08546742,-0.0034632438,0.019282322,0.007471178,0.30321836,-0.0970608,0.0016691757,0.0068161217,0.059546493,0.022201167,-0.27674702,-0.21109039,0.013130496,-0.11959158,-0.18839546,-0.03323521,-0.17403366,-0.37262216,0.043145977,-0.04156032,0.12299232,0.20922966,0.13226716,-0.1834083,-0.34516016,0.0035103515,0.019865535,0.009768677,0.01837742,-0.09564495,0.077038266,-0.034514673,-0.22808266,0.018211046,0.01899784,-0.106489
0.5443939,-0.36278418,0.12750629,0.20459336,-0.2184276,-0.2315107,0.36491597,-0.020080773,-0.062189475,0.33816585,-0.077006906,-0.1995605,0.16560492,0.2701645,0.06720875,0.2766868,0.13674693,-0.040356476,0.6531508,0.29258454,0.08311794,0.6910242,0.07213931,-0.01139309,-0.49293357,0.12943308,0.442456,0.34167996,0.13443418,-0.014369659,-0.6651194,0.0013263184,-0.040343985,0.13309798,-0.62103856,-0.0073102787,-0.06793403,0.086683854,-0.21052946,-0.39209476,0.054422643,0.0032801228,-0.08167201,0.6126567,0.16178605,-0.27000555,0.27802843,0.026955428,0.009587005,-0.13920657,0.08900323,0.057290874,0.27211007,0.017892234,0.027541278,0.23976547,-0.21167107,-0.3253265,0.10931043,0.034615975,0.0037447996,0.07654909,0.18816721,0.12393768
0.13748118,0.10764604,-0.37172243,0.63824743,-0.34493223,0.16591838,-0.07994146,0.09418138,0.058018096,-0.08179973,0.31451944,0.14890623,0.38542917,-0.43081495,0.68862534,-0.21964467,0.379997,0.21663591,0.043983508,-0.12692091,0.06446634,0.023647245,0.04792627,-0.17299187,0.1248754,0.25994635,-0.057139084,0.20723489,0.14401002,-0.657364,0.07478836,0.03614439,0.31710586,0.49139246,0.05829529,0.022256695,0.014112091,0.23440105,0.59810066,0.37823948,0.07867428,0.44727618,-0.16459908,0.09223939,0.65002793,0.23884787,-0.21043712,0.15565851,-0.5422853,0.19224751,-0.31523442,-0.62193596,0.3183334,0.20895052,-0.053994,-0.036382634,0.0615513,-0.0026709987,-0.23755199,-0.2944715,0.45052287,-0.72927034,0.23020445,0.22986653
0.022501322,-0.17962608,-0.007826363,-0.24431387,0.09294143,-0.16289873,-0.03470303,-0.061938614,-0.0056071854,-0.21431504,-0.021284256,0.04140659,-0.008601819,0.2867702,0.20231159,0.57378244,-0.13955285,0.14013802,0.3785868,0.66198146,-0.079004884,-0.33632204,0.0075483914,0.21841967,0.079287976,-0.05473168,-0.2942431,0.0010930928,0.112656616,0.18278381,0.18361221,0.117782004,-0.48834303,0.07223189,-0.09358581,-0.26705876,-0.09835281,-0.37042776,-0.26504683,0.082977876,-0.041583173,0.031923775,-0.2313085,-0.633596,-0.03761493,0.31607527,-0.15976042,0.19108354,-0.11000992,0.2919675,0.017220637,0.009290181,0.05457473,0.04191338,-0.013770253,-0.4638486,0.12355544,0.39173982,0.13029821,-0.18714009,-0.23422407,-0.25709096,-0.04608499,0.19774981
-0.22796309,-0.08428932,-0.17689514,0.02321335,0.09647992,-0.40729025,-0.15117174,0.08080492,0.051068287,-0.10928515,-0.2494693,-0.014944173,-0.43652412,-0.11409425,-0.36625585,0.043433297,-0.09361938,-0.26501837,0.041745957,0.25547117,0.018083183,-0.07629866,0.05766216,0.20178556,-0.1597619,-0.0995752,0.059415106,-0.35974133,-0.26075307,0.0197976,-0.04622556,0.1178417,0.09081812,0.052141186,-0.09790925,-0.12218858,0.20538032,0.3161685,-0.14948706,-0.05591913,-0.15257438,-0.59131056,0.35396403,-0.0087146815,0.02336807,1.8077571e-05,-0.10223016,-0.27502313,-0.45562407,0.10531993,0.28545108,-0.005074426,-0.108716846,-0.15298146,-0.07818782,-0.3361225,-0.24129245,-0.09472357,0.13120839,0.43416244,-0.3142005,-0.0010305165,0.12423981,-0.25206807
0.042879913,0.0014535877,0.47096622,0.060242906,0.53923386,0.09153583,-0.1563875,0.24668847,0.31044587,-0.5145597,-0.065592244,0.078656696,0.36386028,0.15255114,0.025638683,0.08046905,0.10354307,0.036041807,-0.13484086,0.016629271,0.17536764,-0.131577,0.2783598,-0.81330377,-0.57892567,0.26243797,-0.53561157,0.23253149,0.21208043,0.7443998,0.12702525,-0.17787993,0.044462543,0.115708634,-0.0065338206,0.1849833,-0.66257465,-0.08566907,0.18615602,-0.15824594,-0.6237184,-0.105476215,-0.5261272,0.036165524,0.17013806,-0.021584328,0.27774778,-0.48237538,0.48840353,0.12394536,0.4530204,0.14463663,0.27016962,0.3342269,0.28753993,0.029274065,0.101395465,-0.18440352,0.14312766,0.02453256,0.12650454,0.69094425,-0.7268291,0.17032918
-0.026236737,0.36486465,-0.48906833,0.75666404,-0.17138456,0.11380051,-0.025739884,-0.71583796,0.018199354,0.024909187,0.2702037,0.18462898,-0.30839765,0.22621047,0.6599439,-0.2952497,0.0034765308,-0.707276,-0.072477385,0.1101648,-0.7007977,-0.014512427,-0.4333424,0.2494737,0.02141385,0.331297,0.03232672,-0.37077245,-0.027532574,0.07380955,0.051809043,0.34220672,0.3165249,0.39621943,0.0048626456,-0.6753107,0.33000547,-0.29128852,0.19340572,-0.059210647,0.17114379,0.035830688,-0.0016782245,0.11192766,0.4132011,-0.29862472,-0.5716004,0.2747658,0.22486688,-0.18730505,0.063705936,-0.048016597,-0.024377843,0.30494848,-0.22701138,-0.36615643,-0.12927397,-0.75395983,0.26911822,0.1845616,0.17208134,0.13491288,-0.027615467,0.22824308
0.084378205,0.4133044,0.17605615,0.04014346,0.32754615,0.25223058,0.0737608,0.07175562,0.23712894,0.25365546,-0.53215516,0.33958092,0.21697418,0.2293021,0.016563755,-0.19940615,0.0696824,0.25957996,0.08099626,0.058001157,0.050171826,0.024897162,0.2712064,0.11217169,0.43681344,-0.051282816,0.37721366,0.15788177,0.31622168,0.1335,0.72234887,0.17000505,0.5024739,-0.40984884,0.5387194,0.018345352,0.11022821,0.4203327,0.38088644,-0.03578547,0.12668374,-0.09884927,0.21303202,-0.04905916,0.10144947,-0.31564984,0.33268964,-0.26894826,-0.005773229,-0.1497411,-0.2658778,-0.09032939,-0.49574733,-0.80338067,-0.6078018,-0.2397372,-0.5535661,0.27782285,-0.8728368,0.053539827,-0.5474386,0.22766936,0.2949496,0.112945184
0.5986115,-0.45773128,-0.074458696,0.15816893,-0.467554,-0.52217,-0.49267504,0.33099148,-0.6296909,0.064852126,-0.023068547,-0.79826516,0.27945146,-0.029533245,0.26138014,0.37005404,-0.4816716,0.18458879,0.23009373,0.2792228,0.079264484,0.52177835,-0.3486382,0.20589142,-0.1613203,-0.4734052,0.38602096,0.38074815,-0.6390134,0.24630924,0.13864014,-0.7685797,-0.09038749,0.030481694,0.012143998,0.27580974,0.2795761,0.20248519,-0.39982644,-0.1129039,0.113492124,-0.41786116,-0.18815683,-0.24745014,0.4063589,0.153599,-0.008997466,0.22263996,0.18921213,-0.384927,-0.5464955,-0.4747605,0.36385354,0.10700458,0.12337245,-0.04231892,-0.04310202,0.1856154,0.28928316,-0.52082056,-0.043894373,0.14242113,0.21705446,-0.57183456