-0.07189348,0.046479862,-0.15662114,-0.24191411,0.25885946,-0.01208974,-0.21922831,-0.5440738,0.35434175,-0.38033727,-0.23535134,-0.1149895,-0.37729222,-0.07271016,-0.31468573,-0.152728,-0.62268513,-0.05233463,0.05173444,-0.78756136,0.21892102,-0.051182352,0.13196085,-0.15479434,-0.11544704,0.2952107,-0.050094176,-0.29502216,0.08744552,-0.09095993,0.0703711,-0.36345285,0.21449777,0.14335085,-0.31125304,-0.5938133,-0.25110793,-0.38353288,-0.2744284,-0.3076986,-0.32628825,-0.061654814,-0.17673434,-0.4107904,0.2595114,-0.61491644,0.023253977,-0.466916,-0.31350634,-0.3579051,-0.18315165,-0.31221053,-0.86732346,0.021949023,-0.44360602,0.10937737,-0.7865845,-0.5865027,-0.60844916,0.057329983,-0.14496256,-0.16228653,0.0020331852,0.22779721
0.13394341,-0.40350693,-0.30845338,-0.41191983,-0.093131535,-0.020418532,-0.10133976,-0.83565724,-0.08347544,-0.62203467,0.18243289,-0.10726399,0.34331465,-0.8646566,-0.1476538,0.13476208,-0.21728054,0.068590045,0.16950543,0.010485508,0.055465292,0.35946184,-0.42107365,0.07896893,-0.1165462,-0.47584376,-0.10238792,0.028073808,-0.19150706,-0.33974433,-1.045502,0.40804622,-0.18996109,0.14857997,0.18591346,0.44093892,-0.033248838,-0.063641116,0.08794699,0.4239215,0.053305697,0.17003363,-0.07353277,-0.021799726,-0.22823967,-0.54688895,-0.10509576,-0.01436097,0.109984815,-0.5257051,-0.027423091,-0.41466105,-0.35586226,-0.23000081,0.13895607,-0.20755506,-0.48593315,-0.694085,-0.12954728,-0.069936015,0.25231123,-0.027239809,-0.25512072,-0.24228199
-0.22600563,-0.30506587,-0.023415677,-0.50290954,-0.86924523,-0.121337324,-0.060366843,0.042564873,0.01836317,-0.15214951,0.45500872,-0.087740675,-0.81313527,-0.40710583,0.036663476,-0.13928263,-0.5513266,-0.049847197,-0.36564913,-0.042899746,-0.7310077,-0.14454602,-0.72828484,-0.39445427,-0.0651593,-0.18321311,-0.12737288,-0.27936092,-0.2353231,-0.1952842,-0.27097735,-0.04243191,0.47574493,-0.025106315,0.2891715,0.233093,-0.3298839,-0.09187982,-0.6968358,0.53271997,0.22043648,-0.4646559,-0.503126,0.33271357,0.4035068,0.2581567,-0.24881098,0.083161116,-0.23980603,-0.013213722,-0.767151,-0.16966622,0.020221481,-0.2049526,-0.26115972,0.01288421,0.11235591,0.022024503,-0.28873286,-0.045485064,0.13055556,-0.37772664,-0.2739643,-0.44647673
0.3297829,0.001035714,0.08572347,-0.0533267,0.5530553,0.047725465,0.041084204,0.511033,0.4747976,0.7997862,0.14597678,-0.22229256,0.20113707,0.91132945,-0.016232083,-0.06388353,-0.010583596,0.061332926,0.1447778,0.16306473,0.029780634,0.29850864,0.18347089,-0.22966206,0.052506026,0.681619,0.24747401,0.15095025,-0.058256887,0.41484964,-0.31974417,0.12270341,0.4132512,-0.055978112,1.0572428,-0.053843763,-0.10546102,0.11825001,0.462957,0.45888615,-0.19607843,0.5537368,0.007185104,0.38071924,0.35207972,0.6294714,0.017704459,0.28931275,-0.19346237,0.1566851,-0.070123315,0.5354169,-0.018090272,0.16658773,0.39438808,-0.37164018,-0.095545426,0.073218845,0.12802494,-0.02613222,0.0011508862,0.23348722,0.08285919,0.16256371
0.13375705,-0.04025601,-0.12802812,0.014522664,-0.3120518,-0.0060212635,-0.3128827,-0.380325,-0.19387147,0.15548131,0.01138346,-0.15927571,-0.20754735,-0.21420431,-0.16233929,0.036399458,0.06395771,0.016393205,0.086502016,-0.029354246,-0.24270307,-0.12841827,0.11486051,-0.07476259,0.009712487,-0.14975083,-0.06790133,-0.13233823,-0.37206158,0.06082102,-0.13159744,0.07359979,-0.003159434,-0.17693952,-0.08052521,0.11330217,0.21964608,-0.38816145,-0.1583576,0.083761245,-0.6136985,-0.48743555,-0.011906901,-0.4199918,0.050864562,-0.013676347,-0.19553283,-0.37007046,-0.26224694,-0.46719193,-0.69514686,-0.100621425,-0.769408,-0.39695212,-0.08996168,0.08166403,0.047536857,0.13114797,-0.073423974,-0.003655913,-0.3156887,-0.05792486,-0.11676609,-0.5817824
-0.24419522,0.11760927,-0.029231507,0.16021858,0.43055293,-0.24517873,-0.062131148,-0.12780972,-0.09303634,0.59666365,0.67436,-0.09077641,1.1200161,-0.6324102,-0.2715558,0.4888644,-0.008201074,0.022117337,0.6711135,-0.63336444,0.41989744,0.4479993,-0.14365163,-0.31078464,0.12799266,-0.14645818,-0.06600986,-0.08612807,-0.25502783,-0.54833496,0.21786472,0.598511,0.20196882,-0.23892811,0.53165543,-0.094058566,-0.7129123,-0.09672167,0.2459025,0.49546075,-0.06351441,-0.30742636,0.18979537,-0.08814126,0.04676717,0.56092876,0.17513347,0.06296441,-0.20331198,-0.5916409,0.34771755,0.23974487,-0.52881867,-0.012956607,0.22799449,0.30761033,-0.11332142,-0.11594739,-0.12092288,0.5018166,-0.25447828,-0.1929841,-0.13591444,-0.072878934
0.016189488,-0.14739765,-0.0867434,-0.17373094,-0.01653142,0.07858117,-0.106888995,0.12406495,0.0076643354,0.14929806,0.07708759,-0.032827083,-0.012276544,-0.08306576,-0.10616404,0.17715666,0.18569611,-0.101043016,0.115806155,0.11031352,0.009764456,0.04826069,0.09398346,0.10464461,-0.08305524,0.019806644,0.037215788,-0.05323945,-0.18266739,-0.1408704,-0.067416854,-0.20023346,0.019643897,-0.08288579,0.18695453,-0.05948746,0.034282085,-0.012369867,-0.019812198,-0.03807115,-0.17526305,0.14405467,0.1606668,0.047475692,-0.13622251,-0.0747121,0.098896615,0.07202852,0.041353,0.1481118,-0.1825335,-0.15529059,-0.06829709,0.17481314,-0.16592889,-0.24541436,-0.06031669,0.23046118,0.035633035,0.13905883,-0.19596526,0.14117916,-0.014277741,0.18242842
-0.057191137,-0.06446241,0.16784182,0.1083201,-0.0125496015,-0.16636288,-0.11649001,0.2311386,-0.22858393,-0.14855002,0.02947091,-0.091111876,-0.09050343,-0.02347183,-0.041167986,-0.12709458,-0.13106564,-0.22509715,0.14237213,-0.011688207,0.05143114,0.2234718,0.20095164,-0.1030858,-0.057533104,-0.17451854,0.1761325,0.07291292,0.10648359,-0.1313239,0.121519744,-0.16779381,0.047447186,-0.005300043,0.021426788,-0.148328,-0.00093325117,-0.19467062,-0.060622174,-0.0004997128,0.15131277,0.07929838,0.13657565,-0.2631251,-0.00705731,0.26319018,0.13747555,0.103666104,0.18936816,0.12353089,0.120644376,-0.099078156,0.05242,0.17497072,-0.16131158,-0.12371937,-0.052316092,-0.20328541,0.04014586,0.07759715,-0.16048253,0.17028083,-0.07815819,0.15018365
-0.24149507,0.30727592,0.14882675,-0.047075834,-0.11605041,0.012350513,-0.06274657,-0.2008086,0.23436214,0.0047728075,0.058029,0.13402037,0.011324401,-0.108400986,-0.049236856,-0.027383568,0.0053150193,0.05019384,-0.017780151,0.32626575,-0.04518109,0.3385084,-0.081767514,-0.1417491,-0.10557455,0.124533795,-0.14192306,0.14641766,0.044454567,0.12119735,0.16878024,-0.14944938,0.04226946,0.19827792,0.04886353,-0.17342658,-0.13569121,0.11189706,0.187552,0.0742876,0.0535452,0.27024838,0.06609452,-0.044299386,-0.0177383,-0.027303223,0.08490315,0.06866559,-0.05426825,0.03698456,-0.13290775,0.0006352176,0.1400404,-0.18134576,0.07608626,0.047363613,-0.077194,-0.011910529,0.02021065,0.11680997,-0.04187704,-0.0370709,0.016651915,-0.060708903
0.0513717,-0.07530579,0.14432128,-0.119548544,0.17322092,0.09633692,0.011135697,-0.07703095,-0.1645551,-0.09459975,0.023039393,-0.11590774,-0.14836676,-0.0017166028,-0.08144876,-0.006862511,0.109956115,-0.083861485,-0.03848938,0.17771791,0.17548744,-0.0052988552,-0.1909013,-0.029994577,0.07741888,0.1508871,0.08935246,-0.17385247,0.096138306,-0.13180047,0.12124405,-0.008000701,0.15059528,0.13701047,-0.0951327,0.016230715,0.10455018,0.22111906,-0.03101545,-0.12106266,0.16260485,-0.21182732,-0.23195349,-0.2709841,-0.066123165,0.059146564,-0.02098216,-0.1334482,-0.015702048,-0.09836402,-0.1373151,-0.09811397,-0.008391317,-0.095022924,-0.07326157,0.06946635,0.06867396,0.10606155,-0.105477676,0.17090036,0.18344158,-0.19793426,0.07709854,-0.22226912
-0.17662568,-0.034353048,-0.16323559,-0.9175283,-0.34606633,-0.21738714,-0.14403427,0.016230073,-0.32903296,-0.15219462,-0.53304267,-0.16100721,0.01356219,0.25362006,-0.115499325,-0.13840729,-0.44624397,-0.19168328,-0.3730141,-0.2255717,0.09478076,0.3936402,0.07987378,0.19739011,-0.11476025,-0.072499014,0.048109554,0.012035223,-0.19022523,-0.30404946,0.017882112,-0.6048426,-0.40139118,-0.26684144,0.11241603,-0.6152704,-0.22166528,-0.05789998,0.07084898,0.20697594,-0.12884894,0.17358515,0.067170076,-0.17271224,-0.4012098,-0.22908288,-0.12972738,0.13389722,0.013689965,-0.5603144,-0.046858747,0.17920332,0.047390416,0.013625472,-0.44839305,-0.15348172,-0.1408667,-0.41346753,-0.41900957,-0.6414438,-0.20589256,0.27660263,0.003296361,-0.4177621
0.07964628,-0.15165246,-0.14408466,-0.002101447,0.057864398,-0.7306166,0.027093528,-0.18219642,-0.18463655,0.15953037,0.19727418,-0.11498081,0.12118618,0.18895745,-0.18852417,0.06583609,-0.31020075,-0.07590885,-1.1277664,-0.38376877,-0.016466454,-0.9371393,-0.11874709,-0.5583342,-0.16710675,0.45651117,-0.13734037,-0.03345586,0.29984468,-0.31385416,-0.5501991,-0.5272045,-0.1805319,0.00017783647,-0.13113628,-0.27850136,-0.12041978,0.053730637,0.16266392,-0.19513127,-0.00547582,0.21816601,-0.7347226,-0.050852638,-0.16847947,-0.6197797,0.019542731,-0.4261093,-0.057801235,-0.1712359,-0.08487422,0.006247339,-0.6067689,-0.06998012,-0.3192076,-0.03339806,-0.01137837,-0.027286593,0.039583344,0.1589495,-0.41257867,-0.709236,-0.1393731,-0.40421364
-0.15993637,-0.20072158,0.028401114,-0.021534048,0.15751903,-0.68483114,0.21665128,-0.2615178,0.6713538,0.5513199,0.033221647,0.16877338,-0.5810566,0.52923185,-0.10170457,-0.17849068,-0.037111882,0.13060303,-0.34428144,0.52256966,0.46130586,0.48010224,0.2561966,-0.9274775,-0.11077678,0.07540152,-0.1730416,-0.089951456,0.4948101,-0.6615731,0.5447469,-0.8021698,0.52804327,-0.16599971,0.11907965,0.7351973,-0.72737765,0.08322441,-0.1975901,-0.42214146,0.021641234,0.2845057,-0.25349104,0.249678,0.66753423,0.3072393,-0.15645395,0.10818818,-0.12019326,-0.03795176,0.1066812,0.63040465,0.0041384883,0.146407,-0.93455637,0.27858585,-0.3156208,0.34770665,0.16822658,0.17193629,0.44959685,0.15785778,-0.18327662,-0.12398012
-0.08283949,-0.092791356,-0.00055880635,-0.13268736,-0.09442467,0.028371193,-0.12781024,-0.21812217,-0.061029702,0.025198651,0.071798466,0.09577698,0.19985484,-0.14740092,0.0543812,-0.016987722,-0.04627795,0.009850761,-0.072184265,0.16361757,-0.14615102,-0.19012293,-0.044382956,-0.0032604905,-0.05149553,-0.047474317,0.020103913,-0.07825407,-0.08163078,0.104994275,0.047864698,0.20137197,0.1474097,-0.25770748,-0.23033576,0.012741208,-0.038793076,0.12584132,0.05761625,-0.07478975,0.045711637,0.018537033,0.009626478,-0.07839804,0.11245051,0.13691266,-0.2033325,0.1668599,0.02593347,0.020883482,-0.14065005,0.08949329,-0.008167651,-0.005098534,-0.26551187,-0.07616777,-0.053834982,0.1806004,-0.16485725,-0.16920723,0.13630392,-0.04659421,0.18349707,0.079976775
-0.4635044,-0.39253125,-0.11153111,-0.20630921,0.4964621,0.17498693,-0.18077733,0.25029853,0.21780127,0.027217304,0.090930216,-0.17131922,0.54539776,-0.039833523,0.06762732,-0.78577,-0.4432371,0.030348256,0.4327999,0.3222649,-0.14281169,-0.084375486,-0.17182705,-0.46482375,0.15414025,0.29051772,-0.08483889,-0.39952472,0.2792896,0.1738731,-0.11399117,-0.06298234,-0.0052721878,-0.4237338,-0.08681733,-0.35534605,0.08705666,-0.4071019,-0.13489941,-0.14833526,-0.3570888,-0.3380595,-0.26143712,-0.029078892,0.470789,0.34199208,-0.048867714,-0.011111855,-0.5219362,0.21592602,0.52345985,-0.62190634,-0.07847741,-0.18416007,-0.43617254,0.17917286,0.14854373,-0.12767147,-0.28425196,-0.31987402,-0.518344,-0.14420193,0.021992069,-0.4579752
0.23286343,0.19063543,0.16896082,-0.1545306,0.40383866,0.3413947,-0.20289187,0.23834054,0.5445094,-0.07759348,0.31198707,-0.073796965,-0.04900432,-0.05844697,0.09820334,-0.1679667,0.11333895,0.23866357,0.46568793,0.038666137,0.24277075,0.2260004,-0.0154620595,0.5145477,0.06404689,0.27404755,-0.21870703,0.17601569,0.11460524,0.1597088,0.071561135,0.31982458,0.3198589,-0.16240609,0.4722024,0.060486212,0.1839842,0.25929183,0.2998721,0.12803024,0.27387062,-0.15150529,-0.05996193,0.3265898,0.3527143,0.06401159,0.220548,0.38840318,0.20222653,-0.0556886,-0.037906703,0.23844796,0.084798425,0.10773159,-0.40799534,0.13828921,0.19022186,0.34181517,-0.050457478,-0.20822941,-0.053165603,-0.18954474,0.006468105,-0.24117033
0.047760285,-0.8097438,-0.32797378,-0.012011709,-0.15932177,0.072134875,-0.0031571235,-0.52818424,-0.15348911,0.2477382,-0.05541917,0.14185172,-0.12081324,-0.08379384,-0.045009598,0.1287228,0.012854655,-0.090387635,-0.09224568,-0.084719874,0.21484002,-0.030789195,0.31328043,0.055518314,0.0651262,-0.068846606,0.11299163,-0.16332187,-0.5574497,0.030474745,-0.40670705,0.12962936,-0.14330122,-0.014984981,0.25012374,0.3355559,-0.12748615,-0.2786184,0.42543048,0.08046117,0.22061488,0.08955462,-0.6019728,-0.33478504,0.17542018,-0.39868477,-0.105711974,0.20173103,0.06445164,-0.29555538,-0.38246727,-0.2111781,-0.31263846,0.027764667,-0.45580116,0.1302504,-0.07855582,-0.05269705,-0.037703004,-0.18230493,-0.14961275,-0.030367736,-0.03955991,-0.55720836
0.0066427016,-0.413123,-0.14627941,0.28714597,0.26025173,-0.011567054,-0.21867265,0.08733483,0.545343,0.06949392,0.14265822,0.21446589,0.53709847,0.1948864,-0.09820324,0.14613402,-0.15226635,0.07972853,0.4480265,0.40424895,0.107342444,-0.12257534,0.35129,0.071542785,-0.1529593,0.14173555,-0.25236246,-0.22185068,-0.5626829,-0.31753892,-0.30958784,0.46132508,0.48022887,0.08950331,0.17769472,-0.15493706,0.0020780056,0.24234787,0.24079834,0.41395745,0.41210547,0.3080315,0.18734957,0.13870335,0.37562555,0.17746276,0.10524935,0.0816828,-0.15331544,-0.087991476,0.23427235,0.05458797,-0.026079334,-0.23593268,0.11946223,0.2209168,0.23499614,0.021866068,-0.16830696,0.12337461,-0.33130613,-0.00748914,-0.09074052,0.18746775
0.163254,0.19537765,-0.19063975,0.2242612,0.09274255,-0.14637563,0.046250984,0.17709167,-0.00017028922,0.026595699,0.10150762,-0.03350704,0.11019214,-0.0077528697,0.10504943,0.1779813,-0.044330295,-0.12864313,0.07734872,0.069856554,-0.016112218,-0.124216616,-0.14698614,-0.18500474,-0.013056438,0.17356934,-0.21444106,-0.1957936,0.19558892,0.008488215,0.06451812,-0.041741375,0.04807751,0.106424786,-0.019023005,-0.07443442,0.12250348,0.11080988,0.16443689,-0.08703407,-0.07977592,-0.094711356,-0.20199315,0.03475728,-0.019345008,-0.010496424,0.11453059,-0.09589896,0.13565868,0.007719778,0.13711932,-0.029771272,0.13800463,-0.2228131,0.09738168,-0.0072549144,-0.15169245,-0.15369625,0.07212596,0.20882466,-0.08459308,0.20807897,0.01959024,0.037396394
0.45500848,0.0051125595,0.06466564,-0.13544533,-0.18000819,0.54321676,-0.16112244,0.25896862,-0.15314211,-0.06575766,-0.6058757,0.028061802,0.020532966,-0.2450689,-0.15066957,-0.26272497,0.4098058,0.042978067,0.47668234,-0.31004196,0.34538466,-0.42489383,-0.5865542,0.32136226,-0.031203285,0.2761291,-0.26540816,0.014250938,0.06323426,0.39857835,-1.0863128,0.03452933,-0.35658562,-0.82278144,0.18455374,-0.20649147,0.012688199,0.1762953,0.44458407,-0.32914054,-0.25942147,0.2012577,0.41036534,-0.46372288,-0.071118236,-1.0003598,-0.12109567,0.22138728,0.029301606,-0.9936932,0.18622315,0.24674088,0.5491906,-0.15385193,-0.25047842,0.12292895,0.07115135,0.22665429,-0.099800475,0.028503684,0.21262497,-0.9619673,0.025993718,-0.16915764
0.18731824,0.6501077,0.15202057,-0.19492008,0.3566233,0.33368018,-0.20484167,0.0010807062,-0.012655921,0.15711823,0.20596923,-0.07864541,1.008328,0.22946452,-0.122409865,-0.28203425,0.55742633,0.19898768,0.41434735,-0.21878363,0.0099789975,0.35246557,0.8476635,0.44306296,0.14883773,0.4343181,0.13219802,-0.1374555,-0.013930498,0.508614,-0.9348724,0.77363354,-0.18506815,0.5570316,0.7828407,-0.15168107,-0.73009914,0.728966,0.30976132,0.5653279,0.6932042,-0.15117136,0.18973742,0.47700837,0.04933903,0.089972414,0.030366436,0.70539343,0.23050244,0.29901832,0.046832636,0.11403613,0.28910798,0.043116465,0.05204899,0.7161754,0.34385663,0.797854,-0.041629713,-0.008231162,0.8335498,-0.3323061,-0.16327728,-0.13818741
0.2725353,0.003837602,-0.37511146,0.09322362,0.008746025,-0.09870577,-0.32023388,0.41747293,0.068502784,-0.34916607,0.0036267359,0.19628696,0.0023019847,0.43800104,-0.29298073,0.098033436,-0.44949606,-0.13723993,0.27358818,-0.072378516,-0.24551937,0.48341873,-0.06289822,0.091483265,0.011081439,0.16317526,0.21787629,-0.2375576,0.34615812,0.42327788,0.25417113,0.35464448,-0.30394873,-0.02699915,0.14491153,0.021494683,-0.5445738,0.7286949,-0.19109063,-0.21695217,0.38426012,0.50547314,-0.21342419,0.047317646,-0.37989625,0.12908505,-0.30345586,-0.098779865,0.5107322,0.27780825,0.4905099,-0.1176565,0.5390445,-0.017623287,0.18527983,-0.54553133,-0.33199748,0.22989558,0.37189978,-0.40457985,0.20736575,0.12351734,-0.34972486,-0.36793843
0.07554879,-0.5218076,-0.04150115,-0.22000878,-0.57844067,-0.23452157,-0.10476285,-0.3399385,0.10784475,-0.18280798,-0.41948304,-0.13073847,-0.033829313,-0.83170545,-0.104490615,0.0026346992,-1.6120784,-0.13379857,-0.45824236,0.3321658,-0.007866572,-0.2830145,0.06028316,0.032996453,-0.19436532,-0.09655492,-0.3262819,-0.048985463,-0.3921414,-0.09940834,-0.15857413,-0.27111697,0.08607074,-0.41438133,-0.3216582,0.11702369,-0.16476515,0.13613811,-0.105097406,-0.59550333,-0.5195261,-0.7828701,-0.017737042,-0.18915848,-0.022200827,-0.18486117,-0.18128012,-0.13317667,0.029564627,-0.12801051,0.10883591,-0.50252026,-0.38678056,-0.46981734,-0.28133926,-0.16876972,0.17748351,-0.41492677,-0.52811545,-0.12470913,-0.32969978,-0.8677385,-0.14911932,-0.1907172
-0.588779,-0.29788712,-0.014100346,-0.18535614,-0.74565977,-0.096512794,0.10398552,0.4097709,-0.5195543,-0.15585677,0.25246868,0.02240341,0.025192019,0.1054202,0.023563659,-0.87430763,-0.30113927,-0.20685333,-0.30525008,-0.1779677,0.025216112,-0.2951071,-0.55789644,-0.08187235,0.11252614,-0.24445412,-0.003557172,0.11354428,-0.42561933,0.15226848,-0.09548637,0.4530192,-0.10097691,-0.6128527,-0.10465921,-0.4374935,-0.8370715,-0.34314445,-0.017236758,-0.016120113,0.24369472,0.13347396,-0.31309175,-0.033664368,0.15133241,-0.13271467,-0.09572222,0.19257295,-0.17409886,0.34222683,0.07029567,0.12605058,-0.34193882,-0.11675586,0.230928,0.060019616,-0.63193655,-0.14704171,0.047798324,-0.15644166,-0.5238783,-0.29133984,0.018514799,-0.28414717
-0.023073034,-0.50280225,-0.15974528,0.01504076,-0.18323421,-0.111122325,-0.18365918,-0.32475942,-0.08404287,-0.22998089,-0.063128434,-0.40217358,0.15365504,0.06619179,-0.17437144,-0.050876494,-0.37942827,0.020429924,0.081948176,-0.0075353393,-0.074802645,0.03659041,-0.35802644,-0.4899123,-0.1585894,-0.15354915,-0.09253611,-0.27178872,-1.4874614,0.060912147,0.23401077,0.11455172,-0.077020116,-0.2652623,0.09948557,0.13990676,-0.37898687,-0.020715317,-0.023750702,0.2931607,0.17651267,-0.23994768,0.05974682,0.068065114,0.06900533,0.35404822,-0.21968865,-0.71085376,0.10556182,0.06688037,-0.52723736,-0.43214494,-0.34000096,-0.16466914,0.08008797,0.35907745,-0.5354936,-0.3984472,-0.2007549,0.13460691,0.30076143,-0.019827902,-0.008174599,-0.3846289
-0.2145566,-0.4424544,-0.28585863,0.06462986,0.028729629,-0.7325702,-0.29433662,0.0001749782,-0.03108882,-0.04148579,-0.6568147,-0.08399084,-0.6493079,-0.13777147,-0.031443544,-0.8825153,-0.10235635,-0.15269507,-0.32500464,-0.11290537,-0.8156572,-0.66058904,-0.022796502,-0.4678498,-0.018454202,0.07044028,-0.1495474,-0.2671205,0.19579038,0.14280252,-0.3771668,-0.24212493,0.29063752,-0.2801239,0.17901097,0.104861535,0.011005611,-0.84646577,-0.32108954,-0.19922146,-0.0035287698,-0.12003659,-0.13962436,0.26523992,-0.014582447,0.085467696,-0.33405185,-0.47257996,-0.197679,-0.5804952,-0.17188814,-0.16091518,0.09266106,-0.09819318,-0.8298841,-0.1293173,0.12598015,-0.010955758,-0.045008425,0.13488531,-0.074340895,-0.21309768,-0.3871491,-0.48052797
-0.14934339,-0.029625569,0.15494378,0.34725568,0.14705145,-0.52183807,0.078230605,-0.33557063,-0.08876404,0.16930957,0.17400253,-0.15219271,0.4661857,-0.21004243,-0.060148925,-0.069298044,0.025099646,0.1409384,-0.32142055,-0.34571913,0.4611678,0.22371605,0.31258988,0.27463147,-0.044117633,0.086360544,-0.028402759,-0.20590433,-0.22597452,-0.48774824,-0.38951778,0.27540296,0.38799968,-0.20741647,-0.23558253,0.09463171,-0.5621532,-0.024107726,-0.23424985,0.37555772,0.10181438,0.09474291,-0.2481868,0.023799255,0.2572044,-0.35103372,-0.09866428,0.19015345,0.19827323,0.18507844,0.065722354,-0.05143549,-0.16286425,-0.1294674,-0.41757584,0.06757546,-0.26198393,0.40239042,-0.22160122,-0.69783103,0.1346072,-0.74930865,-0.076457456,0.090415694
0.35701373,-0.47124597,-0.00661624,0.1314962,0.061667047,-0.10274882,0.036257476,-0.7147832,-0.4141648,0.46453604,-0.1109648,-0.052301068,0.26814604,-0.020118754,0.0432532,-1.3061216,0.053054832,-0.18402708,-0.06962061,-0.5291231,-0.6324427,-0.06299175,0.1314886,-0.013847033,-0.12867373,-0.38376844,-0.25828078,0.017120585,-0.5459403,-0.7729335,0.036256768,0.31603524,0.14699675,-0.40823004,-0.07791613,0.21934462,-0.104779765,-0.3717576,-0.38819438,0.27410436,0.3653678,0.13869572,-0.1424693,-0.08395531,0.14170791,-0.5846005,-0.07077722,0.06307893,-0.11519272,-0.4895402,-0.15855068,0.01296482,0.4928409,-0.19498402,-0.057738196,0.5852338,-0.29744175,0.17768013,0.38181356,-0.07007066,-0.16428438,-0.09919727,0.024847226,-0.2850944
-0.0076515777,-0.033043884,-0.18844102,0.19428143,-0.117639594,0.14155816,-0.04197921,0.048329875,-0.16701528,-0.07129331,-0.06233011,0.057849452,-0.085238725,-0.13952285,-0.040576354,-0.08563888,0.07448938,-0.17023227,0.17065056,0.036554035,-0.103613034,-0.18080732,0.19455452,-0.14711353,-0.0787573,0.13559492,-0.23746878,0.113634065,-0.041183554,0.21581966,-0.027626542,0.029338647,-0.0045146197,0.14073731,0.15235345,-0.14748172,0.21812782,0.04564173,-0.037812527,0.13604374,0.044463694,0.07569916,-0.07827436,0.057108983,-0.033614278,0.1260819,0.065337166,0.15722886,0.009831846,-0.13330212,-0.012154609,0.029710999,-0.043071583,-0.039266825,0.1584488,-0.13483384,-0.03391948,-0.00658095,0.17440912,-0.1714539,-0.033339035,0.13227554,-0.15465169,0.07315008
-0.122088075,-0.35295114,-0.31562722,0.14433643,0.097957544,-0.49461305,0.048365094,-0.12763695,0.33176523,-0.13389619,0.009174454,-0.19422649,-0.014720779,0.26695323,-0.025975958,-0.07346368,0.03031426,-0.08021962,0.1834969,-0.09139653,-0.18868782,0.16260602,0.2863846,-0.31881192,-0.04681719,0.3351826,-0.09585924,-0.229919,-0.34234452,-0.74251837,-0.83046925,0.10302654,-0.09330226,0.091029495,-0.08547378,0.011049929,-0.4657941,-0.26589292,-0.3333903,-0.33096224,-0.17165522,0.12944235,0.22323115,0.12444501,-0.112068735,-0.39290008,-0.23562638,0.006350565,-0.39151144,-0.54933137,0.18727444,-0.9733209,0.18812183,-0.48738417,0.11959422,0.121163554,-0.025728432,-0.12827437,-0.09130695,0.17434739,-0.1372998,0.16018347,-0.2281834,0.09857366
0.053480953,0.19838053,0.20141776,-0.06435474,-0.06281867,-0.105233684,0.10697789,0.22262044,0.06868605,-0.17151096,0.1209405,-0.14336745,-0.11254764,-0.04877128,0.00022656893,-0.011834557,0.22704835,-0.059541687,0.17278071,0.27558818,0.1523325,-0.15834239,0.028238567,0.16333854,-0.121092595,0.32921034,0.041122813,0.13707967,-0.02420005,0.20950583,0.15963578,0.12794866,0.09072284,-0.01091764,0.12171202,0.018862726,0.12738784,0.022310121,0.085004576,0.095717415,-0.033832744,-0.16099732,-0.04327724,0.04349944,0.19536541,-0.06901769,0.17240638,0.05524931,0.09055304,0.12943298,0.11489482,0.07039079,0.07167842,0.03551757,-0.19510548,0.007375243,0.043199364,-0.06727031,0.16680491,0.07690071,0.040075712,-0.23518714,0.045748193,-0.06683186
0.08994968,0.008332144,-0.049624298,-0.33561036,-0.4272511,-0.02417705,-0.16871792,-0.22878356,-0.13540174,-0.11312097,-0.18157375,-0.22634284,0.058544964,0.07437419,-0.03679577,-0.2762738,-0.5832608,0.056144226,0.15025192,-0.23857768,-0.60595536,-0.097227044,-0.25447014,-0.19780812,-0.106878124,-0.27876353,-0.41465107,-0.17505255,-0.65552837,-0.31335995,-0.7404106,-0.27883947,0.044487,-0.38975984,-0.2705013,-0.00059127616,-0.90178245,-0.41909045,0.074383095,-0.08295904,0.2807725,0.075996265,-0.4330203,0.072909564,-0.14713188,-0.05490698,-0.09070308,-0.15716788,-0.24308532,-0.13206272,-0.16141035,0.1456873,0.06425838,-0.3650371,-0.000104581,-0.27037418,-0.51757437,-0.3413241,-0.3408053,-0.5806724,0.10540001,-0.4511888,0.07047048,0.12941305
-1.0352829,0.2359937,-0.2229662,-0.24281238,0.14790562,-0.08263625,-0.2201183,0.008336261,-0.0149097955,0.18140586,-0.1125405,-0.11274069,0.023360034,-0.38342148,-0.08381197,0.2517416,0.4342063,-0.13651295,-0.081383236,-0.13245457,0.3595401,0.0039022681,0.36688477,0.16460533,-0.18611144,-0.042311076,0.0037321076,-0.29263797,0.3766774,0.22442485,-0.023523215,0.41634732,-0.24463813,-0.27716237,-0.06811616,-0.18847857,-0.44546926,-0.266653,0.034099936,-0.4167039,0.2515969,0.54729944,-0.19324844,-0.3935409,0.09368432,-0.43656418,0.024866696,0.35798588,0.5010337,0.75471896,0.46153405,0.47123244,0.024332209,0.25949088,-0.31848127,-0.52663445,0.032349348,0.32142872,0.44167075,-0.40586263,-0.019350732,0.18814199,-0.08113786,-0.2989233
-0.012371695,0.14305268,0.1094009,0.07175214,0.056783624,-0.020759948,0.16041718,0.06745956,-0.04215683,-0.17580457,-0.063910455,-0.018242344,0.09492181,-0.19325995,-0.023986869,-0.06745711,-0.1705657,-0.16702208,0.038578745,0.102066986,-0.044898342,0.0052906023,-0.10845489,-0.13179764,-0.011096101,-0.004140135,0.10204874,0.13616478,-0.0613609,-0.16974638,-0.07264851,0.11436409,-0.009745116,0.018941926,-0.059492778,0.15156789,0.02609775,-0.020420674,-0.033000678,0.1406781,-0.04291267,0.053025432,0.11723965,-0.04995284,-0.006931698,-0.026483,-0.13594906,-0.0700707,0.033689648,0.031683087,-0.2393423,-0.062521994,-0.1302602,0.1817204,0.20890956,0.018635621,-0.19770768,0.08486357,-0.02610877,0.08492892,-0.18602389,0.039224714,-0.012318541,-0.122567266
-0.36476874,-0.2626507,0.023664413,0.083217986,0.40525833,-0.35932755,0.018032236,0.3615933,0.05009728,0.2263638,-0.28096956,0.06629759,-0.27164093,0.29495046,-0.16844423,-0.4277545,0.03093141,-0.015230916,0.20198102,-0.13306762,-0.018281132,-0.046212677,0.13784921,-0.47485313,-0.20910497,0.061520282,-0.121016264,-0.3286355,0.18976921,0.3219119,0.06588445,0.31552312,-0.60201687,-0.112806894,0.33012426,-0.01737106,-0.07403291,-0.051633537,0.25296608,-0.1966256,0.03170934,0.22546788,-0.39848614,-0.39601684,-0.13961984,0.19505684,-0.025765112,-0.4327681,-0.19214381,0.10464799,-0.12153421,0.3185832,-0.464809,0.08807402,0.14085704,-0.815878,-0.26271456,-0.1515122,0.17288181,-0.08404821,-0.098609954,0.019225124,0.079613574,-0.00038904656
-0.08572456,-0.40610054,-0.045561306,-0.27080682,-0.17633758,0.20128813,-0.11507221,-0.18948005,0.038828604,-0.18437786,0.0772507,-0.20590255,-0.6673644,-0.08816788,-0.23354152,-0.08639117,-0.26494116,-0.014264804,-0.52993137,-0.086538106,-0.398331,-0.42935905,-0.1529109,-0.25338328,-0.16662315,-0.17520891,-0.32373115,-0.076616414,-0.16394353,-0.058597963,-0.07969686,-0.12088922,-0.17258371,-0.41806552,0.2744334,0.036753733,-0.10442385,-0.27881238,0.27283442,-0.5481974,0.28913474,-0.037249565,-0.08599685,-0.02303306,-0.23537081,-0.68682426,-0.22407673,0.11858679,-0.25877,-0.04353366,-0.25853682,-0.055762693,0.1944888,-0.04707764,-0.57983893,-0.22216322,-0.21541616,-0.024937008,-0.14671257,-0.08820757,-0.18609078,0.024528923,-0.26227292,-0.10062761
-0.016300753,0.49751,0.0146951135,-0.03792957,0.2235119,-0.06417388,-0.081162356,-0.17630693,0.5550144,0.21788846,-0.34793478,-0.11369442,0.535693,-0.14679046,0.0078671025,-0.19956864,-0.43212247,0.06256332,0.29563564,0.032010227,0.62875724,0.29268745,-0.015106014,0.13843906,0.023376873,0.499249,-0.63671494,-0.16811094,0.075337365,0.20283417,0.06138349,0.096852034,0.18951021,-0.15337026,-0.14177045,0.36759064,0.14712109,0.13244508,0.33630183,-0.35618445,-0.15166649,-0.35108027,-0.76291925,0.13387223,-0.058592472,0.3069801,-0.08898877,-0.16768645,-0.4485578,0.31198806,-0.2552014,0.34456095,0.20073706,0.19180436,-0.17210902,-0.14505467,0.1852183,-0.057998408,-0.28323787,0.43103096,-0.18356103,0.012814723,-0.0901293,0.16804425
-0.2995895,0.576395,-0.20050286,-0.14224567,-0.07700998,-0.058324836,-0.21875557,0.023341581,-0.2554073,-0.12939572,0.21172993,0.008301369,0.51549965,0.0341631,-0.114130534,0.6354215,0.5029001,-0.12675053,0.06289788,-0.8577619,-0.16374671,0.41849414,0.116141014,-0.58364475,-0.0777625,-0.08867286,-0.07367714,0.18355075,0.28617597,-0.22618608,-0.27719086,-0.8419004,0.44745982,-0.1275496,-0.47066295,0.13595374,-0.36520895,0.18156208,-0.3303902,-0.1264479,0.38644585,0.033162426,-0.26402804,0.26893103,0.53597873,-0.19592485,-0.1346442,-0.22394507,0.482699,-0.17021333,0.53357834,-0.48242784,-0.15955076,-0.29072812,0.27074638,0.9760792,-0.34506825,0.7834513,0.18939711,-0.55698603,0.11037252,-0.4301392,-0.09315535,0.1565394
0.20460236,-0.087439634,0.14395496,-0.08791224,-0.13650014,0.08299995,-0.14283365,0.008807143,0.030981261,-0.10667823,-0.053303882,-0.18716273,-0.10270911,-0.0059445035,-0.06919771,0.020449983,-0.09121457,-0.051468045,0.14861162,-0.10641862,-0.015663464,0.06287603,0.20648529,0.059310276,-0.06664629,0.053080685,0.06800085,0.07013579,-0.008468778,0.027993338,-0.05074333,0.081455156,-0.028843788,0.20365287,0.035809778,-0.026191138,0.159134,0.19201684,0.15686636,-0.048712384,0.28140125,-0.20705031,0.03855497,-0.03437774,-0.020872407,0.12606694,0.076716974,-0.06775193,-0.14634001,0.2111621,-0.16676119,0.14859729,0.061896924,0.039306674,0.049962267,0.13518237,-0.14782496,-0.18106712,0.004994532,0.13142207,0.040374495,0.18463351,0.0033653677,-0.19361326
0.26788995,-0.06342329,-0.012665356,0.056507587,-0.36649293,-0.24708664,-0.023114048,-0.0362093,-0.4490678,0.20385069,0.01430213,-0.104203805,-0.2925249,-0.25838378,-0.17520706,0.057884995,-0.035736743,-0.12173303,-0.78004456,-0.13467807,-0.009302074,-0.4957825,0.08527625,-0.096159995,-0.2513948,-0.084163345,-0.331014,-0.16796258,-0.122191295,-0.6332771,-0.11772896,0.0141213,0.11047481,0.05151618,-0.25441357,-0.10575727,0.30110523,-0.8319795,-0.4874163,-0.28095463,-0.07723056,0.13412832,-0.19294286,-0.157949,-0.062240805,-0.21390934,-0.094485894,-0.40720594,-0.20713405,0.18088081,0.057413943,-0.14669858,-0.11533558,-0.022216374,0.18239674,0.085934386,-0.23219581,-0.053321686,0.005999861,-0.027022148,0.29441074,-0.44667673,0.087878056,0.16113219
0.010658335,0.33006844,-0.21970662,0.20448652,0.037348576,-0.107767984,0.03546906,-0.23895021,0.11515412,0.08572407,0.11300722,-0.08095946,0.042551737,0.12750795,-0.11397163,-0.16076122,-0.20587191,0.10106233,0.06581038,0.09009898,0.023104334,0.3164747,0.036337037,-0.104293175,0.03469967,-0.03889522,0.025143895,0.16039307,-0.030305669,0.07786221,0.069990076,-0.16475454,0.17281264,-0.19309114,0.20976257,0.27915797,0.039116055,-0.006578637,0.15914586,-0.19780378,0.2733915,0.013139366,-0.14426114,0.07183952,0.13854638,0.0338559,0.076969646,-0.00020184195,-0.24085255,0.09341438,0.24553719,0.0072522126,-0.17575091,-0.111816116,0.17204338,0.012322805,0.111551866,-0.064677685,0.12867436,0.016517995,-0.123409465,0.21818352,0.090394594,0.12061468
0.21175775,0.24577463,-0.37952918,-0.3156234,-0.05599073,-0.2993286,-0.034213323,-0.39399788,-0.5114038,-1.196871,0.11335378,0.056552783,0.2410738,-0.34367663,-0.3166545,-0.3790822,-0.024129115,-0.1413411,-0.0886792,-0.3750699,-0.048522614,-0.43873638,-0.86554205,-0.19067232,-0.036810663,-0.34139854,-0.04769054,0.046973765,0.05012195,0.009704005,-0.25055686,-0.5692101,0.003728381,-0.38040516,-0.7280952,-0.026769677,-0.3988044,0.22418274,0.066244386,0.1335661,0.375137,0.18493377,-0.11212285,0.052771844,-0.40900666,0.16169755,0.08071098,-0.16915266,-0.57094526,-0.04699387,0.1774451,-0.47486523,-0.25012147,0.058241025,-1.0049541,-0.8474722,-0.31547135,0.27369115,-0.49056083,-0.6782956,-0.078305975,-0.20805365,0.078889154,-0.19716442
-0.24444965,-0.28535444,-0.1088989,-0.14838095,0.19659229,-0.20840143,-0.04450742,0.47436592,0.6824886,0.4364788,0.41513163,0.21997619,0.07348032,0.49914235,0.033802036,0.30426553,0.40781352,-0.1763106,0.6935936,0.40879908,0.05639442,0.34047782,0.65927416,0.28889456,-0.2203346,0.7543593,0.052483153,0.16337167,0.38210002,0.38120973,-0.9798882,0.31294984,0.90599096,-0.13743766,0.19767135,-0.050113406,-0.662137,0.03720156,-0.592106,0.20831192,0.3004732,-0.50564617,-0.2504977,0.6418756,0.89228976,-0.48583978,-0.078289494,0.35250115,0.4666985,0.3644844,-0.3116521,0.28906825,-0.37497687,-0.07461015,-0.38823974,-0.7204448,0.2733814,0.46735126,0.06543797,-0.31503645,0.3805224,0.57595795,0.09217503,-0.21417639
0.0018641889,-0.09565497,0.08824311,0.035873055,-0.13428538,0.10195415,-0.19094156,-0.049389288,0.019163415,0.16938064,-0.149326,-0.20490815,-0.12924172,0.014845197,0.19597189,0.12538394,0.16033457,0.098731086,0.024163656,-0.16570999,-0.14623004,-0.18176417,-0.21506904,0.19375674,-0.057170715,0.18130155,0.06176564,0.090597615,-0.13580635,0.04035005,-0.08097019,0.22476628,0.04808759,0.09163593,0.13884416,-0.065485425,0.13328457,-0.0890305,-0.07686666,0.07605718,-0.0681301,0.22027503,0.13409816,0.19209881,-0.11989013,-0.066836834,-0.110941805,0.19212176,0.08973897,-0.237811,0.113074854,-0.059019983,-0.16808619,0.09075642,0.17260282,0.057611875,-0.044477504,0.12324497,-0.029695319,-0.10522211,0.16346537,-0.028471773,0.14792646,-0.18976991
0.16767177,-0.31231284,-0.3552428,-0.017270664,0.04216585,0.015983261,-0.29433465,-0.16662925,-0.036290623,0.1545444,0.20243697,-0.15503308,-0.22224404,-0.4167066,-0.34526217,-0.82628894,-0.40155098,-0.20830473,-0.93294066,-0.30274883,0.11630694,-0.33580393,0.2310836,0.16662271,-0.04749768,-0.05336522,-0.41726452,-0.37812084,-0.2781917,-0.42217395,0.06859075,0.29690903,0.12536177,-0.48012957,0.055450603,0.053211957,-0.36956927,0.011340012,-0.36715537,0.48369133,0.03598368,-0.18486401,-0.79642135,-0.049080126,-0.16483414,-0.11509898,-0.14655365,0.07669239,-0.22581579,-0.04125053,0.14449526,-0.29866385,-0.1891706,-0.002623681,0.35758498,-0.71363086,-0.8200649,-0.2776296,-0.32390615,-0.14272359,-0.73829204,-0.12515283,-0.15741765,-0.008858265
0.01974479,-0.37691233,-0.3934932,-0.019797953,-0.2176401,-0.40253967,-0.27843183,-0.35943434,0.18751287,0.07698741,-0.20959027,-0.27325648,-0.13663182,-0.07101949,-0.23997186,-0.50452954,-0.4664636,-0.18748935,-0.6427267,0.17721805,-0.38413858,0.22153775,0.12877281,-0.6701896,-0.15198153,0.48945102,-0.5804866,-0.16342457,-0.36007044,-0.3155932,0.05230676,-0.3695202,0.077452436,-0.20225783,-1.2364007,0.056719508,0.06736541,-0.2517001,0.0046658516,-0.49198988,-0.38401467,-0.27375364,-0.77546644,-0.8637863,-0.045687452,-0.115215756,-0.11080448,-0.64571154,-0.7048133,-0.017791009,-0.385787,-0.09224614,-0.28858343,-0.5184072,0.054239653,-0.19437674,-0.22821431,-0.3917522,-0.5554464,0.04459026,-0.07467388,0.018409578,-0.1756404,-0.014317668
-0.23678078,0.06542434,-0.07230449,-0.015413778,0.5677462,0.4843412,0.08321535,0.13103682,0.82215583,0.32435447,-0.181117,0.025015742,0.06805226,0.4788022,0.17115013,0.33870584,0.19195957,0.11710809,0.21307223,1.3637081,0.10324939,-0.10834778,0.33276254,1.0747021,-0.041948684,0.5784767,0.48299333,-0.012266922,1.259297,1.3784007,-0.45494455,0.90174973,-0.1680609,0.073958084,0.044231337,-0.071954176,-0.22076775,0.8098449,-0.112061575,0.6551166,1.3719393,0.16346821,-0.053216416,0.02202989,-0.16768768,-0.353117,0.10177103,1.167114,-0.12700352,-0.08503118,-0.043989718,0.7245443,0.30074894,-0.16167374,0.2351599,0.14636199,0.903411,0.073976606,-0.25255716,0.059510093,-0.106613524,0.43418247,-0.026780749,0.14881285
-0.1104239,0.09587524,-0.12768085,0.489565,-0.10967825,0.1255963,-0.2354093,-0.11019127,0.19139186,-0.19351767,0.14800698,-0.19960524,0.22482449,0.66023415,-0.09281599,-0.6756839,0.091705166,-0.028762132,-0.28102264,0.17287014,0.16099976,-0.1907093,-0.23535936,-0.31272396,0.021619152,-0.15253896,-0.049917974,0.06101341,0.07282889,-0.11679109,-0.11622396,0.2094173,0.88690704,-0.03594887,-0.17117557,-0.39898914,0.1963174,-0.15323757,-0.18992828,0.6722099,-0.026263194,0.44334885,-0.37938067,0.20837097,0.5593511,-0.007861425,-0.17754078,0.3256496,-0.161717,0.52196205,0.45400786,-0.26696303,-0.12068708,-0.1539007,0.014335321,-0.23799774,-0.30860084,0.048080187,-0.2938329,0.17457336,-0.30544144,-0.07204456,-0.19011469,-0.10902897
-0.15991208,-0.35116273,-0.007956131,-0.4693436,-0.5646534,0.06394582,-0.46430597,-0.4998326,-0.15879339,-0.5470057,0.001034718,-0.3355543,-0.35227367,-0.5270045,-0.3486126,-0.21924114,-0.18554993,-0.24890266,-0.17906916,-0.06837108,-0.17616297,-0.25986877,-0.46986532,0.11370054,-0.16861065,-0.38499892,0.018397562,-0.33455408,0.09133249,-0.35865796,0.0764242,-0.07921879,-0.03494133,-0.47170666,0.007702817,-0.7168792,0.13631164,-0.20362777,-0.03657235,-0.63243866,0.11672684,-0.30610937,-0.55103153,-0.051648576,-0.38154578,-0.45037505,-0.042686548,-0.14487411,-0.029317673,-0.2776844,-0.30299383,-0.09948228,-0.63127697,-0.42701,-0.24119154,-0.31809646,-0.10390867,-0.22589011,0.039044887,-0.03980769,-0.0017929372,0.15963171,-0.26474014,-0.55258095
-0.12873767,-0.102833845,-0.18493892,-0.066785336,-0.09248377,-0.14598928,-0.047552157,0.34350383,0.32736695,0.28280863,-0.11597039,0.061973542,0.24043244,-0.09181602,0.039198916,0.1623919,0.19746646,-0.12766275,-0.12035798,-0.0015101918,0.15298682,0.06045799,-0.11823223,-0.117275454,0.11233564,0.32753143,-0.15699355,-0.20936967,0.08838161,0.3414107,-0.02852992,0.20457175,0.28474408,0.16075096,0.28529805,0.03536796,-0.119104624,-0.117615044,0.25627133,0.07285006,0.028184183,0.07411684,-0.32580748,0.18952136,0.32668307,0.2037506,0.18564843,-0.17487288,0.015768275,-0.13839065,0.23873301,-0.05187776,0.14896621,0.06549796,0.04177947,0.15326181,0.22410834,-0.43463448,0.064882785,0.19993943,0.073299065,-0.41176382,0.12709247,0.09293982
-0.40124297,-0.07736362,-0.1856429,-0.03574445,-0.33882803,-0.18234646,-0.37255996,-0.4018189,-0.5001457,-0.1306767,-0.083640926,0.002172549,-0.056785926,0.016207647,-0.20182292,0.25590378,-0.36773962,-0.20899835,0.0016061104,-0.18843815,-0.14724888,0.101194374,0.02814352,0.19329509,-0.1044807,-0.00014445288,-0.1415824,0.00034424424,-0.3035161,0.40579313,0.09847431,-0.2247157,-0.6818762,0.18534988,0.07451808,-0.06981584,-1.0652212,-0.015717058,0.28117928,-0.07961166,-0.024979148,-0.5883633,0.026859002,-0.006147764,-0.24129032,-0.1629526,0.030872846,-0.6222907,-0.4644649,-0.013267425,-0.05094564,0.34854493,0.09652076,-0.022888107,0.33118802,0.1801944,0.3186421,0.046661012,-0.072083935,-0.78589195,-0.39689684,0.019177997,-0.017194238,-0.011999908
0.30799115,0.7406537,-0.03761342,0.15330756,0.08577078,0.33540186,0.20371713,0.4489906,1.0180326,0.095775455,0.3267631,0.02892087,0.29040977,0.16774729,0.026769906,0.10278958,0.31358537,0.21341409,0.69111294,0.49410862,0.48501995,-0.06475367,-0.13057077,0.09643672,-0.11513841,0.7078719,-0.12189415,-0.21413837,0.19308601,0.26175866,-0.08948756,0.5684412,0.8058277,-0.24877833,0.07996837,0.06765467,0.40731844,0.092997015,0.57600474,0.4918485,0.53753084,0.14733402,-0.03842655,0.23783158,0.7977382,-0.30778807,0.15983729,-0.12966883,0.2141846,0.15843445,0.2584819,0.13531168,0.024194594,-0.069789276,-0.22202885,0.21001427,0.023336101,0.48386857,-0.119893946,0.28976804,0.1303478,0.113206,0.048909076,-0.18621929
-0.08171744,0.16952346,0.08778438,0.141111,-0.1395145,0.0015929645,-0.050888725,-0.0033094417,0.13475437,0.13058789,-0.15249974,0.08820424,0.061503377,0.07118242,0.19247401,-0.08426418,-0.082440615,0.19018398,-0.034140434,0.18215089,-0.10529644,-0.12049554,-0.12582208,-0.09532952,-0.10966897,-0.14355627,0.09914006,0.07741486,-0.030196568,-0.0023633568,0.042469878,-0.16034615,-0.15336381,-0.08963974,0.031000042,-0.12791425,0.101302356,0.1589933,-0.23067077,-0.013238438,-0.038809855,0.09661704,-0.15311079,0.03330528,0.14227434,0.09149647,0.11413976,-0.050652932,0.0952808,0.0856955,-0.06664312,-0.26507005,-0.22560333,0.11773131,0.002402445,0.010713237,0.06516098,-0.026825381,-0.029097745,-0.20263128,-0.040356815,-0.092499115,-0.05421734,0.06349564
-0.3342917,-0.092397094,-0.18458462,-0.09646402,0.34440097,-0.46727356,-0.0024024239,-0.3638941,-0.010160002,0.15312462,-0.3379302,-0.030267103,-0.03272141,0.047821697,-0.15938656,-0.2674924,-0.2744297,-0.010101891,-0.65270257,0.2606951,-0.13604279,0.114414364,-0.6640604,0.012005055,0.030850189,-0.10486216,0.29379576,-0.10969465,0.5028987,0.06704264,0.17697497,0.098509915,-0.19298504,-0.13992126,-0.44823954,0.1332611,-0.6953302,0.3742699,0.42345154,0.34553918,-0.0743197,-0.6287487,0.15701711,0.2643674,-0.022473346,0.22217076,-0.33268872,0.358593,0.138264,-0.073659614,-0.5188564,0.09580589,0.11702157,0.09577974,0.12327989,-0.17092806,-0.0055257333,0.4115351,-0.05860634,0.46942928,0.027537137,-0.1264204,-0.24652925,-0.2395733
0.093903586,-0.030491332,0.046719663,-0.037565205,0.1264081,0.0021386924,-0.13301715,-0.15119946,-0.43088838,0.6797131,0.17243387,-0.04490248,0.16230392,-0.12854812,0.011348375,-0.06925311,0.024995934,0.006212307,0.3991354,-0.60162073,-0.2930216,-0.39612156,0.255074,0.576804,-0.119024046,0.23050173,0.1183682,-0.24666363,0.09475942,0.047369514,-0.27932212,-1.0142395,0.2634225,-0.22648579,-0.24446307,-0.6681003,-0.07103145,-0.3747882,-0.2717217,-0.15974753,0.22223747,0.39505062,0.048541624,0.011851758,0.20539124,0.38981536,-0.016909175,0.36633375,-0.048020106,-0.21758452,-0.7957079,0.042826775,-0.039564103,-0.18846622,0.007839118,-1.421699,-0.115526654,-0.14543562,-0.0979129,-0.011705463,-0.096891604,0.015170278,-0.0072421418,-0.16811636
-0.20186795,0.12838192,0.14655313,0.025449174,0.052228715,0.19751076,0.17321938,0.11709911,0.2861354,0.19544938,0.008856232,-0.1310218,0.08414608,0.17635264,0.11598975,0.09869119,-0.21226698,-0.036019728,0.2629449,0.14756541,0.21904463,0.04230258,-0.069200836,0.022211056,0.13310148,0.21071097,0.18681334,0.16729617,-0.07117738,0.27924806,0.037530277,0.19163248,0.31813943,0.08980213,0.19753496,0.14941534,-0.26941112,0.0105648795,0.34973472,0.25552085,0.52879924,0.008345506,-0.14887634,0.032237615,0.5233875,0.029653283,0.095330015,0.23636173,-0.30880928,-0.02976667,0.26913413,0.15250103,-0.051185228,0.12645166,-0.28353015,-0.15288849,0.19172749,0.21318808,0.32818028,0.034613483,0.07928031,0.08754851,0.012881922,0.04780189
-0.49522787,-0.10350765,-0.24007843,-0.14051178,-0.16077317,0.111120135,-0.16633244,0.11935232,0.21514222,-0.2267987,-0.15965146,-0.24610609,-0.40704414,0.0661768,-0.02987395,0.19036968,-0.16496794,-0.3020545,0.20684145,0.2355518,0.50841045,-0.2571865,0.041084632,0.26557922,-0.13552935,0.1356414,-0.29853135,-0.36463487,-0.027344488,0.2838233,-0.35839126,0.11640939,-0.63982195,-0.8232398,-0.38279969,0.17855105,-0.031252865,0.076982595,0.14957555,0.020445155,-0.15478021,-0.19968332,0.19530308,-0.11033469,-0.28445438,0.18512698,0.027516123,0.116744176,0.32235673,-0.111805536,-0.41962197,0.26792452,0.22619963,-0.26391798,-0.10261596,-1.5425899,-0.2467021,-0.17159806,0.2449153,0.022349646,0.22274429,-0.16838297,-0.26983225,-0.37965658
-0.20028962,0.12449663,0.21026781,-0.15792571,0.1831592,0.08296544,-0.1701976,-0.005876358,-0.116448306,0.1905577,-0.012764195,-0.07416002,-0.16609243,-0.17275828,0.18324251,0.020912277,0.0073487787,-0.050243944,0.15016441,0.05280967,0.18147528,-0.038144473,-0.0017513778,0.0012206075,-0.22065324,0.14937998,0.028057078,-0.19325157,-0.14556924,-0.20466486,0.14474057,0.11964313,-0.0013926794,0.05475776,-0.055351663,-0.07775636,-0.06240719,0.16313675,-0.12872806,0.1326487,-0.20553325,-0.08193053,0.19809492,0.18587014,-0.0136837745,0.14125133,0.1975625,0.120734155,0.13199912,0.043490186,-0.1615761,0.05636993,0.06989862,-0.029677747,0.07576905,0.17161937,0.16898078,-0.06131356,-0.060341433,-0.13039763,0.16302165,-0.12171055,0.07873644,-0.11763666
-0.3405798,0.11968456,-0.16077338,-0.15271151,-0.19321431,0.20740555,0.09331015,0.031638984,0.102525294,-0.27098715,0.06299634,-0.1297532,-0.34288436,-1.1074113,0.026279364,0.07079346,-0.20943539,-0.16536441,-0.027769165,0.12497373,-0.6457934,-0.40261787,-0.9212571,-0.1447352,-0.14450549,0.20241915,-0.027374268,-0.13303375,0.15334444,-0.06435076,-0.5980563,-0.16735634,-0.46377754,0.4441436,0.28494766,-0.53790313,-0.3775816,0.11225413,0.58257824,0.14237411,-0.11947725,-0.11887399,0.087675266,-0.08181363,-0.35669756,0.27769107,-0.24493647,0.2721589,-0.02532419,-0.11356313,0.06852951,-0.6950553,-0.5687056,0.027741281,-0.079170115,-0.19991349,-0.11785493,0.040306207,-0.45761716,-0.20943062,-0.093574785,-0.7778715,-0.18701532,0.22653385
0.66154414,-0.08725775,-0.17074208,0.40091127,0.476688,-0.18295747,0.15408038,0.5436258,0.86728245,1.3240411,0.47272035,-0.10467513,0.46552074,0.08805188,-0.15995419,0.24432401,0.08303569,0.08290039,0.011510933,0.4173526,-0.07330082,0.5033369,1.0940443,-0.047600493,-0.059373688,0.30858582,0.005581212,-0.070763856,0.34133393,0.49609548,-0.45176917,-0.15744983,0.775378,0.01503868,1.2955822,0.035060953,-0.28016105,0.7322617,0.4898491,0.52073056,0.6892863,-0.13879788,-0.04379373,-0.06505813,0.3152167,-0.8586489,0.022753159,0.27818808,-0.09795856,0.0783667,0.23838365,0.022631625,0.010264377,0.17374592,0.047114283,-0.6102708,0.1743089,0.24877381,0.1269637,0.51046735,0.21774964,0.70680845,-0.098309144,-0.18272997
-0.27672803,-0.06569874,0.066770725,-0.23627838,0.09858038,0.33877608,-0.09979755,0.32978663,0.28256428,0.6140479,0.009359555,-0.11379821,-0.07063406,-0.1432738,-0.191252,-0.0072563593,0.004983249,0.05612514,0.36097416,-0.16224074,0.32226223,0.2629306,-0.2869514,0.88773847,-0.07369883,0.58669126,-0.07164274,-0.08102155,0.22192775,0.44606078,0.03454584,0.86241543,0.39119735,-0.16762803,0.7898906,-0.13725647,0.30000213,0.57556325,0.28678453,0.20016816,0.52922297,-0.15371902,-0.33217484,0.012040806,0.21949959,0.22878002,0.09056334,-0.20376383,0.14693694,-0.20016666,0.112435095,-0.12680155,-0.13623072,0.062067315,-0.122413024,-0.4442024,0.024280636,0.16830814,-0.11444146,0.19944985,0.37373912,-0.25104856,-0.049730867,0.051285435
-0.7260977,0.21886188,0.005666924,0.12269853,-0.3728599,0.043409377,-0.14844581,-0.72451305,0.18692847,-0.30191177,-0.6474025,-0.22155893,-0.65879065,-0.25237933,-0.13030025,-0.22200258,0.09033569,-0.22815321,0.29501146,0.05602847,-0.42521656,-0.44251087,0.116292,0.2610711,0.051556837,0.018831395,0.018967288,-0.01863031,-0.71571046,-0.56044567,-0.14001071,0.18346743,-0.23239861,0.13335326,-0.15552767,-0.6724816,-0.042595815,-0.41957018,0.36790726,-0.13788854,-0.06541286,-0.3820016,-0.26525345,-0.24928051,-0.13538277,0.020433396,-0.22840315,0.22790259,-1.1161047,0.1653076,-0.06725964,-0.6613495,-0.010303785,-0.49271435,-0.13085137,0.14471708,-0.088518314,-0.0043522827,0.11625182,-0.7541464,-1.1759613,-0.42056543,-0.039763957,-0.19016246
-0.17079374,0.18686603,-0.146427,0.0921185,-0.0926879,0.05148181,-0.03175541,-0.10024212,0.18165988,-0.20117085,-0.102352105,-0.22267848,-0.095970236,0.19878373,-0.14545989,0.3066969,-0.13375537,-0.17080098,0.15213558,0.3660119,-0.11072824,0.24045426,0.2089468,0.3651622,0.07968532,0.2042403,0.04158964,0.00049775635,0.1471827,0.0820865,0.123602204,0.2687799,0.51689404,-0.15432832,0.19489439,0.07375894,-0.05201845,-0.15119515,0.15363444,-0.1122074,0.4271431,-0.1122508,0.09770995,-0.19256455,0.45271802,-0.06472419,-0.026128847,-0.1836696,0.27885824,-0.15761983,-0.1157605,0.26679885,-0.131279,0.043124486,-0.0717363,0.29055333,-0.11931772,-0.1433245,-0.12342074,-0.012095187,-0.0029586407,-0.27023023,0.21873556,-0.03944517
-0.07618414,0.032441106,-0.15186495,0.11314943,0.06297548,0.1619758,0.0857104,-0.013039087,-0.007741538,-0.06999038,0.040927634,-0.02636156,0.14564562,0.2094651,-0.17937097,-0.028918285,-0.20742305,-0.06402148,0.17501727,-0.02560227,-0.0067337565,0.174808,0.04352513,0.13094597,0.21326388,0.09155703,0.12963569,0.0986107,-0.14388105,-0.063503854,-0.20056617,-0.18367648,-0.050771106,-0.19547205,-0.10905057,-0.09298906,-0.14101887,-0.012630794,-0.016235214,0.16274838,-0.07730489,-0.21024667,-0.0071931463,-0.24261793,-0.009657673,-0.15321298,0.018724976,0.13949558,0.023563549,0.15438639,-0.13562122,-0.110396124,-0.09241861,-0.197077,-0.271341,0.1146375,0.01239626,-0.12407464,-0.014613039,-0.14401063,0.09405715,0.16653211,0.08938842,0.025625922