-0.09536029,-0.041485224,-0.53081995,0.31929103,-0.40253323,0.055706184,-0.38617313,-0.21938577,-0.11319343,-0.13135713,0.33103958,0.06298079,0.0635002,-0.067678645,-0.42205065,0.07844912,-0.23759854,0.37074405,-0.43971366,-0.27168837,0.0015271746,-0.6718621,-0.103862345,-0.081262544,0.3059706,-0.2610039,0.016995931,-0.6020959,-0.05311583,0.16366735,0.23240061,0.05560124,-0.58895254,-0.06284761,-0.034414746,-0.40379196,0.1401023,0.122161,-0.08789931,0.0130756,-0.3490601,0.24324487,0.17511861,-0.2405979,-0.11774657,0.076409966,-0.3840162,-0.02758968,-0.28773722,-0.11132829,0.5634757,0.29588112,0.19915825,-0.0922333,-0.132449,0.02764653,0.5097142,0.14158982,-0.101176485,-0.4156857,-0.080249496,-0.020343365,-0.05249116,-0.06356152
-0.3048066,0.05422803,0.13211855,-0.3119301,0.19537419,-0.011835647,0.2701063,-0.10295504,0.019332828,-0.5352834,0.1278858,0.28820965,0.04616485,0.013151218,0.04008693,0.38649538,-0.14507182,-0.19783475,0.0442778,-0.08763988,0.15249488,-0.029734317,0.12990226,0.08175775,-0.16767558,0.13473421,0.13785332,-1.3139939,0.18018055,-0.07507062,-0.37782142,-0.13415927,-0.078712195,-0.1478236,-0.24625511,-0.15309677,-0.008173755,0.09213675,-0.083323516,0.24671254,0.038264938,-0.167936,-0.089839794,-0.05946672,0.06738862,0.022023963,-0.24550071,0.33752516,0.24100922,-0.1482874,-0.042623248,0.032368537,-0.1961476,0.04551718,-0.044208564,0.12162348,-0.047521036,0.018875746,0.109499395,-0.31765592,0.02751154,0.07569105,-0.20343143,0.011516698
0.008492262,-0.031193446,-0.1920699,-0.16363643,-0.04215473,-0.053909585,0.19689207,-0.0036503214,0.1710727,0.16500409,-0.17775328,-0.18486275,-0.035388067,-0.007741943,-0.19453934,-0.20981604,-0.10541787,0.10373305,0.117661156,0.14102878,-0.0040202923,0.103065774,-0.09373834,-0.039232988,0.052934393,0.004614309,-0.10337061,0.057469822,-0.08642003,0.103471875,0.08524593,0.21691906,0.101122245,-0.07347019,0.13801678,0.06569717,0.068381265,-0.16760646,0.04938126,0.13599329,-0.12389071,-0.01389186,-0.19584198,0.17345889,-0.21292093,-0.1814536,0.11984212,-0.21282423,0.21267389,0.20408364,-0.16664597,-0.111185655,0.19433984,-0.21734053,-0.020208225,-0.12319739,0.18611394,-0.05852858,0.03756945,0.044797137,-0.13822399,-0.14185025,-0.15103368,-0.16533506
-0.007083423,-0.40390512,0.25596908,-0.2487561,-0.18385737,0.21373066,0.5408182,-0.13331091,-0.23058242,-0.04731779,-0.43517888,-0.19833355,-0.2760634,-1.0839906,0.4599,0.2998504,0.33340135,0.36499947,-0.77345675,-0.07192468,0.00573011,0.12725702,-0.0017168896,-0.07382732,-0.5903892,-0.03363663,0.038258683,-0.010573602,0.29253903,0.05974679,-0.30183443,-0.22533295,0.072620615,0.048305597,-0.46013364,0.17303692,-0.091824986,0.052162632,-0.06073672,0.15493728,0.08121301,0.35198903,0.1355982,0.5323388,0.25036612,0.059710093,-0.123246364,-0.10460964,0.32486132,0.6203405,-0.20629515,0.68842065,0.18590492,0.22852327,-0.09442906,0.14494257,-0.17573422,0.025382498,-0.22303186,-0.26606748,-0.1436801,-0.89922595,0.21412198,-0.02704901
-0.30333072,0.022355644,-0.2987289,-0.27816844,0.27780706,-0.044442326,-0.037332725,0.4608645,0.06888318,-0.24541485,-0.01551506,0.10240271,0.16801934,0.2855306,-0.70703995,-0.21382502,0.16613197,0.16155055,-0.025561325,0.14211775,-0.05207738,-0.03006351,0.20216796,0.12167407,-0.5606059,-0.05002901,-0.24003495,0.35535502,0.010761075,-0.5805914,-0.73747903,0.24120998,-0.32427695,-0.2587613,0.23075557,0.054542515,0.0057069175,-0.054710634,-0.1354914,0.33433938,0.072417244,-0.13606322,-0.033947945,-0.093248606,-0.20186976,0.093695275,0.023529988,-0.44843325,0.021550654,-0.74324834,-0.17365175,0.24486089,-0.44682842,-0.15288031,0.18341905,-0.13904446,-0.4002747,0.01726248,0.04129168,-0.22222993,0.14681295,-0.14354378,-0.067372784,0.34383073
0.3166948,0.07540585,0.08996173,-0.32415006,0.3848205,-0.11500097,-0.4014058,-0.30918482,-0.28487465,-0.3105795,-0.26783788,-0.24424058,0.16186608,-0.1364784,-0.51355964,0.2031971,-0.2829951,-0.35019204,0.20787685,0.17647779,0.19563839,-0.39739788,0.034987543,0.1174343,-0.7593367,0.1651061,-0.09233863,-0.4563631,0.30912998,-0.66194504,-0.2979372,0.08103828,0.12711334,0.10903324,-0.11550289,-0.13988039,-0.044389818,-0.27014858,-0.43540406,0.34790263,-0.03739071,-0.26301068,-0.5586331,-0.021634929,0.0117039615,-0.0050576334,0.12713847,-0.037308026,-0.19449894,-0.25800952,0.018578159,-0.049827985,-0.30933094,-0.026904961,0.19814299,-0.33081263,-0.038758654,0.08849745,-0.13567916,-0.4286508,0.24758247,-0.09619965,0.20798786,0.5792774
0.22410509,-1.1038936,-0.580272,-0.018129613,0.21330729,-0.1513869,-0.19950716,0.14889897,0.13727929,0.06510361,0.09982828,0.014041013,0.031177605,0.07458891,-0.3117222,-1.4604232,-0.33499393,-0.80717546,-0.050447803,0.30459878,0.7379911,-0.39284068,0.049095754,0.44699496,-0.27551952,0.024195392,-1.1259925,-1.1382926,0.16012998,0.05310102,0.12237716,-0.04508362,0.025522737,-1.7070558,0.1489159,0.21027637,0.01226065,-0.0071572014,0.03255585,-0.101936996,-0.20812069,-0.10329528,-0.041915704,-0.092298076,0.09960531,-0.019147359,0.15997541,-0.23280515,-0.2359886,-0.022544017,-0.023118619,-0.022532618,0.013206993,-0.056437586,-1.5739454,0.1126987,-0.10259704,-2.101911,-0.24687782,-0.064147174,-0.008914281,-0.1510548,0.12840597,0.094611995
0.237328,-0.13993427,0.027077883,0.07463974,0.33144712,-0.035442166,-0.20988421,0.07440707,-0.25521109,0.08730311,-0.16183628,-0.035587978,0.17676131,-0.25007328,-0.2436716,-0.1855687,-0.23407984,-0.7542645,0.21387655,0.09696895,0.41098398,-0.47302336,-0.18576086,0.17418337,-0.060169514,0.16142939,-0.5315408,-0.28889132,-0.14070357,-0.04247875,-0.18791899,-0.1673018,-0.50118804,-0.05344391,-0.094337106,0.15114012,0.28958994,-0.10825894,0.12376678,0.06797602,0.0154581955,-0.06680962,-0.04729872,0.10734121,-0.24891345,-0.3359522,-0.2506089,-0.013867541,-0.030450333,-0.13860928,-0.2539071,-0.22199531,0.17058614,-0.31621948,-0.16925956,-0.21192227,0.17381471,-0.30995736,-0.16326074,0.10065194,-0.11644066,0.08019985,0.13030683,0.13378382
-0.2378062,0.020133687,0.04826025,-0.13543501,-0.30881503,-0.34810624,0.1194551,-0.113552734,0.25337562,-0.27171153,-0.19517706,0.46794143,-0.19318712,0.10401883,0.115886316,-0.11728586,0.09301775,-0.17684472,0.19762193,0.15348433,0.08039227,-0.23156106,0.21979043,-0.039234634,-0.15911904,0.0378608,0.31541562,0.08701214,-0.117377296,0.1774433,-0.3445931,-0.15007259,-0.33261132,-0.4510046,-0.13397224,0.20105188,0.06479585,-0.039454777,0.0026086178,-0.53971285,0.038005978,-0.20413047,0.107674055,0.15930362,0.2038906,-0.19045618,0.17462517,0.08203394,-0.119275905,0.07949824,0.15145712,-0.1579972,-0.046147555,0.23012188,0.06401078,0.32555726,0.083243795,0.08129397,0.06352391,-0.2238248,-0.5071507,-0.29342905,-0.17070149,-0.2743472
-0.24019599,0.07913008,-0.30547437,0.745109,0.14182551,0.00960207,0.14484757,0.10085159,0.12529808,-0.21625549,0.22433412,0.4299381,-0.04934615,-0.70048845,0.21480626,0.17239772,0.21122171,-0.44095427,-0.09936145,0.31333256,0.16977102,0.24546228,0.7298638,0.038284637,0.029703738,0.19441156,-0.19913158,0.1120558,0.22938856,-0.23258775,-0.37478745,0.34634754,-0.28381476,0.08659085,-0.025934411,-0.029263904,0.3717075,-0.0010413677,-0.29245842,-0.23236379,0.039092153,0.45297727,0.0089343125,-0.32835585,-0.127525,-0.03309673,-0.004229159,-0.16897097,-0.051001657,-0.14047886,0.16486602,0.008931648,0.008751785,0.23074102,-0.16359073,-0.5076234,-0.2214174,-0.15084617,-0.18436234,0.1642437,0.3981972,0.037306055,-0.10998613,0.18283938
-0.52010936,0.14765552,0.46723706,-0.094753236,0.34542724,0.22508442,0.11207934,-0.25041893,-0.27661556,0.2769594,0.2948673,0.24769962,-0.5958321,0.27173656,0.25329256,0.14763075,-0.1463109,0.017592339,-0.013682171,0.07985901,0.14174949,-0.17304741,0.11905801,0.48935816,0.06730727,0.0049507394,0.41823763,-0.28549528,-0.31317624,0.20324403,-0.0105737485,0.3081074,-0.20864783,0.010286276,-0.019446835,-0.29414004,0.97911257,-0.0014751256,0.18133302,-0.65817225,0.5990334,-0.26040465,0.12856467,0.3828998,-0.17118804,0.20030181,-0.11431689,0.3202344,-0.12223247,-0.010851451,0.24697714,0.13174893,-0.10554755,0.5652762,0.08871759,0.24445869,0.061404888,-0.04097107,0.30540857,-0.37388057,0.24857782,0.3735646,-0.56826067,-0.069633886
0.28466573,0.30099782,-0.47043884,0.15921266,0.20819323,0.026708359,0.10959994,-0.2988615,-0.65101,0.18644477,0.23095311,-0.7114192,0.15904945,0.3231787,-0.3771379,-0.1561464,-0.07372868,-0.39974615,0.13558656,0.039348733,-0.0015811564,-0.003534858,-0.7865727,0.14247537,0.25575805,0.5837455,0.26736826,-0.2895926,-0.11626506,-0.15447606,0.40203258,0.16312456,-0.1303665,-0.05264049,0.030884499,0.081186324,-0.0048622335,-0.17759663,0.38570142,-0.11488663,0.07485664,-0.25675577,-0.06712246,0.39336023,0.048934683,-0.4734054,0.679628,-0.14054318,0.30893344,0.48380375,0.10810598,-0.27268034,-0.17607754,-0.36688676,0.26936558,-0.30248445,0.36375684,0.0912125,0.18563184,-0.008552778,-0.13748531,0.284413,-0.23077707,0.085200295
0.090894185,0.12623933,0.041143883,0.47048882,0.19064537,-0.21671952,-0.15277147,-0.1861822,-0.094255194,-0.3111215,-0.14565913,-0.43772092,0.02995354,-0.29725882,0.22693683,0.15686548,-0.050251987,0.09636414,0.16807553,-0.061622847,-0.029466897,0.10370331,-0.18918328,0.026802836,0.06927655,-0.04644435,0.13897547,-0.002862208,0.051919725,-0.26359487,-0.1380474,-0.16644081,-0.0056366897,0.031795304,0.09685506,0.18053898,-0.34925666,-0.16804092,0.01576042,-0.23758762,-0.24185295,0.26441678,0.040779777,-0.20234287,-0.034807514,0.17422017,0.017041698,0.16978908,0.23496653,-0.14910787,0.13892353,-0.042311527,-0.10087072,-0.25886378,0.030054329,0.13168623,0.17323872,0.033573765,-0.53743577,0.07033219,0.06423105,-0.18387346,-0.12871052,-0.095926374
0.37073043,-0.35845968,-0.5145354,-0.1953719,-0.575842,-0.13882838,0.26053104,-0.41860077,-0.05340191,-0.081162885,-0.24377681,-0.06462151,-0.21442015,0.039916757,-0.27796307,-0.117616095,-0.7715046,-0.43400398,0.21415433,-1.5892023,0.061480626,0.4563483,-0.45909643,0.024948496,0.07193801,-0.058396425,0.9542995,-0.04821712,-0.7010405,0.405904,-0.27775425,0.47745115,0.3992368,-0.5577837,-0.09798238,1.2268902,0.28688282,0.08117076,-0.2944351,-0.19009647,-0.6129755,-0.8282527,0.07162756,0.28029755,-0.6232687,-0.37900344,-0.43314618,-0.2405459,-0.09452745,0.16795401,0.6188815,0.34642982,-0.13319136,-0.33452865,-0.09397476,1.1220369,0.036332544,0.12347852,0.32902658,-0.06862978,0.17733769,0.18447885,0.033082284,0.03629816
-0.2539251,0.22938183,0.2613329,0.24996051,0.22665808,-0.18640375,0.10236357,-0.77616704,0.015113992,0.08471736,-0.002945659,0.13740644,-0.028039565,-0.032154758,-0.16620079,-0.07170618,-0.136049,0.045560397,-0.0985167,0.011707365,-0.7298102,0.24827269,-0.19946693,-0.6954993,-0.14054844,-0.43698248,-0.03775471,-0.017238146,-0.0944222,-0.037838973,0.022887785,-0.10288718,0.20341395,0.19836038,-0.27480635,-0.33701327,-0.03881168,-0.0071873707,-0.07337928,0.19976275,-0.16319628,0.0107577285,0.12482628,-0.31836668,-0.17798391,0.08201735,0.08135739,0.009666831,0.16901408,-0.13683982,-0.010808517,-0.09951458,-0.047214273,-0.13659196,0.0107720345,0.03420893,-0.13780646,0.53048676,0.062445074,0.16037576,0.11953445,-0.06599276,0.19565454,0.12449325
0.26448804,0.2103626,-0.042569797,-0.3504036,0.09524267,0.020731004,-0.0057787793,-0.2999991,-0.06192848,-0.34857267,-0.14739992,-0.2107995,0.11684908,0.22881386,-0.025374291,-0.026439352,-0.09892631,0.08841688,-0.012086244,-0.24054477,-0.2726854,0.0082343,-0.2606616,0.04632523,-0.12763527,0.047204405,0.060502086,-0.006009009,-0.31864667,0.017566485,-0.06731529,-0.20105936,-0.12734824,0.29622144,-0.8761119,-0.07336261,-0.0732602,0.01204389,0.26162234,-0.113625586,0.3156667,0.058733076,-0.0705046,0.12895727,-0.31469643,-0.08675221,0.20555298,0.22380081,-0.058545955,-0.05471624,-0.13527675,-0.3285925,0.061011314,-0.09037116,0.17669302,-0.087260954,0.08185191,0.19286157,0.10863657,-0.21881472,0.032057036,-0.2578005,-0.14659713,0.14311391
0.007739766,0.048515238,-0.20410512,-0.49102515,-0.46541935,0.15738526,0.4533205,0.105262496,0.2748643,-0.9660256,-0.1844283,0.057083644,-0.13633215,0.07059978,0.192033,0.14743374,-0.023343004,0.18749222,0.09848983,0.11505237,0.0192966,0.30543733,0.00012692808,-0.093757994,-0.92013115,0.030379482,0.2230231,0.17912167,-0.3818988,-0.39162186,-0.009419074,-0.04195284,0.09113122,-0.10474245,0.12458432,-0.06700363,0.24810022,-0.16158776,-0.5884431,0.44777066,-0.4958372,0.13014251,0.047253955,-0.1746769,0.0846668,-0.3598557,-0.0036496264,-0.46404973,-0.1577584,-0.22312377,-0.13229,-0.03419812,-0.6604439,0.1254263,-0.18160206,-0.107998855,-0.20006913,0.1645857,-0.09274523,-0.5746689,0.18688037,0.08507978,0.21156994,0.5125921
-0.105472706,-0.073175624,-0.06552286,0.39652133,0.2430251,0.17820668,0.13908213,0.012794181,-0.20526573,0.55449456,0.47488657,-0.35690534,0.5309381,0.780057,0.31411824,0.32940426,-0.022789951,-0.49004215,0.26959947,0.28939497,0.26158404,0.08056132,-0.33093068,-0.049407557,-0.27996078,-0.0118488,0.29627052,0.6534563,-0.12670259,-0.025823172,-0.1347528,-0.07259053,0.37932545,0.19248405,-0.43091798,0.18030788,0.09134478,-0.13840087,-0.21371369,0.18003348,-0.19784896,-0.19936197,0.11508804,-0.22153299,-0.074028224,-0.17680384,-0.12897353,0.732492,-0.20742573,0.062243637,0.121941924,0.65323246,0.14288248,-0.2945473,0.13941462,-0.41674888,0.53568584,-0.040199652,0.11174998,0.15243287,-0.05568092,0.1600417,-0.05811336,-0.022375964
-0.20086569,0.20512938,0.40561807,-0.060821906,-0.12141775,-0.33369133,-0.10842693,-0.21499296,0.020808553,-0.47125,0.16925983,-0.09144315,-0.12215343,-0.10266582,0.2730941,0.024578238,0.10302503,-0.5343124,-0.20902775,-0.17495583,0.26441628,-0.08840401,-0.08996663,-0.20196278,-0.295253,0.2675199,0.022390949,-0.40488324,-0.14193243,0.19691336,0.28026298,0.114849105,-0.14709546,0.052735377,-0.77922344,0.15163644,-0.13770732,-0.099679925,-0.18509664,0.22182249,-0.105512306,0.17611331,0.06614835,-0.14704038,-0.19939016,-0.42793554,-0.27855742,0.23715928,-0.40014568,-0.11565567,-0.23745471,-0.41338363,0.22382249,-0.23418692,-0.13818872,0.065081105,0.081151806,0.117292374,0.39372876,-0.21156809,0.13551661,0.24192934,0.15949467,0.23077302
0.084701404,0.0036022328,-0.13631327,-0.1957211,0.09294234,0.06786878,-0.46874472,-0.12869078,0.026125684,0.10680944,-0.5363193,-0.5782604,-0.17771654,-0.69200444,-0.16922407,-0.14789103,-0.086637504,0.0094689345,0.3564972,-0.26902652,-0.1379848,-0.27868396,-0.10061586,0.14378864,0.2811107,0.018853694,0.40786502,-0.11131066,-0.46000072,0.20312339,0.045689866,0.089475565,-0.09375333,0.05482838,-0.45503694,0.04668924,-0.13842532,-0.15482083,0.3471725,-0.4593441,0.21707597,-0.48028898,0.19871503,0.51560116,0.1407934,0.24867722,-0.16613418,-0.81025296,0.088722646,0.18711706,-0.072669566,0.07311642,0.09810384,0.3672261,0.41002798,0.026763964,0.13261513,0.38494247,0.106500424,0.11804303,0.21526177,0.22320126,0.05851766,-0.23771814
-0.063678846,0.073113136,-0.23480093,0.059907954,-0.24822131,0.042778395,-0.09311829,0.3233185,0.2659863,-0.13464049,-0.34427986,0.12727983,-0.35673043,-0.59009475,-0.07462508,-0.008595074,-0.0336505,0.020803576,0.3767398,-0.100099586,-0.06352443,-0.074219234,-0.035349194,0.39705613,-0.068776175,-0.15914768,-0.033357877,-0.4616342,0.3398571,-0.29077992,0.2627507,-0.25673065,-0.08337255,-0.2808834,-0.25140437,-0.124029905,0.12306038,-0.11530214,-0.2035046,0.1062792,0.1856782,0.22381523,0.3224291,0.13528545,0.39696008,0.117153764,-0.55394435,-0.25889644,-0.30227298,0.4201847,0.2267715,0.4570407,0.14264366,0.106828116,-0.023974217,0.47202548,-0.09859994,-0.05159255,-0.5249402,0.17091809,0.24687041,0.13728103,-0.08920215,-0.11155036
-0.3436444,-0.1845654,0.1271046,-0.24608254,0.3039471,0.003606205,-0.20181456,-0.23169704,-0.32802677,-0.40316573,0.002368253,-0.37976548,0.03836702,-0.32430145,-0.21489768,-0.17705545,-0.28840005,0.076907545,-0.047642756,-0.68545467,0.03931556,-0.23673704,0.03384997,-0.15572128,0.30786288,0.21766378,-0.49812758,-0.33887392,0.5140643,-0.1874024,-0.27912945,-0.016375348,0.1883882,-0.20156938,-0.09821132,-0.015879402,-0.058711577,-0.1810044,0.11505466,-0.18911135,0.28207204,0.056806732,0.03310694,-0.15192808,0.03566287,0.23471385,-0.6783979,-0.2531137,-0.21369717,0.0720789,0.02129434,-0.14406145,0.0957043,0.07691256,-0.5088538,0.109204136,0.2934029,0.009632277,-0.40386638,-5.025262e-05,-0.07389253,0.52831775,0.19459447,0.031698704
0.61877483,0.4676209,-0.039334472,-0.21107104,-0.4078555,-0.23053573,0.25143498,-0.10763028,0.38535112,0.16827159,-0.19145285,-0.16960211,-0.27839872,0.14340547,0.021747492,-0.016816782,-0.31156293,0.1415971,0.6970838,0.16415219,-0.36185512,0.09935752,1.0606692,0.1616942,0.5594241,-0.616811,-0.31081626,0.27799436,0.18130858,-0.8898527,-0.17086037,0.6531337,0.44349435,-0.101441935,0.3801668,-0.006288686,-0.34407064,0.17566256,0.17016983,-0.4969052,-0.21123958,-0.22187105,-0.14549667,0.12410933,-0.05619923,0.012766575,0.167574,0.34462386,-0.6569923,0.49176738,0.0050526094,0.45219418,-0.010375574,0.61989397,-0.25620082,0.22225696,0.75031084,0.14881144,0.44883937,0.049971867,0.49833894,0.1735634,-0.46203443,-0.07799003
0.32021168,0.09978707,-0.583793,0.15798116,-1.2227732,-0.04958796,0.053043745,-0.1700024,-0.06193145,-0.1774347,0.1382087,-0.029227939,-0.24422753,0.43171036,-0.13210657,-0.082095034,0.35106066,-0.1780585,-0.39039385,-0.9620066,-0.118448466,-0.66556513,-0.16783611,0.19411735,0.35910082,0.27480268,0.068255864,-0.014368831,-0.3206409,0.032195892,0.17391379,-0.572612,-0.19283925,-0.09525282,-0.22019581,0.3789255,-0.040450625,-0.03769503,0.58715415,-1.27973,0.08523713,0.0743969,0.24750262,0.4184592,-0.25955218,0.15881446,0.15995318,0.17081733,-0.33701584,0.14734556,-0.20192157,-0.33466113,0.7613279,-0.034308646,0.053359617,-0.1737714,-0.094771676,0.26773787,-0.10923812,0.35582662,-0.6870832,0.14666265,-0.44497728,-1.5854226
-0.097981654,-0.024295082,-0.05602805,-0.10961425,0.22078411,-0.08921672,0.22872041,0.08696521,0.15124938,-0.17893764,0.15374897,0.04304901,-0.4118198,0.41732076,-0.15322581,0.28246948,0.18215857,-0.6611874,0.046320155,0.12661454,-0.14462985,0.0058498657,-0.02251067,0.12693009,0.06507137,0.5415794,0.09666605,-0.1783337,-0.3941875,0.12883052,0.047625102,-0.19719532,-0.3672285,-0.14594457,-0.04619429,-0.16343375,-0.30523577,0.038596857,0.27948856,-0.8606192,0.0965318,0.049474604,-0.0044667185,-0.036193606,0.2399607,-0.57373464,0.15242922,-0.14638737,-0.17796728,0.21556108,0.46108317,-0.18139896,-0.11897774,0.082878105,-0.20976858,0.2442737,0.3423609,-0.009196977,0.23050699,-0.6883892,-0.066242106,0.26925865,0.057197507,-0.23580873
0.10099617,0.037951436,-0.018987095,0.16828685,-0.53529274,0.2277134,-0.1313142,-0.3943295,-0.11599373,-0.96697086,-0.143106,-1.0353711,-0.40248832,-1.5295323,0.06130726,-0.0014803747,0.15196353,0.05266384,-0.27956414,0.021895004,-0.025797378,0.1659701,-0.073416896,-0.0021825756,-0.50920415,0.07001943,-0.021291805,-0.2769416,-0.059401494,-0.36431113,-0.3008281,-0.12231836,-0.088180244,0.08382832,0.21994905,-0.062086653,-0.20718515,0.048582062,-0.3778364,-0.16944836,-0.0028406219,0.10742342,-0.2763646,-0.30188084,-0.10387356,-0.22634149,0.10414679,0.19921288,-0.021840086,0.53731644,-0.010548957,-0.32130542,-0.017558713,-0.33330542,-0.23995219,-0.2225512,-0.027406072,0.060926527,0.26656646,-0.21380796,-0.10887448,-0.3288824,-0.5318746,0.28925502
0.0792428,0.15140623,-0.36043411,0.46726316,-0.0059349868,0.022793554,-0.21815197,-0.58893925,0.23602036,0.46930185,0.18548942,-0.21457906,0.3910244,-0.5852597,-0.26287764,-0.090646476,-0.10047085,-0.5925118,0.11982256,-0.046853546,-0.064305894,-0.101518646,-0.14710149,-0.061961576,0.11980355,0.20358227,-0.2386466,0.58910877,0.0066419933,0.3918468,-0.7964749,0.00030051818,-0.08669375,-0.16833346,-0.033488754,0.20735145,-0.12497138,-0.10877484,-0.2534092,-0.032224566,-0.4902486,-0.32217053,-0.43601272,0.3392879,-0.3308934,-0.5037672,0.13900286,0.24626723,-0.06463239,-0.3279174,0.31034622,0.5238282,0.17345583,-0.6103205,-0.04543934,0.04950514,0.4116066,0.13085999,-0.46438685,0.17654873,-0.087885894,-0.4316322,0.2971406,0.04143166
0.019559953,0.24485658,0.045817595,-0.69222456,-0.7790691,0.016939761,-0.4408148,0.6742408,0.98077065,-0.17513388,-1.2779237,-0.16504075,-0.6121555,0.025809586,0.4210944,-0.16906844,0.7091057,0.087570764,-1.4275081,0.14829797,-0.06050196,-0.25128683,-0.2190072,0.41273138,0.2670196,-0.20324078,-0.55148995,0.36023462,-0.39628097,-0.09718649,0.52042437,-0.020898366,-0.6156246,-0.010970026,0.37014055,-0.46799016,-0.2118872,-0.12310761,-0.030809743,-0.1283847,0.6028206,1.1522564,-0.6406215,-0.5191295,1.0353177,-0.15431921,0.6855685,-0.53181064,-0.40802246,-0.61456597,-0.22290047,-0.350635,-0.1519736,-0.27013686,0.19550335,-0.25458592,-0.5129373,-0.07187412,-0.21898478,0.81901944,0.07750397,-0.8387003,-0.4511923,-0.0689231
-0.15810281,-0.14458826,0.2221409,-0.064172596,-0.045573607,0.2007431,0.03567881,0.05204766,0.2520227,-0.20368557,-0.13019195,0.028598662,0.050763104,0.10615593,0.048544977,0.16278724,-0.1420712,-0.11187967,0.12356618,-0.034088906,-0.023473222,0.041074447,0.013072575,-0.079964325,0.07750486,-0.010490074,0.23963341,0.14819898,0.14515953,0.13532354,-0.14799441,0.13701011,-0.17833516,-0.086282566,-0.12512352,-0.01608607,-0.17565274,-0.15887177,0.07402908,0.035716712,0.15638737,0.14265208,0.031458113,0.2344299,-0.0058231032,-0.038752005,-0.03748952,-0.0407556,-0.12662369,0.017411737,-0.19727018,-0.095134504,-0.18494664,0.2183612,-0.1043449,0.08379974,0.15746845,-0.091062374,-0.10717183,0.17476594,0.051192272,-0.116035186,0.14293304,-0.17240568
-0.28754434,0.14110222,0.15668906,-0.25255018,-0.31500039,-0.07856865,-0.48477557,-0.051412676,-0.31444988,0.0820635,0.14627162,0.030168694,0.10879426,-0.5912114,0.3655986,0.16981748,-0.14296284,-0.4601309,0.038091794,0.13418926,0.17461295,0.085665286,-0.19578214,-0.27127907,0.16882542,-0.093517,0.12536137,-0.27935332,-0.26999936,0.13907063,0.2651778,0.021873465,0.10619148,0.24233171,-0.29428306,-7.1857765e-05,-0.13112104,-0.2070669,-0.044398583,-0.014925544,-0.27637804,0.10305524,-0.012525772,-0.13185519,0.08945843,-0.112864025,0.04755233,0.021845492,-0.502835,-0.048054624,-0.55520475,-0.2915093,-0.07301313,-0.08044731,-0.27297053,-0.059400987,-0.59509975,-0.1980452,0.2824824,-0.2943225,-0.046203595,0.27824116,0.011898228,0.051429648
-0.18587117,0.19096231,0.12922285,0.111008294,-0.24479884,-0.19719107,-0.1355675,-0.105692044,-0.13591935,0.13656482,0.2687099,0.20268378,0.03751083,-0.059344303,0.120296694,-0.07398356,0.02141347,-0.21813197,0.08093512,-0.2236785,0.0887366,-0.0629528,-0.02035065,-0.20449165,0.027599946,-0.054124948,-0.31121978,-0.02575163,-0.057149,-0.05360255,-0.2043308,-0.036963865,0.23794296,-0.01811948,-0.5910282,-0.24399252,-0.44472367,-0.28589788,0.17351286,-0.03257313,0.20599079,0.080912285,-0.09438913,-0.011013379,-0.045285072,0.1293602,-0.39526474,0.21548888,-0.2090797,-0.11856209,-0.31680307,-0.4491276,0.20686589,-0.16624366,-0.2033674,-0.22988172,-0.5312252,0.004022325,-0.13708964,-0.12476279,-0.2155375,-0.047605537,0.0787915,-0.010237744
0.06281187,-0.19547366,-0.20499408,0.12798509,0.03047369,-0.03260445,-0.4731324,-0.2652014,0.06511184,-0.21952319,0.3034693,-0.06671702,-0.18868427,0.0005620345,-0.14313358,0.23181783,0.21055469,0.04123517,-0.059622858,0.26464492,-0.053470388,0.12330294,-0.061039686,-0.08713424,-0.03320872,0.3374833,-0.14900966,0.026951645,-0.05011034,0.17696431,0.08201272,-0.105203964,-0.19218266,0.11035352,-0.16161366,-0.038583573,-0.63817436,-0.08732219,0.20418818,-0.11031424,-0.111931816,0.066527925,0.08563799,-0.3948641,0.15708104,0.07557276,-0.2225994,0.003537348,0.10779235,-0.322258,0.13719042,-0.059057392,0.42051035,-0.036030404,0.12730132,-0.38673723,-0.0892753,0.07483216,-0.1592609,-0.18892302,-0.21783838,0.15081543,-0.23095258,0.054293692
0.2994728,0.14577952,0.0434243,-0.13415861,0.06064059,0.19243976,-0.043956123,-0.46303433,-0.2815643,-0.15401182,-0.2339416,-0.18574849,0.062803425,-0.16435675,0.06772665,0.20540872,0.14793898,0.1995303,-0.09250887,0.057262503,0.008683087,-0.04124185,-0.4604661,0.03152638,0.13480592,-0.017972376,-0.12851457,-0.582526,-0.28321895,0.014342249,-0.57577014,0.08123803,0.16521256,0.045933142,-0.06493861,0.0063294107,-0.1314978,-0.04793888,0.066692695,-0.0665534,-0.588733,-0.13233109,-0.009501197,-0.11137462,0.31319484,-0.31463122,0.22312804,-0.18490937,0.2644646,0.42617455,0.04456916,-0.06860354,-0.04738125,-0.12847771,0.0068154866,-0.13366729,-0.16870265,0.13565971,-0.3595322,-0.44746774,-0.35312635,-0.48211747,-0.010739535,0.120496
0.10491409,0.22010918,0.20997025,-0.6017293,-0.06136854,0.21912661,0.05858688,0.18976861,0.20501475,0.1289576,0.067197904,0.0720983,0.01764871,0.03351209,-0.036621716,-0.38615608,0.008236184,-0.10958998,0.03317964,0.1847466,0.24279417,-0.7879387,0.058431063,0.18530424,0.22180709,-0.2541921,-0.46117994,0.1623027,0.2527841,0.02902768,-0.07192837,0.10586652,-0.028131057,-0.43268815,0.09347164,-0.0066238516,-0.21130343,-0.27260673,0.049383003,-0.087716475,0.14669411,0.015902925,0.23526129,0.13370214,0.36389336,0.005571719,0.03211292,0.069149986,-0.11137667,0.055466622,0.03464629,-0.23680447,0.08176961,0.037590574,0.043565318,-0.034353603,0.07388598,-0.38683122,0.1957983,-0.534938,-0.10050532,-0.18084118,0.19558965,-0.13515013
0.3073562,-0.19269557,-0.39220285,0.36434644,-0.11604394,0.02076971,0.59826404,0.19179706,-0.41359055,-0.7931555,0.43268567,0.17319939,-0.29171142,0.46656892,0.22201565,0.040676866,0.22555564,0.07587645,0.0493312,-0.05208774,0.03219051,-0.24868287,-0.098812535,-0.15966398,-0.64006346,-0.11501244,0.07667872,0.6399353,-0.04440054,-0.73683107,0.17618099,-0.39744523,0.29309535,0.051656343,-0.29490378,0.00758802,-0.20025335,-0.17150354,-0.44607002,0.20492285,0.4644482,0.43713865,0.48076335,0.6157757,0.17875548,0.6179009,0.26639026,0.111206464,-0.24736646,0.049017236,0.08274157,0.24643214,-0.66953063,0.015758777,-0.08170751,0.42796803,-0.19612974,0.36499628,-0.08323903,-0.5129708,0.5022307,0.15979788,-0.38049355,-1.1495242
-0.1089868,-0.035640035,0.2222452,-0.096948005,-0.14230517,-0.25816572,0.358927,0.34688145,0.06081673,0.21026269,0.12817913,-0.18109466,0.06163376,0.181472,-0.508851,-0.5456102,-0.13446786,-0.4373952,-0.01566028,0.08004139,0.30025616,-0.11234593,0.24960494,-0.2764279,0.1356371,0.013052954,-0.7211719,-0.6114622,0.12889268,0.1921047,0.15646929,0.018822264,0.07603028,-0.530358,0.048695598,-0.16363859,0.35918692,-0.17990793,0.021724312,-0.057694945,0.11595918,0.01771524,0.1844287,0.2225394,-0.111325,0.06491262,0.085355245,-0.23682824,0.23208083,-0.35478535,-0.16023973,-0.06771588,0.04009954,0.24541898,-0.34990147,0.14547303,-0.22757795,-0.8703751,-0.32621226,-0.01221613,0.04334237,0.0005813648,-0.016609944,0.026845695
0.48554274,-0.3681706,-0.3220207,0.076203994,0.027861852,-0.097467996,0.013182017,-0.034921113,0.42913583,-0.21463297,-0.38595146,-0.072481096,-0.055416863,-0.33810523,0.2641099,-0.48985478,-0.14013416,0.14489067,-0.6965207,-0.06546708,-0.11571131,-0.03439478,0.22990875,0.19353548,-0.0061093587,0.28409943,-0.14518534,0.09821771,0.014002422,-0.19270489,0.10581519,0.14239524,0.0646254,0.026298719,-0.25567177,-0.56647843,0.09385031,-0.050236415,0.10596641,-0.14746994,0.14330243,-0.15958127,-0.1330093,-0.14138137,0.20872903,0.15933934,-0.060018286,-0.2666089,0.46778658,0.50975174,-0.34278297,0.06914132,0.0124857705,0.6025078,-0.53415954,-0.60128903,0.20865189,0.22252296,-0.042300064,-0.031539295,-0.20757632,0.13498737,0.24341826,-0.14638801
-0.1277042,0.1569257,-0.3778147,-0.48651165,0.01887672,-0.19421583,0.074923076,-0.17937872,0.039001185,0.221513,0.32091242,0.25760704,0.15323733,-0.81571674,-0.8086726,-0.17288062,-0.4219505,-0.43978745,0.011164337,-0.24594314,-0.3027592,-0.15326154,0.25388435,-0.7877828,0.107386544,-0.25474805,-0.07084502,0.11052894,-0.007743324,0.05958764,-0.77482706,-0.0701099,0.04550632,-0.39087024,0.2573283,-0.35775307,0.008654635,0.08604785,-0.044843193,0.07398359,-0.4808955,0.15433107,0.37256116,-0.105151646,-0.21918112,-0.34904054,0.38634923,-0.17059308,-0.12752202,0.20164415,-0.224595,-0.25781092,0.007073832,-0.38121274,-0.30112526,0.14762668,-0.06535232,-0.66378194,-0.20808126,-0.101125605,0.049835335,-0.10639841,-0.19336885,-0.059904035
0.15205675,0.014184057,-0.22086975,-0.444115,-0.3960357,0.10619915,-0.29645222,0.59038836,-0.07787426,-0.23529887,0.41900244,-0.19841477,-0.32848254,0.03983602,0.031649355,-0.16796017,0.035019446,0.20474657,0.1430716,-0.20144926,-0.010546576,0.19189134,0.23255558,0.21363506,-0.84818494,-0.21157777,0.13107525,0.37771538,-0.36794025,-0.07088756,0.09638843,0.26894698,0.083513804,0.18002987,0.45943913,0.049822852,0.15738443,-0.12650964,-0.04050856,-0.06585593,0.055782974,-0.038117226,0.12424166,-0.23846152,0.055616375,0.01364923,0.033853654,-0.33999184,-0.3420175,0.65874535,-0.41252434,0.14887378,0.1284416,-0.121216156,-0.05295005,-0.13186528,0.2914885,-0.027885275,0.2199944,-0.15222555,0.099370874,0.17243557,0.039249465,0.13390473
-0.56287605,0.09812598,0.04597673,-0.12191378,-0.2956341,-0.20054886,0.0858971,0.09995488,-0.055268414,-0.29287168,0.02259396,-0.3151133,0.03936981,-1.3042207,0.18902776,0.16410531,0.16204764,0.18387142,0.09136437,-0.5790444,0.05312019,-0.048243664,-0.06554629,-0.14322457,0.16973835,0.40144226,-0.003471955,0.07004993,0.2980999,-0.11825567,-0.012858618,0.24921486,0.049398452,0.27388102,-0.10118636,0.31676358,-0.66800314,0.05528604,0.18635702,-0.20585956,-0.018068926,0.098733075,0.21854287,-0.064721644,0.124264106,0.052933548,-0.21858872,0.04282397,-0.34533414,-0.047094952,0.3140869,-0.95128995,0.22411346,0.06613035,-0.08183248,0.19492,0.27024546,-0.04144785,0.26946273,0.47302538,-0.14047845,-0.15503666,-0.13903184,-0.23898794
-0.118761204,-0.056968197,-0.132415,0.09314643,-0.08247278,-0.28242987,-0.07786412,-0.09102791,0.054082178,-0.4084362,0.09427715,0.045464206,0.14207567,-0.050764665,-0.38969523,0.18139525,0.14988405,0.06536165,-0.1588058,-0.2526634,0.041494302,0.11391206,-0.12523459,-0.037733287,-0.013143574,0.04946387,-0.159465,-0.54871154,-0.06122006,0.15630431,0.05113592,0.01668133,-0.13711452,0.040440135,-0.08863825,-0.0872302,-0.24133474,-0.103500135,0.051478457,0.07025522,-0.45591316,0.07392333,0.2505777,-0.18554847,-0.029342487,-0.013946019,-0.12340587,-0.038416184,-0.050940353,-0.022164458,-0.11298178,0.20912386,0.14750102,-0.15042162,-0.033604458,0.10002395,-0.16639599,0.012104303,0.2034862,-0.25011125,-0.014434767,-0.024218664,-0.016414724,0.11997483
-0.123271,-0.2723278,-0.48142266,-0.068869874,-0.31317735,0.0030043093,-0.058787327,0.28436074,-0.036000904,-0.17221415,0.43589288,0.587679,0.0684362,0.4042921,0.10442394,0.1269073,0.29123777,-0.013217045,0.08990995,-0.5220688,-0.07386701,0.01152552,0.08208037,-0.4441961,-0.13400568,-0.013121749,-0.43475997,-0.33233875,0.18004023,-0.0010402694,-0.4522465,-0.2830441,-0.44069764,-0.004319067,-0.31027737,0.098197505,0.19988388,0.14283448,-0.14227647,0.08703134,0.08219158,0.44506288,0.19633695,0.11035215,0.14566797,-0.037488822,0.23428085,-0.5295502,0.11747674,-0.042585455,0.6816445,0.1740528,0.035431392,0.25166687,-0.08930917,0.113003045,-0.33683714,0.09163439,-0.11730542,0.012147524,0.26978308,-0.044099305,0.09225369,-0.09663724
-0.17918374,-0.18877204,-0.14630485,-0.051606108,-0.05120256,-0.10671611,-0.06634946,0.23497671,0.09753906,-0.3067567,-0.062300388,0.14827254,0.04018437,0.021214634,-0.12479155,-0.46998012,0.041362908,-0.40521035,0.025418129,0.10894395,0.026631601,-0.21283625,-0.11567298,-0.22680432,-0.4896103,-0.64700407,0.08012026,-0.117212586,-0.1770154,0.07835728,-0.5924652,0.13414142,0.14122686,0.092563346,0.006570734,-0.16500808,0.24978226,0.050332926,-0.14851211,0.419324,0.07801221,0.15185507,0.39824858,0.2379822,-0.5357751,-0.14738157,0.13806519,-0.31650725,-0.104467474,-1.0346215,-0.51850337,0.36907703,-0.015372325,0.18390357,0.053821478,0.013647903,0.037382204,-0.1171007,0.104263164,-0.0700572,0.3693727,-0.04322547,0.30606452,0.16563645
0.0892095,0.21055067,0.02206457,-0.4195148,-0.037784476,-0.17589587,0.8461089,0.13159068,-0.19457723,0.080890216,-0.11416349,0.020913731,0.15948714,0.043089487,-0.16859467,-0.21198253,-0.19988506,-0.00785208,-0.33979368,0.51354223,-0.20103283,-0.15477699,-0.26296556,-0.35797155,0.18699111,0.09863895,0.2131975,0.008549467,-0.36607635,0.037232082,-0.41402915,-0.08563726,0.37713733,-0.24607441,-0.8395825,-0.0060493657,-0.02725633,-0.14555228,-0.047345873,0.112075895,-0.4806413,-0.26203275,0.23536697,0.3751738,-0.23260371,-0.44645885,0.29877764,0.1095664,0.14261556,0.33111328,-0.26632932,-0.5941217,0.09893178,-0.020164832,-0.17705108,0.23821138,-0.22909164,-0.22416928,0.06193949,-0.64393884,-0.16733018,-0.21653473,-0.29169574,-0.16811347
0.42158765,0.018166378,0.18937504,-0.4081547,0.10411251,-0.2587701,-0.17672156,-0.6066148,0.14193274,0.42506143,-0.124348596,-0.30161092,0.26687437,-0.052279588,0.45164573,0.027526833,-0.2451346,0.18474,-0.12739667,-0.012703573,0.305475,0.58982366,-0.20458737,-0.07107707,0.17262053,-0.14040884,-0.21471144,0.16870601,0.13138883,-0.06640331,-0.31036732,-0.30990106,-0.16182794,0.023161314,-0.6044817,0.17534937,-0.123641804,0.16748609,-0.10957381,-0.377597,-0.06373373,0.07705383,-0.17553575,-0.056091264,0.30985788,0.04214571,0.0581402,-0.24326715,0.3005622,0.24932395,-0.5163024,0.4172477,-0.1371165,-0.15968227,0.14738749,-0.030193243,0.16592243,0.11055912,-0.68007934,-0.11222141,0.18562357,-0.0054419166,0.29284406,0.06551992
0.22351702,0.12404561,-0.19541572,-0.23214929,-0.47212493,-0.04112783,0.1903328,0.1793697,-0.1902513,0.03616694,0.116795,0.19065714,-0.0022537399,-0.06217431,-0.24813549,0.12104578,-0.24595153,0.20338003,-0.0580172,-0.076938234,0.27313754,-0.026322868,-0.08589436,0.18194349,-0.0021497014,0.20009719,-0.020090036,-0.0945009,0.059686463,0.27184662,-0.7150083,-0.16697334,0.12690537,0.0576074,0.009403319,-0.05862341,-0.09517794,0.07547445,0.45646277,-0.69541353,0.19940959,-0.11219465,-0.09657243,-0.1295478,0.28259358,0.09833748,-0.1568474,0.026785519,-0.18251169,-0.12476251,-0.06472927,-0.13713065,0.28938356,-0.19056892,0.23562622,-0.08140754,-0.30845678,-0.12362748,-0.58707225,-0.2551045,-0.40671372,-0.26439664,-0.3197279,-0.56195945
-0.1945739,0.045373783,-0.15278006,0.123976246,-0.06506483,0.19049205,0.010566235,0.08078565,-0.06316778,0.12900932,-0.1175711,-0.08840288,0.098814085,-0.058579206,-0.07503347,0.08812936,0.16433288,0.19796304,0.16555934,0.14430134,0.09214847,0.055417284,0.01031965,-0.21622342,-0.16521779,-0.024867624,0.025633126,-0.042670906,0.0043637753,0.060081467,-0.02730462,0.03775032,0.015395671,0.069153324,0.15473275,0.008959949,-0.12187774,-0.12540776,-0.13839988,0.15855597,0.117449954,-0.1715037,0.16484003,0.085715786,0.11547713,0.15288587,0.19328098,0.14011844,0.11621739,-0.0344391,0.14700861,0.20482092,0.21376319,0.15431736,0.0737081,0.068551645,0.19963695,0.037688687,-0.07960847,0.044512108,0.15837412,0.13703488,0.019287542,-0.028749168
-0.50990933,0.413232,0.40304095,0.27836126,0.1662474,0.039912026,-0.54370993,-0.18999,0.048819765,-1.1413585,-0.5312941,0.08920695,0.16923605,-0.88080853,0.016028224,0.17443033,-0.0043872935,0.16502711,0.46853098,-0.1909319,-0.07652298,-0.07247291,0.93000233,-0.17932433,0.5181234,-0.49815014,-0.1908854,-0.26091614,0.81748354,-0.5133055,-0.15390374,0.23901114,-0.10775837,-0.19576938,-0.21910569,-0.31942514,-0.44890583,0.013444751,0.20557745,-0.41026047,-0.64718777,-0.32952896,0.14147618,-0.44076014,-0.13365486,-0.19931996,0.0016782382,0.6389695,0.43264708,0.0303255,0.3238962,0.10348625,-0.05209764,1.0708803,-0.26422414,0.00547749,0.1921809,-0.10163303,0.331574,-0.07671343,-0.331306,-0.048700802,-0.84369874,-0.017215883
-0.14328757,-0.16760276,0.006322837,-0.4832818,0.124797426,0.11696923,0.4810437,-0.24070214,0.010557771,0.26241454,-0.30320692,-0.06715198,-0.03519132,0.22061427,-0.08413993,0.25383794,-0.054302376,-0.08124908,0.027224593,-0.54569614,0.024671393,-0.20645249,-0.2838149,-0.13400495,0.08938804,-0.02347829,0.2401506,-0.07337992,0.13212165,-0.008175003,-0.34481186,0.18546775,-0.21280093,-0.027889851,0.3350804,0.19544938,-0.17787078,-0.11690058,-0.096807,-0.06468317,-0.21086138,-0.37379372,-0.4860347,0.044388507,-0.0076083005,0.3306538,-0.25646397,0.020283114,-0.45565894,0.4166657,-0.20495747,-0.37201044,-0.25985467,-0.14054896,0.28153095,-0.088849604,-0.28025445,-0.25827566,-0.32475322,0.03109994,0.007240025,0.111373104,-0.21377018,-0.05148194
-1.0133747,0.23723084,0.19510773,-0.07723984,0.04816534,0.21747571,0.13616696,-0.70976657,0.10528117,-0.29454836,0.2624684,0.09025702,-0.49107265,-0.14387585,0.09107692,0.089326166,0.15803611,-0.2108427,-0.114571236,-0.029015146,-1.3056884,0.10320219,0.25681353,-1.1973275,0.027913723,-0.5437808,0.21618472,-0.060747493,-0.18489495,0.02397184,-0.0057695895,0.24449879,0.20962003,-0.20555303,-0.3747592,0.061613947,-0.36002365,-0.19331257,-0.14496672,0.05046086,-0.0022453154,0.039639108,0.18808082,-0.0124391485,0.110894285,-0.13303435,-0.04577975,-0.050252073,0.019718891,-0.13978663,-0.26211852,-0.21612982,0.19581297,0.110896155,0.01256155,0.013175076,0.031501528,1.0150566,0.15121317,0.27146602,0.027951438,-0.15729742,-0.06401116,0.12961328
-0.013897761,-0.015082376,0.16867001,-0.06433703,-0.00026433961,0.02398402,-0.22738296,0.029000547,-0.015204225,0.09739088,0.18119867,0.10263463,0.04835008,-0.058683388,-0.55652523,-0.02908051,0.20662552,-0.03476034,0.21081802,-0.03309121,0.11405637,0.17152645,0.13004072,-0.13974124,0.06988937,-0.011335206,0.11707384,0.23652413,-0.11613092,0.102193676,-0.2815199,0.011115834,-0.09809736,0.109420225,0.27150795,-0.13325112,0.13283302,0.1332731,0.12340052,-0.248351,0.09602561,0.009957635,0.15835196,-0.3795915,0.029159077,-0.5845611,-0.14513898,0.10671943,-0.5799945,-0.25108892,-0.8177992,0.04458833,0.18629299,-0.009973465,-0.08258804,0.17890446,0.17185152,0.013087055,-0.5062138,-0.15350209,0.09439264,0.25549448,0.043159854,0.12536974
0.124452665,-0.035163835,0.13186862,-0.016331255,0.09123646,0.021807179,0.20661668,0.08451302,0.19036369,0.2107134,-0.17696072,0.080355,0.20561208,-0.073809534,-0.064239085,0.15718605,0.13116165,-0.0071324706,0.026935592,-0.13290858,0.031529948,-0.09523731,0.10281129,0.14116,0.07172082,-0.19877678,0.1561581,-0.119068466,0.07267861,-0.21632718,-0.21318352,0.16253059,0.06630705,-0.13791338,-0.050456002,-0.121746056,-0.055482984,-0.08370146,-0.13099414,0.06878565,-0.07889882,-0.16641074,-0.0572785,0.09746523,-0.13428131,0.13578145,0.1939765,0.1456786,-0.108481176,-0.18981187,-0.07021654,0.0006135404,0.04503961,0.12736924,-0.11335903,-0.103398755,8.785725e-05,0.13588546,0.17169814,-0.09770604,-0.11824323,0.14803402,-0.11959421,0.12329082
-0.28714198,-0.19166146,-0.014003274,-0.007041176,0.14272091,-0.13581724,-0.8173606,-0.4246558,-0.09276876,0.39955026,0.10131017,0.018319141,0.39029777,-0.24379182,-0.4208373,-0.095719226,-0.2676224,-0.27138734,0.2514519,-0.18459433,-0.44533476,-0.50083977,-0.5494013,0.08300676,-0.24964416,-0.58222157,-0.15145458,0.032802865,-0.0396176,-0.3851291,-0.32347232,0.24814199,0.3094996,-0.26675364,-0.23583926,0.0339253,-0.18679081,-0.12333556,-0.062151954,-0.2451462,-0.0874578,-0.069554195,-0.21614285,-0.7030739,-0.13171868,-0.24754614,-0.30994263,-0.044358034,-0.08970227,-0.26399437,0.34907076,-0.9212878,0.12967692,-0.11243569,-0.6990463,-0.5494051,0.30258656,-0.37482855,0.24893813,0.13360558,-0.28027323,-1.0473043,-0.21501565,0.034945324
-0.09486232,-0.61624473,0.019745294,-0.04907863,-0.23440133,-0.037227962,0.064014636,0.40455112,-0.2721711,0.0031221802,0.6709839,0.659486,0.12620343,0.16613401,0.467871,-0.8120149,0.011670087,-0.20203014,-0.118964694,-0.0067257388,0.13149312,-0.23256803,-0.14897145,-0.64872223,-0.9914613,-0.4594166,-0.15021753,-0.6511831,0.02628004,0.08388644,-0.13846341,-0.46327758,-0.7766896,0.295372,-0.5243881,-0.20490149,-0.5146091,-0.22811042,-0.895047,0.48816398,0.01575885,0.4750289,0.34860998,0.08337743,-0.22130665,-0.6644045,-0.26128757,-0.37281445,0.060398698,0.3021031,0.20512407,-0.14071213,0.11779072,0.20422544,-0.4036789,0.025858052,-0.06674286,0.08651867,-0.49421644,-0.37146926,0.55893856,0.08794553,0.014410183,-0.21958138
0.071413904,-0.022210112,0.10885401,-0.50829226,-0.20642944,-0.14550339,0.1839122,-0.14780582,0.14605112,-0.5654629,0.07482859,-0.28557333,-0.63588035,0.45188516,0.11929512,-0.012331809,-0.11493552,-0.06347147,-0.084956646,0.121573225,0.0706728,0.37636155,-0.21253571,-0.1126938,-0.14705501,0.06495008,0.10545014,0.24741,-0.37484103,0.2275645,0.051210478,0.07447723,0.24364144,-0.102657296,-0.6309207,0.017195087,-0.70315987,-0.10206198,0.05575779,-0.12911588,0.28200907,0.20938593,-0.1398791,-0.078996144,0.38934553,-0.14519407,0.30730468,-0.030743951,0.07211981,-0.19816075,0.2242249,-0.6178067,-0.20118366,0.04322207,0.0844065,0.08998873,-0.2185056,0.08845681,0.00464976,-0.2236561,-0.24879318,-0.3684494,0.037116762,-0.123339154
-0.17361584,-0.31477448,-0.1169587,-0.45740595,0.22554423,-0.12713426,-0.58809626,0.16782653,0.2765261,-0.41368482,0.04150776,-0.6787604,-0.089076295,-1.4990261,0.1668902,-0.27792415,0.19831024,0.4065882,0.056597784,-0.042400464,-0.06491779,-0.18444715,0.13048247,-0.015997319,0.38013792,-0.42886254,-0.07781247,-0.041059323,0.27645874,0.07928214,-0.050839845,-0.1309228,0.18944374,0.020734854,-0.30681765,-0.15543208,-0.26180598,0.043746583,-0.13123634,-0.63779753,-0.15384603,0.28730482,-0.2953452,0.018504778,-0.02423781,0.17268205,0.37023878,0.014732184,-0.4436441,-0.46126077,-0.069165826,-0.75576854,-0.18721852,-0.05582813,0.2518008,-0.26571938,0.35646838,-0.15279093,0.16977067,-0.74368006,-0.21437407,-0.39372513,0.18376581,-0.10990199
-0.01181438,-0.36676016,-0.49689692,0.052750938,0.19047268,-0.13667504,0.6180885,0.11593989,0.29275656,-0.05634727,-0.49479672,-0.068534985,0.16744022,-0.2712577,0.25025082,-0.058725774,0.14133349,0.34682056,-0.082056075,0.3854964,-0.07851695,-0.056590114,-0.06997103,0.25544408,-0.20576042,0.37473693,-0.12355158,0.31464437,0.14552782,0.011163761,0.14020549,-0.2294985,-0.097088955,0.08431078,0.028360983,0.6106844,0.3147461,-0.080419846,-0.30996713,0.073348485,0.09787767,0.0312705,-0.4044076,-0.018438773,-0.4164674,-0.36034334,0.027182952,0.14770696,-0.025125762,0.01669475,-0.24973193,0.23183197,-0.023429038,0.0079221185,-0.040304128,0.059538163,0.05471681,0.1529993,0.12774913,0.07536599,0.118924886,-0.42622894,-0.09959719,-0.12677884
-0.410952,-0.092386656,0.28291315,-0.040580615,-0.058582734,0.063745424,0.17396249,0.3935423,-0.10381437,-0.007835857,-0.18588643,-0.008555709,-0.09252674,-0.29264688,0.12310263,-0.031528488,0.17053035,-0.024241613,0.0126466965,-0.033600554,0.07799499,-0.095669,0.35779712,0.0004012661,-0.0182049,-0.024034448,-0.018170353,-0.6586744,0.019435693,-0.27472794,0.51947826,0.05370648,0.13599122,0.090945065,0.3418454,0.15790857,-0.14469971,0.11756236,-0.22332816,-0.070465215,0.4902651,0.3821048,0.17282523,0.10980265,0.1360879,-0.140653,-0.026197279,-0.17268233,-0.09439301,0.21464427,0.12711826,0.023041384,0.07392596,0.102889106,-0.14513245,0.36064324,-0.28508607,-0.22177297,-0.64259833,-0.21933967,0.16819984,0.37020522,0.1799676,0.109402046
-0.037460767,0.15464388,-0.015954783,-0.049254205,-0.35647497,0.14310688,-0.066141196,0.13633609,0.25239262,-0.19398852,-0.40290743,-0.14237876,-0.13730453,-0.052713167,-0.050287504,-0.2273951,0.31704885,-0.33930263,0.09045414,0.19104289,0.11400161,0.14164743,0.24690624,0.19760907,-0.24627508,0.12714566,-0.06839039,0.3496015,-0.11424644,-0.2844239,-0.18550928,-0.06779409,-0.59306633,0.18830241,0.23698066,0.16044234,0.20047744,0.14087398,-0.28856695,0.11137567,0.19675006,0.12094529,0.14842002,-0.1556459,0.01851429,-0.21978405,-0.07798364,-0.049348243,-0.24766089,-0.17568158,-0.48351327,0.10830135,-0.41113794,-0.18309338,0.1227678,-0.17568272,0.055372648,-0.1190827,-0.027753176,-0.5801424,0.2928748,0.40953177,0.18279912,0.3212753
-0.15502508,-0.29065844,-0.016094754,0.10760282,-0.21029924,-0.12179678,0.050346192,0.19145638,-0.30567688,0.21547931,0.14735444,-0.15682608,0.034978405,-0.15430513,0.025657544,0.22511773,-0.09625644,-0.20402941,0.11310461,-1.0378524,0.0475519,0.21094476,0.19435598,0.18964656,0.3178064,-0.45479795,0.23388423,0.4227245,0.051019154,0.059901517,-0.7617096,-0.2494903,0.28267232,0.22125517,-0.32355702,-0.17566653,-0.9908069,-0.20557113,0.5608011,-0.43268448,0.26217932,-0.028074423,-0.054188184,-0.006778829,0.039809685,0.21514991,-0.20201848,0.2483135,-0.35568428,-0.21375145,-0.09905984,-0.29152772,0.39161086,0.16375844,-0.1604627,0.07342617,-0.15679967,0.03588495,0.11580848,-0.24087447,-0.39726794,0.075189814,-0.28107497,-0.56038815
-0.2794331,-0.038590916,0.20065908,-0.33704698,0.14991844,0.09825978,-0.12932383,-0.22937255,-0.100002944,-0.69442314,0.09060644,-0.2788146,0.3002506,0.3044712,-0.35244596,0.19468041,-0.14402361,0.1319751,0.14035629,-0.1035427,0.049364544,-0.23979661,-0.10630321,-0.19202313,0.1822864,-0.15001313,-0.11987226,-0.12243293,0.1446193,-0.262205,-0.20968536,0.064962715,0.44412202,-0.050703663,-0.09355002,-0.09050395,-0.26662517,-0.06644792,-0.16486384,-0.10591246,0.09389237,-0.34048995,-0.22430925,-0.005322349,-0.0642198,-0.12978296,-0.19138816,-0.02781987,0.17528167,-0.05566412,-0.5089692,0.3608893,-0.25455013,0.018244851,0.27225077,-0.13493864,-0.65328604,-0.1073798,-0.27013502,0.44283175,0.1159102,0.09442289,-0.5800761,0.21590045
0.17671055,-0.13258812,-0.5864423,0.093990676,-0.2532327,-0.29411998,0.40907037,-0.20058125,0.17490768,-0.095054165,0.05809633,-0.19633895,-0.104136184,-0.18464395,-0.20791893,-0.18373406,-0.19265644,-0.055286977,0.05781223,-0.33735013,0.08931415,-0.35845888,-0.44213152,0.009908846,0.080299646,0.21566333,0.21502504,-0.18079929,-0.5600669,0.04370686,-0.13956138,-0.13846302,-0.16573368,0.13525318,-0.31343773,0.2551344,0.10272816,-0.24839205,-0.21912578,-0.18513756,-0.107833646,-0.05622751,-0.33039173,0.15819821,-0.09434806,0.40614945,-0.56169647,-0.25097325,-0.25242504,0.22281495,-0.24858913,-0.05880966,-0.09486346,0.26331463,-0.023117011,0.28966552,0.19066562,0.06567285,0.02363348,-0.16302574,0.23509869,0.04441274,0.12127491,-0.06878254
0.19186984,-0.10496162,0.03566414,0.58062917,-0.38837612,-0.041013625,0.15204667,-0.21929228,0.0039800666,0.32298058,0.20781836,0.06685468,-0.13288061,-0.25250554,0.16836047,0.34566423,0.12763059,0.31683433,-0.4729788,0.29452026,-0.12956858,0.3042869,-0.058918774,-0.40662095,-0.5322397,0.15892895,0.2586702,-0.18933664,0.38095653,-0.0026619493,0.004741173,-0.11091862,0.24432196,-0.32242787,-0.050889086,-0.32142556,-0.1378517,-0.1074446,-0.3659145,-0.047243707,-0.3053292,0.02453087,-0.10602937,-0.049412604,-0.47820774,-0.14915311,0.37113488,-0.15339439,-0.26102096,0.15021876,-0.16692966,0.68571144,0.13421105,-0.08680523,0.06612765,0.03989634,0.010569169,0.26145625,-0.22711457,-0.20849217,0.17835426,0.18073197,0.14957011,-0.14007264
0.05136422,-0.08573947,0.06445414,0.13041726,-0.4390301,-0.035791676,-0.05554587,0.09309595,-0.68629104,-0.12273473,0.6514502,0.14689587,-0.06307635,-0.11309767,0.444152,-0.53671825,0.11171369,0.01470527,-0.16938308,0.42532304,-0.018029088,-0.51670957,-0.03943536,0.17159972,0.1446041,-0.2974133,-0.03905596,0.20830537,-0.39795485,0.32847828,0.21009181,-0.24940123,0.026118131,0.31560993,-0.16464263,0.09599159,-0.63046855,-0.14024836,-0.7770684,-0.17755663,-0.261998,0.12894164,-0.24020495,0.07743742,0.009346363,-0.62780863,-0.39728996,-0.47874698,-0.21356176,0.37899038,0.26507777,0.15654951,0.08943881,-0.25452197,0.07203678,-0.21417603,-0.25936723,0.04676031,-0.5792319,-0.0403282,-0.029231383,-0.5373806,-0.88682795,-0.057628743
