-0.103945374,0.011347579,0.0585022,-0.273093,-0.049065433,0.04336096,0.0022547932,0.082443245,0.154913,0.17094542,0.2585368,0.08718909,-0.18317865,0.04705626,0.0072241495,0.107501104,-0.03312949,-0.025527671,0.06971546,-0.050760616,-0.13809809,-0.145273,0.09825252,0.005694511,0.16028894,-0.08699163,0.0566904,0.06324005,-0.04314837,0.046007138,0.03376483,-0.04982312,-0.032274097,0.024835248,0.10125595,-0.014731696,0.05017413,-0.08296072,-0.31043747,-0.0032013599,-0.11304114,-0.0045190114,-0.018827043,0.11019285,-0.17279701,-0.01919694,-0.11690538,0.048156336,-0.16328152,0.013633462,-0.2507534,-0.1287024,0.026267665,0.048219785,0.122251675,0.16485524,0.044946257,-0.05210793,-0.034179978,-0.04867705,-0.10659635,-0.31187502,-0.46788478,0.11568382
-0.280006,0.4094262,-0.17254607,0.14356712,0.45635897,0.5358113,0.036105834,0.045294195,0.02110215,-0.056034036,-0.0608277,-0.6074418,-0.2726057,0.17974095,0.12183685,-0.111297034,0.618706,0.2654615,0.3630362,-0.34665295,0.18238929,-0.10847475,-0.055376958,-0.7174714,-0.11055268,0.17890206,0.06612456,0.1310382,-0.38098112,0.049635325,-0.15819085,-0.34962782,-0.044039603,-0.18578856,0.30031082,0.057615764,-0.8387756,-0.25395003,0.21727115,-0.36706173,0.04889249,-0.12391782,0.50509334,-0.42471042,-0.006501465,-0.55531186,-0.19439748,0.10298349,-0.76950413,0.078802675,-0.0035357203,-0.09021489,0.008415839,0.13657828,-0.0609916,-0.035446752,0.32004827,0.19173452,0.54256606,-0.6322968,0.42673656,-0.0877218,-0.14049879,-0.28401768
-0.12054176,0.09241407,-0.21616216,0.0349985,0.104423955,0.14836372,0.67597264,0.48818097,-0.054382183,-0.59621346,-0.51269,-0.11056588,0.030296067,0.050022665,-0.58882046,-0.48663706,-0.018756941,-0.427799,-0.090695985,-0.4123284,0.051844414,-0.42174768,-0.2312731,-0.19203049,0.04322182,0.25452042,-1.0447084,0.07638606,-0.03270248,0.10338014,-0.047691848,0.034065105,-0.034778822,0.50566405,0.12237021,0.5881315,-0.2139718,0.5260235,0.15424624,0.21371603,-0.06902153,0.32437634,-0.0020922306,0.050828535,0.01616151,0.2918688,-0.2857468,0.23768161,0.12686397,-0.6509394,0.08406215,-0.10242531,-0.87091297,0.08740828,-0.1002932,0.3380079,-0.36715144,0.22871126,0.07565595,0.24538206,0.19360417,-0.2782415,-0.994286,-0.20538305
0.31501937,-0.34457266,-0.24618214,-0.5441193,-0.600516,-0.70342934,-0.0086064795,-0.10427919,-0.1438038,-0.0007111999,-0.66198266,-0.21556427,-0.14787048,0.0037421633,-0.11327691,-0.13099721,-0.5132282,-0.3073763,-0.06730071,0.3635028,0.26291758,0.1553358,0.34751782,0.709009,-0.42916635,-0.38117775,0.2474245,0.06993279,0.014250875,0.22025836,0.41574427,0.32591364,-0.48427734,0.09663205,-0.52473825,0.046222907,-0.015415002,0.07877579,-0.27192003,0.42606655,-0.17589878,0.033845358,-0.4290596,0.29843968,-0.8706157,0.47798765,-0.089240044,-0.050116066,-0.005071041,0.01689205,0.008330337,-0.029816449,-0.38455957,0.038958207,-0.011876351,-0.27660516,-0.32506645,0.24117634,-0.37229714,0.5164298,-0.40205324,0.17368284,0.046777062,0.55295455
0.25180912,0.057904422,-0.23518811,0.37700427,-0.02224611,-0.14314437,-0.66651666,-0.55369526,-0.121150605,-0.63828653,-0.12877728,0.15273157,0.07677463,0.09649529,0.5370087,0.31264183,0.1542847,-0.5883852,0.029136486,0.29677433,-0.14593513,0.105329156,0.08731599,0.051279157,0.18906006,0.16061461,0.009089988,0.03535136,-0.02928874,-0.4490359,-0.08999158,0.25780052,0.21569209,-0.51097584,0.082365066,-0.59633315,0.18532611,-0.50203353,-0.23946418,0.12263659,0.036934324,-0.13501579,-0.12052572,-0.4592909,0.013661503,-0.12465296,-0.19552782,0.018962584,-0.3649539,0.6651137,-0.32667437,-0.07499839,0.12393865,0.021385359,0.17833082,-0.11128122,-0.1919906,-0.24900205,-0.13930786,-0.09109051,-0.03902793,0.046137635,-0.0898116,-0.058177184
0.3615878,0.07265429,-0.12997064,-0.12402677,0.18085866,0.15499642,0.0040983055,0.20764841,0.0025052088,-0.22333406,0.15174733,0.24227732,-0.004386765,0.061232787,0.1281507,-0.031619735,-0.021358818,0.40830693,0.1393729,-0.058445618,-0.9668227,0.10211391,0.061703745,0.22861646,-0.35195887,-0.79332775,-0.71625054,-3.2451508,-0.23218691,0.15284313,0.033282544,-0.015816366,-0.114826314,-0.09487394,-0.15299954,-0.033763885,-0.20878594,0.11476276,-0.12503208,-0.101365484,0.011773527,-0.08277744,0.20933066,0.31889883,0.27415746,-0.121787176,-0.21332249,0.076932855,0.25728297,-0.0072786524,-0.18608086,-0.24508166,0.40552953,0.013164718,-1.0329866,-0.8633434,-0.11807191,-0.9490894,-0.100193076,0.06513471,0.1217209,0.053289816,-0.21584621,0.042224992
0.09566165,0.08300994,-0.25657406,-0.14585425,0.31003314,0.30321056,0.023353728,-0.061381996,-1.0277911,-0.040633775,-0.18686001,-1.4658244,-0.3690762,-3.294729,0.07947874,-0.06369178,-0.024139125,0.073995404,-0.11869961,-0.2783916,-0.04796098,0.20524213,0.01907557,0.0023279788,-0.46628004,-0.10564068,0.11925184,0.06599204,-0.08580037,-0.13697378,0.24845563,0.24216352,0.14579087,0.04510457,-0.00625363,-0.015431648,0.22314656,-0.036823902,-0.41771618,-0.006495399,-0.11464857,0.18537956,0.17675427,-0.048710942,0.11161617,0.22329067,0.04073596,0.040363804,-0.91367954,-0.01414855,-0.055027235,0.028168201,0.10966892,0.068259425,-0.076733135,0.098835655,-0.034939412,-0.24318904,-0.008686739,0.29763293,0.2714231,-0.2374442,0.27074248,-0.13830453
-0.56614405,-0.27475253,-0.14452271,-0.9179585,-0.19090542,0.271458,-0.019914625,0.16290767,-0.040059764,-0.58216286,-0.32959485,0.21161442,-0.053871877,-0.006788599,0.04600412,0.2499455,-0.060139157,0.04894929,-0.38516867,0.43946984,-0.5082153,-0.088569656,-0.076568045,0.0020795036,0.054784257,0.17243294,0.024451824,0.028705347,-0.10757754,-0.30482942,-0.21017748,-0.023227548,0.255401,0.18654843,-2.3273833,0.010373654,-0.12647903,0.050216474,0.30359674,-0.11640525,-0.412088,-1.8965242,-0.83035904,0.0376808,0.08052394,0.1297887,0.052566558,-0.07168322,-0.16077109,-0.058967773,-0.017118903,0.0071552694,0.31419095,-3.198651,0.049872503,0.11612749,-0.32968253,-0.21956185,0.0066564307,-0.057152387,-0.03576992,-0.10254256,-0.38864982,-1.3884985
0.015057149,-0.26900372,-0.016261004,0.2229195,-0.16872725,-0.08110344,0.024230814,0.1526198,-0.34363347,0.16582212,-0.19888426,0.26930466,-0.2836516,0.07215812,0.08303992,0.1867365,0.10408896,0.121996835,0.106918626,0.24616472,-0.06829447,-0.8625262,-3.0670033,-0.023576885,-0.21564303,-0.20105813,-0.04187323,0.12091804,-0.009712607,0.066054404,-0.006081549,0.16309208,-0.032142166,-0.0035641405,-0.11435868,0.047382124,-0.009925432,0.10798158,0.34725842,-0.32702422,-0.076911055,-0.024775365,0.05577267,-0.20403364,0.2820933,0.13513981,-0.07609874,-3.1884174,0.230124,0.012246305,-0.009752445,-0.24458781,-1.0213645,0.12524374,0.15943709,-0.6161816,0.41389087,-0.04392993,0.19405097,-0.23066376,-0.6048698,0.25413585,0.17760706,0.21180622
