0.063209005,-0.19501318,-0.011194201,0.14660433,-0.01135489,-0.0010994327,0.064684264,-0.032889288,-0.153902,0.049041823,0.048272185,0.13574494,0.029475246,-0.2496892,-0.061108455,-0.1321979,-0.007830967,-0.2677883,-0.10259912,-0.16892001,0.05768708,-0.003242436,-0.09685139,-0.18943173,0.056117333,-0.18272012,0.060713712,0.044390358,-0.016125392,0.034838658,-0.6691365,0.12952472,0.05587685,-0.1537321,0.037067477,0.05436642,-0.2506617,0.016092088,-0.2627873,-0.040133063,-0.15899624,0.089256994,0.01800026,-0.06326174,0.014039099,-0.0007110685,0.040996037,-0.19169092,0.004504583,-1.4657257,-0.17824623,0.021409815,0.015582248,-0.008054903,-0.13030589,0.026258707,0.048411947,0.087213956,0.04632059,-0.0733987,-0.06460986,0.09147179,-0.033339698,-0.011732829
-0.038191266,0.113682486,-0.7390896,0.04518873,0.3149722,-0.12582977,-0.0043817186,0.20039484,0.1431226,0.054549824,0.22741583,-0.29611248,-0.86496043,0.06388931,0.35819614,0.33986935,0.33033302,0.421057,0.41478604,-0.01719129,0.119779795,-0.7142813,-0.024189046,-0.46105298,0.20244694,0.070335396,0.10515916,0.09599845,-0.004199248,-0.017619064,-0.07697262,-0.4695287,0.366867,-0.12306355,-0.0216078,-0.610183,-0.29354933,0.36498904,0.01624012,0.2857192,0.08223854,0.21418576,-0.23015265,0.008505344,-0.6775195,0.12754071,-3.1666145,0.09718171,-0.01656845,0.15081774,0.14576319,0.071599,0.12878214,0.034410987,0.20172271,0.84466594,-0.10754739,-0.024006633,-0.3012515,-0.87440825,-0.05113259,0.03925191,-0.50946194,-0.28911313
0.139191,0.1881635,0.07748578,0.23580049,-0.03271789,-0.0028462189,0.17880972,-0.39796486,-0.01404986,-0.17366801,-0.016383884,-0.068187974,-0.39936742,-0.07777095,-0.301666,-0.21985632,-0.061559517,-0.016711643,0.076094426,0.05452303,-0.40102437,-0.00079546124,0.37825814,0.15702389,-0.19992884,0.1660636,0.058566008,-0.6654728,0.4913808,-0.38148203,-0.31349364,-0.103165925,-0.107305,-0.14888817,0.34085834,-0.62301886,0.38751715,-0.4250494,-0.14796013,-0.699209,-0.083438665,0.0131795155,-0.2844602,0.10946132,0.23708303,0.5137582,0.1731245,-0.10877067,-0.3060776,-0.28693488,0.06589754,-0.7383795,-1.2728308,-0.76833117,-0.2433519,0.036426734,0.5662102,0.123424724,-0.7273759,-0.4386861,-0.17173119,-0.15338741,-0.41859215,0.017288635
0.1009991,0.30641103,0.13071571,-0.03660468,-0.7152006,-0.28533423,-0.104086615,-0.052017152,-0.23351891,0.055517938,0.0074200765,-0.096696444,0.30665886,0.18557712,0.08317895,0.11100067,-0.40036324,-0.18675345,-0.056821864,0.120459326,0.052675117,0.7396569,0.06401616,0.20969528,-0.24356265,0.013964237,0.06813068,-0.04324976,0.12421525,-0.031960662,-0.15276231,0.34340405,-0.02070799,0.03464578,-0.30031204,-1.3416934,0.022480475,-0.0062897103,0.028632294,-0.077540085,-0.3012939,-0.047861774,-0.16559754,-0.07060953,0.61152613,-0.07753046,0.033258934,-0.14592613,-0.07158943,-0.09101935,-0.3099497,0.12110824,-0.058519974,-0.0112131955,-0.26818922,-0.8343035,0.050250765,0.12217955,0.047618855,0.34889573,-0.8648206,0.16672345,0.5188351,0.5123055
0.038955074,-0.39711246,0.17161965,-0.031246606,0.03186001,-0.18144588,-0.15505384,0.43344522,-0.14815918,0.29698753,0.032498866,-0.19971682,-0.13162084,-0.22695881,0.04042744,-0.37210357,0.25185853,0.26103422,-0.15833578,0.34952986,-0.15149003,0.0516096,-0.1325761,-0.12106196,0.058335625,-0.29928225,0.08825729,0.57266766,-0.30723777,-0.00013050999,0.29334664,0.031828623,-0.13633814,-0.003161952,-0.19718617,-0.017543528,-0.17534064,0.013448208,-0.07974728,-0.49423838,0.07034021,0.088608846,-0.009628457,-0.31654912,-0.2258719,-0.7575579,-0.080805145,-0.2264958,-0.11903657,0.11979666,0.13997684,-0.9000777,0.024455367,0.82950675,0.071586296,-0.024457334,-0.44869292,0.01623251,0.11686025,0.28830338,-0.1732451,-0.58616704,0.3342649,-0.0071052695
0.081585765,-0.0060007866,-0.102712184,0.054336037,-0.33588535,0.036889713,0.16712616,-0.04725639,-0.21906589,0.0011241218,-0.16368614,-0.7858683,0.17092717,-1.0820682,0.20967783,-0.6348429,-0.06570796,-0.1996791,-0.19456719,-0.6606679,-0.46041566,0.05979121,-0.37426135,-0.35070324,-1.0485196,0.14337343,-4.197417,0.21650805,-0.090775795,-0.6395934,0.10547115,-0.4424591,-0.34830838,-0.09257768,-0.43153682,-0.010421933,-0.04917174,0.10580108,0.15343113,0.69122994,-0.35221183,-0.45978665,0.17422199,-0.04923975,-0.008343483,0.38081864,0.16025142,-0.1883772,-0.47924754,-0.69870543,0.27367288,0.564694,0.6160287,-0.0045781033,-0.8581153,0.0572603,-2.3723364,0.07652331,0.72576267,0.0433084,0.34588945,0.5992352,0.08753304,-0.13645579
0.12501225,-0.124318935,-0.029230265,-2.956326,0.014147855,-0.24629577,0.17883243,-0.64885867,-0.09466733,-3.679136,-0.13099723,0.11668724,-0.35992086,0.075844444,-0.046355166,-0.26352337,0.07972287,0.03506304,-1.8413477,0.079577886,-0.16659464,0.07409562,0.43650898,-0.3386841,-0.1271701,-0.38267025,0.10664802,0.0938405,0.011968292,-0.27650145,-0.72530496,-0.66689175,-1.1124682,-0.23779282,-0.2852383,0.09756736,0.1445485,-1.4797524,-0.13057904,-0.04046415,-0.009421373,-0.04300944,-0.27412874,0.03672605,-0.046961844,0.1484444,0.11064948,-0.06530902,-0.18642034,-0.6907386,-0.4842101,0.022531785,0.26260045,0.035215374,0.23586695,0.00638682,0.13594982,0.11080356,-2.3454258,0.053034257,0.121374756,-0.21437338,0.07442549,-2.3310118
-3.5251336,-0.26504654,0.5120564,-0.24178149,0.57761455,-0.28331506,0.2439376,-0.10478271,-0.28289828,-0.0646677,-3.663712,0.21146484,0.04044422,-0.029765768,-2.3539777,-0.069947965,-2.7107804,-0.035052832,-0.35804743,-1.2965072,-0.873784,0.006758279,-0.16430111,-0.30237642,-1.1599663,-0.35642543,-0.03636188,-0.31686723,0.14398713,0.04031075,0.19005753,0.3543916,0.025076173,-0.34921342,-0.8402891,0.16048893,0.25174737,0.016438335,-0.031283744,0.053078894,0.26871353,-0.19301888,0.061015975,-0.28858706,0.10580591,-0.2170324,-0.20183185,-0.08856377,0.05474438,0.2771237,0.26953867,-0.03324084,0.12782499,0.030039802,-0.46337968,0.008653645,-0.13657764,0.042057693,0.46641448,0.21017298,0.4965256,-0.2604008,0.052904412,-0.076697044
0.08313262,-0.9889023,-1.653487,-0.15990935,0.22276808,-0.3361583,0.265491,-1.5067731,-0.29708412,0.12228499,0.21184802,-0.21741702,0.15060492,0.07518208,0.35765022,-0.7139103,0.13870262,-1.8234212,0.23867051,-0.551557,0.3992056,0.05921459,-1.3362441,0.2192754,-0.053319383,0.112023756,0.12999722,-0.15726493,0.18844008,-2.0212402,0.19273403,-0.4520381,-2.1258059,0.020229742,0.0931567,0.09429806,-0.07991035,0.37734172,-0.26673692,-0.30462965,-0.3070974,-2.5878017,-0.18493384,-0.021758065,0.0153276315,-0.13543911,0.063407816,-0.023425698,-0.8922521,0.42948994,0.21293955,-0.25925362,0.024908258,0.047169145,0.09504855,0.025081068,-0.1617174,-3.9306996,0.094867565,-0.022983443,0.008390707,-0.0987666,0.01707407,0.17371924